953 200
</s> 0.002001 0.002210 -0.001915 -0.001639 0.000683 0.001511 0.000470 0.000106 -0.001802 0.001109 -0.002178 0.000625 -0.000376 -0.000479 -0.001658 -0.000941 0.001290 0.001513 0.001485 0.000799 0.000772 -0.001901 -0.002048 0.002485 0.001901 0.001545 -0.000302 0.002008 -0.000247 0.000367 -0.000075 -0.001492 0.000656 -0.000669 -0.001913 0.002377 0.002190 -0.000548 -0.000113 0.000255 -0.001819 -0.002004 0.002277 0.000032 -0.001291 -0.001521 -0.001538 0.000848 0.000101 0.000666 -0.002107 -0.001904 -0.000065 0.000572 0.001275 -0.001585 0.002040 0.000463 0.000560 -0.000304 0.001493 -0.001144 -0.001049 0.001079 -0.000377 0.000515 0.000902 -0.002044 -0.000992 0.001457 0.002116 0.001966 -0.001523 -0.001054 -0.000455 0.001001 -0.001894 0.001499 0.001394 -0.000799 -0.000776 -0.001119 0.002114 0.001956 -0.000590 0.002107 0.002410 0.000908 0.002491 -0.001556 -0.000766 -0.001054 -0.001454 0.001407 0.000790 0.000212 -0.001097 0.000762 0.001530 0.000097 0.001140 -0.002476 0.002157 0.000240 -0.000916 -0.001042 -0.000374 -0.001468 -0.002185 -0.001419 0.002139 -0.000885 -0.001340 0.001159 -0.000852 0.002378 -0.000802 -0.002294 0.001358 -0.000037 -0.001744 0.000488 0.000721 -0.000241 0.000912 -0.001979 0.000441 0.000908 -0.001505 0.000071 -0.000030 -0.001200 -0.001416 -0.002347 0.000011 0.000076 0.000005 -0.001967 -0.002481 -0.002373 -0.002163 -0.000274 0.000696 0.000592 -0.001591 0.002499 -0.001006 -0.000637 -0.000702 0.002366 -0.001882 0.000581 -0.000668 0.001594 0.000020 0.002135 -0.001410 -0.001303 -0.002096 -0.001833 -0.001600 -0.001557 0.001222 -0.000933 0.001340 0.001845 0.000678 0.001475 0.001238 0.001170 -0.001775 -0.001717 -0.001828 -0.000066 0.002065 -0.001368 -0.001530 -0.002098 0.001653 -0.002089 -0.000290 0.001089 -0.002309 -0.002239 0.000721 0.001762 0.002132 0.001073 0.001581 -0.001564 -0.001820 0.001987 -0.001382 0.000877 0.000287 0.000895 -0.000591 0.000099 -0.000843 -0.000563 
la -0.140009 0.049620 0.201488 -0.113860 0.321238 -0.209668 0.206767 -0.055139 -0.112922 -0.077973 -0.420123 0.212731 -0.157433 -0.031290 -0.163245 -0.286105 -0.132550 0.473544 0.598975 -0.083177 0.037949 0.315623 -0.214525 0.594167 -0.003956 0.108690 -0.601656 -0.119553 0.029375 0.275366 0.217380 -0.164608 0.179330 0.015943 -0.219803 -0.180821 -0.038247 0.288029 0.280033 -0.492989 0.055376 0.081457 -0.111077 0.077210 0.178633 0.417552 -0.050093 0.198913 -0.001054 -0.256604 -0.164424 0.515567 0.266053 0.295948 0.007927 -0.063840 -0.183037 0.001864 -0.184551 -0.295452 -0.195454 -0.091966 0.041684 0.202275 0.014169 -0.196410 0.177224 0.090490 -0.095125 -0.143890 -0.137575 -0.013317 -0.115827 -0.545046 0.027085 -0.025798 -0.713628 -0.160815 -0.392380 0.138134 0.162278 -0.022834 0.182015 -0.663720 0.045113 0.492954 0.110133 0.023284 0.000290 0.390433 0.231007 -0.066517 -0.030052 0.386621 0.171546 0.144246 0.299700 -0.387281 0.394281 -0.245203 -0.218211 0.238014 0.191619 0.563831 0.343555 -0.036309 -0.057508 0.041996 -0.114212 0.078204 -0.030325 0.183161 -0.180880 -0.072834 -0.243338 0.203024 0.191028 -0.038634 0.037863 0.247776 -0.219626 -0.554525 -0.178030 -0.077300 0.355748 -0.285015 0.177239 0.167762 -0.102308 0.171866 0.209477 -0.068963 -0.156658 -0.146661 -0.011863 -0.455380 0.147679 -0.007945 0.011306 -0.111573 0.017079 -0.129938 0.244161 -0.190896 -0.041771 0.178213 -0.081879 -0.103709 -0.250317 -0.141861 -0.047809 0.045539 -0.149818 -0.096823 0.168794 -0.251168 -0.271313 0.126211 0.366707 0.122712 0.305428 -0.130067 -0.016713 0.235776 0.372301 -0.231961 0.201451 0.347811 0.329064 0.463640 0.036564 -0.026590 -0.042552 0.220519 -0.043481 0.015442 0.424706 -0.229614 0.215607 -0.044281 -0.301656 0.091791 0.299267 0.038047 0.480462 0.279197 0.324639 0.047495 -0.090238 -0.270923 -0.101411 -0.201787 -0.143634 -0.261168 -0.386582 -0.118547 0.107831 -0.043985 0.228772 0.361796 
le 0.026708 -0.096661 -0.283236 0.073230 0.192053 0.041346 0.114963 0.522982 0.008475 0.197334 -0.372163 0.537522 -0.364122 -0.315067 -0.510067 0.741482 -0.039094 -0.278849 0.247324 -0.019846 0.287400 0.295142 0.165296 0.030151 0.343105 0.193312 -0.429759 -0.057423 0.829347 0.040718 0.124136 -0.125384 -0.208996 0.005569 -0.226911 -0.411861 -0.155315 0.547537 0.296137 0.410664 0.190342 0.474848 0.680766 0.207108 0.281996 0.155698 0.437410 -0.501775 0.168732 0.148543 -0.238755 0.040376 0.201238 0.222189 -0.285030 -0.176235 0.026407 0.157324 -0.021337 -0.471724 -0.075977 -0.268930 0.042024 0.098378 0.028501 0.039079 -0.049943 0.201767 0.290826 0.281329 0.050645 -0.456290 0.019010 0.092318 0.014853 -0.108918 0.011256 0.259946 -0.376690 0.223129 0.178297 -0.265151 0.387451 0.172685 -0.539613 0.317076 0.426866 0.180583 0.470745 -0.277232 -0.451674 -0.138553 -0.238900 0.105629 -0.005828 0.178830 0.348473 0.035472 0.196170 0.053443 0.140957 0.055494 -0.244957 -0.211169 -0.042853 0.209673 -0.120150 -0.138403 -0.246298 0.151242 0.171006 0.229388 -0.091731 -0.457691 -0.260799 -0.273108 0.147782 0.167766 0.201762 0.002608 -0.446757 -0.127985 0.259929 -0.164622 -0.156045 -0.116319 0.105290 -0.035492 -0.168669 0.660260 -0.207958 0.231903 -0.306407 -0.173320 0.112723 -0.081934 0.223458 -0.021213 -0.363563 -0.248557 -0.120584 -0.028807 0.145225 0.268065 -0.245004 -0.232408 -0.037726 -0.446408 -0.249052 -0.638829 -0.585398 -0.025999 -0.266322 0.284886 -0.356390 -0.510048 -0.429114 0.050076 -0.203389 0.018488 0.081362 -0.363643 -0.090001 0.202437 0.033919 0.040817 0.298097 0.438846 -0.054560 -0.002130 0.805730 0.349226 0.477215 0.507097 -0.201670 -0.218706 -0.145237 0.422546 -0.136478 0.141590 0.496663 0.188885 -0.036464 0.062255 -0.060725 -0.041171 -0.012982 -0.041334 0.257352 0.038141 0.088809 -0.589461 -0.208843 0.074309 0.047848 -0.361157 -0.347215 0.391990 -0.308309 -0.123775 
da 0.408618 0.174815 0.041714 -0.065385 -0.145039 0.168581 -0.070772 -0.461425 0.158784 0.051600 -0.144049 -0.312931 0.107733 -0.349916 -0.106590 -0.282527 0.200032 0.258086 -0.095669 0.074903 -0.445700 -0.151799 0.006901 0.200666 -0.208297 -0.420854 -0.130804 0.048209 -0.200706 -0.054630 0.157042 0.001516 0.146993 0.075394 -0.009487 -0.404115 -0.158366 0.047192 0.094366 0.156388 -0.059820 0.153228 -0.579914 -0.137883 -0.046028 0.290065 -0.294934 -0.165231 -0.622031 -0.346870 0.507141 0.279157 0.116571 0.629799 0.137132 0.271970 -0.479122 0.293221 -0.110182 -0.048813 -0.107247 -0.306631 0.167191 -0.074758 -0.062395 0.052359 -0.069575 -0.182725 -0.082815 0.090727 0.313418 0.224564 0.286295 -0.407811 -0.318654 -0.246166 -0.085670 -0.408409 0.468652 -0.156108 0.270103 -0.116309 -0.214136 -0.090760 -0.148846 0.259720 -0.098822 -0.364788 0.189916 -0.207828 0.340000 0.168353 0.371645 -0.359772 -0.298223 -0.162728 0.172146 -0.116482 0.119797 0.189195 0.064239 0.079125 -0.021837 0.127298 -0.419259 0.039701 -0.182718 -0.333632 -0.150004 0.361056 -0.060139 -0.051147 0.048394 0.631926 0.288504 0.221614 0.148453 -0.010667 0.193547 -0.124458 0.618588 -0.121780 -0.404579 0.035977 -0.048845 0.444777 0.616999 -0.182920 -0.029618 -0.167859 0.154990 0.114906 -0.102690 -0.410863 -0.007813 0.028662 0.131565 0.061999 -0.294095 0.007176 0.059550 0.238985 0.019766 -0.019566 0.115399 0.106962 0.102239 0.381832 -0.426432 -1.269219 0.100566 0.048017 0.301848 -0.122475 0.254451 0.158662 -0.301996 -0.184752 0.493912 0.243325 0.166656 -0.317661 0.016222 0.101981 0.330293 -0.050370 -0.471181 0.203026 0.635862 0.348532 -0.633995 -0.046490 -0.210612 -0.037641 0.158753 0.163555 0.142890 -0.395111 0.178311 -0.000141 -0.311302 -0.084401 0.085502 -0.145924 0.060331 0.176376 0.365604 -0.256064 0.289416 -0.260246 0.201791 -0.224738 -0.000664 -0.121692 0.195451 0.254388 0.126018 -0.160012 0.141131 0.138276 
de -0.079122 -0.454457 0.263012 -0.134008 0.055373 0.206674 -0.588913 -0.019222 -0.072070 0.349878 -0.318104 0.210382 -0.148687 -0.215422 -0.009532 -0.061924 0.264151 0.447578 0.160926 0.067806 0.133639 0.124395 0.231642 0.232832 -0.110079 -0.183903 -0.148056 -0.123559 -0.203520 0.036377 0.132940 -0.044126 0.185866 0.260247 0.142319 -0.170073 0.220241 -0.138832 0.104471 0.618166 0.107486 -0.183144 0.213529 -0.032727 -0.259371 0.282493 0.173456 0.170155 0.071097 -0.142511 0.037195 0.422238 0.145995 0.324386 -0.106926 -0.092221 -0.283462 0.043495 -0.007175 -0.107326 -0.061993 -0.168430 -0.119143 0.473348 -0.130521 0.335328 0.077568 0.111626 -0.033896 -0.033547 0.146786 0.159015 -0.148537 -0.168668 -0.043286 -0.167197 -0.437853 -0.245863 -0.060757 0.182800 0.134002 0.423654 -0.104087 0.069059 0.137628 0.221240 0.024816 -0.425816 -0.046838 0.310112 0.280342 0.201344 0.176598 -0.153829 0.122482 0.152685 -0.168109 -0.149709 0.078672 -0.026567 0.116804 0.287669 0.176529 -0.241328 0.117348 -0.119026 -0.032449 -0.360489 0.200936 -0.033512 -0.023118 0.010766 -0.107516 -0.578421 -0.228033 0.010228 -0.230321 -0.061345 0.058361 0.134491 0.090958 -0.265994 -0.245715 -0.400808 -0.121794 0.132196 0.213673 -0.389041 0.136406 0.244631 -0.135067 -0.038010 0.073514 -0.073322 0.009634 -0.172391 -0.033754 0.133709 -0.647778 0.145746 0.186334 -0.120580 -0.265169 0.372603 -0.214801 -0.065831 0.130702 0.140043 -0.273339 0.028314 -0.087997 -0.121767 0.068758 -0.155218 -0.026489 0.002617 -0.038838 -0.491631 -0.135674 0.009927 0.261886 -0.186695 0.083121 -0.176065 0.124876 0.167557 -0.009747 -0.185326 -0.099217 -0.115525 0.076075 0.657389 0.345891 0.463424 -0.376077 -0.114612 0.313937 -0.127837 0.052924 0.108645 -0.044606 -0.370763 -0.116094 0.061721 0.292512 -0.036723 0.081151 0.069921 -0.058660 -0.269490 -0.212560 -0.381414 0.055397 -0.167753 0.204198 0.372019 -0.028251 0.141506 0.100465 0.207780 
ya -0.279040 0.203695 -0.456219 -0.446559 0.297509 -0.334755 0.580610 0.179893 -0.012312 -0.005482 -0.068233 -0.044858 0.006788 0.183329 -0.515018 -0.291691 0.018164 -0.017454 -0.221281 -0.052092 -0.156255 -0.323858 -0.660964 -0.264490 -0.005948 0.042085 0.007181 0.591490 0.330936 0.078077 -0.156470 0.570641 -0.016090 0.151844 -0.224469 -0.051166 -0.197871 0.319048 -0.108179 -0.327434 -0.085092 0.467445 -0.314536 -0.233037 -0.080360 0.262411 -0.456073 -0.312154 -0.413061 -0.245232 0.139743 0.419611 0.165707 0.099002 -0.140362 -0.059477 -0.364485 0.047043 -0.416187 -0.032807 0.120508 -0.150222 -0.066162 -0.032586 -0.151902 -0.510591 0.011515 -0.590908 0.025416 0.062485 0.016153 0.003856 0.062165 -0.129546 -0.236756 0.062040 -0.117475 -0.307519 0.019505 -0.050802 0.065493 -0.015170 -0.022712 -0.098824 0.111807 -0.126900 0.010705 0.089360 0.222731 0.086734 -0.202145 0.122449 0.129236 0.030813 -0.289117 -0.052973 -0.160478 0.115334 0.439201 -0.035722 0.004123 -0.038031 -0.350331 0.565656 -0.131902 -0.264883 -0.422439 0.261219 -0.222305 -0.116607 -0.015301 -0.009436 0.349583 0.177900 0.170073 0.376479 0.524486 -0.234917 0.011502 -0.123642 0.169855 -0.045878 -0.080900 0.053267 0.148607 -0.072476 0.136242 -0.187511 -0.231288 0.074291 -0.079401 -0.178992 -0.364025 -0.104675 -0.091168 0.114329 0.111607 -0.114707 0.625609 -0.255523 0.193517 0.320096 0.072699 -0.300391 0.167328 0.036399 0.190761 0.032438 -0.430179 -0.713465 -0.000612 0.101768 -0.026824 0.209711 0.080822 -0.159581 0.249503 0.274535 0.303480 0.090084 -0.173988 -0.296637 0.049478 0.046588 -0.001510 -0.051850 -0.337332 0.263924 0.159143 0.179000 0.018834 -0.636020 -0.525901 -0.534199 -0.195072 0.214800 0.054729 -0.106391 -0.227836 -0.202680 -0.017706 0.221751 0.640028 -0.227528 -0.024456 0.117743 -0.377715 0.109265 -0.052363 -0.195730 -0.107374 0.096666 0.240140 -0.115331 0.134187 -0.162535 0.070025 -0.174451 0.002974 -0.038728 
a -0.184351 -0.352663 0.146607 0.107630 0.257347 0.071139 -0.114810 0.059209 -0.035810 0.062922 -0.188040 0.234727 -0.172816 -0.358063 -0.266182 -0.132415 0.270100 0.338669 0.201034 0.002952 -0.426805 0.099671 0.188411 0.193885 -0.224014 -0.188593 -0.009228 0.246553 0.016695 0.030797 0.070173 0.303649 0.211671 0.343316 -0.040995 -0.335362 0.221531 0.039523 -0.187444 0.096019 0.073737 0.042199 -0.374250 -0.062754 -0.171612 0.270247 0.030595 -0.166896 -0.191763 -0.480166 0.263890 0.332051 -0.040542 0.262309 0.018629 -0.037018 -0.242259 0.142342 -0.137596 -0.293721 0.141066 -0.477040 0.323164 0.225396 0.115884 0.088329 0.048834 -0.146209 -0.068531 -0.140922 0.198122 -0.077692 0.274651 -0.492086 -0.448094 -0.226428 -0.189837 -0.177578 0.019461 0.016773 0.238308 -0.003515 0.116993 -0.049194 -0.158062 0.215161 0.025742 -0.068299 0.141861 0.036313 0.004883 0.029921 0.146936 0.075308 0.226408 0.195778 -0.084968 -0.078905 0.108250 -0.226540 0.119644 -0.020184 -0.251144 0.313056 0.117894 0.185361 -0.176349 0.143399 0.110264 0.154854 -0.177990 0.120282 -0.050902 -0.063262 0.238721 0.092750 0.169355 -0.061732 0.052686 0.076642 0.097843 -0.112931 -0.120611 -0.434093 0.058455 0.063007 0.224872 -0.596835 0.135873 -0.224656 -0.199280 -0.040948 -0.184973 0.024870 0.012811 0.017365 0.141491 0.220603 0.065127 -0.267463 0.010744 0.180872 0.109178 -0.167221 0.358102 0.209571 0.418457 0.379010 -0.471060 -0.099020 -0.114286 0.102172 0.260819 0.194334 0.156393 0.009606 -0.185665 -0.226902 0.170046 -0.108390 0.174913 0.011162 -0.077635 -0.055132 0.063615 0.050446 -0.427465 0.088914 0.171532 0.129227 -0.148373 0.146475 0.056785 0.121371 -0.156558 -0.002174 0.008964 -0.169321 -0.336962 -0.141678 -0.136731 0.158814 0.224784 -0.027708 0.104999 0.676375 0.433995 0.130218 -0.004598 0.005298 -0.290733 -0.639997 -0.024488 -0.416521 0.155024 0.083862 0.091010 -0.432868 0.178376 0.017065 
ma -0.242629 -0.056016 -0.352214 -0.476711 0.623348 -0.201910 0.446745 -0.046956 -0.028738 -0.145674 -0.302490 0.029667 0.125262 0.267908 -0.485715 -0.153084 0.082758 0.358581 0.131429 -0.356651 -0.099302 0.123951 -0.595305 0.090353 -0.097707 0.067092 -0.255433 -0.001122 -0.084860 0.075538 -0.315160 0.051743 0.164634 0.144414 -0.147990 -0.443487 -0.169216 0.426277 0.166248 -0.315509 0.195842 0.044817 -0.409220 -0.249684 0.107493 0.348703 -0.187014 -0.027529 -0.369388 -0.179957 0.029494 0.331207 0.559600 -0.114775 -0.234872 -0.182736 -0.165122 0.215996 -0.419738 -0.519415 0.068999 0.096469 -0.282879 0.216929 -0.137970 -0.262973 -0.219523 0.027395 0.004428 -0.416542 -0.152553 -0.006891 -0.362672 -0.575381 -0.341072 0.295599 -0.253232 0.084109 -0.204525 -0.091995 -0.061475 0.023937 -0.026892 0.080014 -0.009546 0.112533 0.051209 0.068615 -0.109849 0.406050 0.161998 -0.411052 0.427886 0.289854 0.291782 -0.100512 0.054693 -0.076672 0.335981 -0.276918 -0.121270 0.043618 -0.290105 0.322411 0.570388 0.016213 -0.134134 0.492493 -0.111713 -0.222936 -0.373731 0.202098 -0.054875 -0.180031 0.476211 0.253924 0.161263 -0.210936 0.122970 0.095843 -0.140745 -0.129707 -0.287961 0.052848 0.457355 0.258822 0.335087 0.119862 -0.226686 -0.144689 -0.109918 -0.333804 -0.291230 0.068665 0.399075 -0.318591 0.321327 -0.011778 0.037805 0.014406 0.090167 -0.239022 0.186332 -0.175557 0.234548 0.097420 0.210825 0.088827 -0.556490 -0.233623 -0.097089 0.276430 -0.164280 0.288907 0.565823 0.011053 0.214523 0.032445 0.194547 0.156362 0.167893 -0.226952 -0.005449 0.017708 -0.150358 -0.084310 0.008218 0.103815 0.212967 0.252900 0.306884 -0.278980 0.058329 -0.253468 -0.095209 0.049368 0.220280 -0.078757 -0.190689 -0.064609 -0.048958 0.029555 0.603053 -0.052796 0.158841 -0.064821 -0.130642 0.080023 0.398138 -0.341012 -0.095179 0.090831 -0.016777 -0.218894 -0.065788 -0.241659 0.324434 -0.352167 -0.035093 0.185052 
ve -0.001477 0.073933 0.302008 -0.445784 -0.035407 -0.286210 -0.061703 0.086199 -0.173755 0.047983 -0.120473 -0.019819 -0.526934 -0.091009 -0.140558 -0.353011 -0.004910 0.614769 0.069663 0.256379 0.164617 0.047951 -0.159668 0.028119 0.008399 -0.098447 0.136351 0.010669 -0.133371 0.259797 0.206227 0.735112 0.498766 0.046289 0.068350 -0.093947 0.190923 0.024252 -0.515800 -0.050820 -0.073562 0.024368 -0.512715 -0.183548 -0.138970 -0.002778 -0.090005 0.087073 -0.134912 -0.466740 0.222109 0.553430 0.425418 0.263162 -0.256208 -0.068258 -0.534975 0.078645 -0.288522 -0.225982 0.225675 -0.056628 0.545146 0.073102 -0.265713 -0.450438 0.225445 0.131939 -0.028035 -0.103418 -0.052623 -0.084763 0.102277 -0.290517 -0.013799 -0.035463 -0.388180 -0.302830 -0.225753 0.076745 0.419463 0.357997 -0.092247 -0.202493 -0.124381 -0.011172 -0.064842 0.083136 -0.094665 0.198255 -0.808234 -0.074817 0.388855 -0.086376 0.100623 0.209667 -0.236493 -0.189329 0.132987 0.072691 0.150065 0.083245 -0.186004 0.423044 -0.063081 -0.098841 0.019298 -0.191041 0.414293 -0.247655 0.210216 -0.164489 0.177883 0.118138 -0.121518 0.064863 0.260237 0.205007 0.156640 -0.029463 -0.102951 -0.082933 -0.205706 -0.068015 -0.063296 -0.064891 0.105329 -0.131269 0.111127 -0.051274 0.045351 0.029306 0.303659 -0.088693 -0.339503 0.115918 -0.390266 -0.108450 0.342307 -0.412312 0.270891 0.209908 0.128953 0.012088 -0.002862 -0.102170 -0.087955 0.244528 -0.502021 -0.284785 -0.044462 0.032595 0.431682 0.199993 -0.169082 -0.212084 0.209415 0.165049 0.092699 -0.351763 0.238043 -0.316497 0.138528 0.117873 0.497851 0.025547 -0.075093 0.024313 0.142076 0.153822 -0.373164 -0.335328 -0.351101 0.248632 -0.120251 0.439254 0.500256 -0.051135 -0.380468 0.133367 -0.201994 -0.105362 0.090186 -0.082880 -0.345177 0.087216 -0.122327 0.001175 -0.210087 -0.104254 0.070138 0.046501 -0.136720 0.000070 0.070310 0.074791 -0.105676 -0.039303 0.156297 -0.161399 
ri -0.159535 -0.064151 -0.198286 -0.162129 0.322246 -0.139349 -0.190832 0.570401 -0.206249 -0.045214 -0.300144 0.367990 -0.561205 -0.393327 -0.091963 0.132392 -0.009394 0.214994 0.278028 0.053570 0.007778 0.433022 0.157737 0.117493 0.241196 -0.035513 -0.222364 -0.204028 0.197625 0.366090 0.326284 0.246815 0.219019 0.183752 0.094454 -0.236377 0.102335 0.390582 -0.346089 0.068854 0.139804 0.342697 -0.016535 0.063290 -0.250503 -0.042378 0.409957 -0.356806 -0.015741 -0.128090 0.044956 0.219956 0.245018 0.153173 -0.005662 -0.102291 -0.258098 0.238539 -0.067078 -0.467002 -0.047704 -0.592023 0.754579 0.119948 0.135458 -0.125126 0.170533 0.016285 0.391877 0.166734 0.046655 -0.176125 0.120306 -0.299671 0.003040 0.237567 -0.064281 0.266903 -0.393912 0.033055 0.519061 -0.192676 0.340046 -0.119993 -0.423364 0.350393 0.377601 0.406821 0.172030 -0.192450 -0.536652 -0.425002 -0.092378 0.142235 0.073986 0.316047 -0.254184 -0.291432 0.083601 0.080407 0.252955 -0.090324 -0.536585 0.064130 -0.007103 0.122388 0.029519 0.036614 0.158213 -0.071674 0.142212 -0.121206 -0.417856 -0.349108 0.122770 -0.141941 0.198681 0.076009 -0.203476 0.105769 -0.201146 -0.235428 0.182273 -0.135073 -0.039886 -0.140927 0.029409 -0.092196 0.084147 -0.136353 -0.189681 0.248076 0.045475 0.040658 -0.145742 0.203309 -0.229599 0.119635 0.090675 -0.624856 0.039189 -0.342654 0.179400 -0.080755 0.035350 -0.070461 0.053216 0.210661 -0.464614 -0.012529 -0.265132 0.133207 0.504836 0.361364 -0.172179 0.018199 -0.344808 0.224657 -0.008917 -0.284966 0.214306 -0.243786 -0.020455 0.019269 0.139599 0.248068 -0.062153 0.147631 0.106854 0.201994 0.224899 0.153456 0.101730 0.332352 0.104538 0.275586 0.317487 0.010191 -0.345899 -0.037106 0.185465 0.577360 0.214073 0.210089 -0.354506 0.703370 0.244918 -0.159094 0.050768 0.205077 -0.032475 -0.391409 -0.370945 -0.109169 0.087898 -0.346370 -0.206624 0.003402 -0.064664 -0.273484 
ra 0.410883 -0.125147 0.005510 -0.126676 0.000215 0.241310 -0.055868 -0.110090 0.262252 0.030035 -0.144620 -0.141203 0.043507 -0.189623 -0.104172 0.120742 -0.013020 0.085769 0.080827 -0.118919 -0.029392 0.075946 0.081359 0.209134 -0.091533 -0.048416 -0.145820 -0.041564 -0.115045 0.019936 -0.040150 -0.113891 0.218166 0.009413 -0.021258 -0.212402 -0.014001 -0.106068 0.132343 0.436859 -0.113745 -0.021136 0.011600 -0.027732 0.095452 -0.162515 -0.075183 0.030713 0.057087 -0.020918 0.118617 -0.004136 -0.017975 0.383890 -0.100989 0.166725 -0.013734 0.234354 -0.107200 -0.085271 -0.011950 -0.004679 0.238981 0.054928 -0.262290 0.163036 0.091580 0.243381 -0.106616 0.050787 0.217437 -0.225116 0.054689 -0.177185 -0.277075 -0.225717 -0.325132 0.080714 0.077016 0.012107 0.028054 -0.030646 -0.053786 0.154004 -0.115814 -0.033486 0.189165 -0.100845 0.034363 -0.338123 0.514077 0.220700 0.087062 0.000571 -0.232879 -0.076069 -0.032541 -0.164131 0.199731 -0.042277 0.207384 0.039913 0.082579 -0.076458 -0.089375 -0.010736 0.101968 -0.354924 0.171043 0.021096 0.123063 0.191029 0.163142 0.113000 -0.154221 0.173329 -0.290731 0.056989 0.127318 -0.015450 0.175910 0.077743 -0.447589 0.121236 -0.050849 0.009497 0.002078 -0.200542 0.248880 0.260241 0.012927 0.087585 0.353976 -0.043429 -0.110928 -0.266049 -0.097570 0.003408 -0.230375 -0.373225 -0.208146 0.211466 0.204134 0.211869 -0.074777 0.053917 0.084250 0.102820 0.035448 -0.368668 -0.106549 -0.052622 0.381753 -0.248495 -0.011360 -0.086715 -0.004985 -0.106067 0.106996 -0.207171 0.098403 -0.249526 0.237781 0.047302 0.236388 -0.059913 -0.241234 0.034191 0.419996 0.107739 -0.226248 0.049491 0.080665 0.384943 0.025608 -0.204959 0.063075 -0.089327 -0.202621 0.219261 -0.242799 -0.103773 -0.223993 0.000201 -0.175071 0.008712 0.114516 0.012405 0.007954 -0.096647 0.140062 -0.115117 0.037230 0.107228 0.045568 0.155960 0.079201 -0.086553 -0.024877 0.054559 
ler 0.378463 -0.325907 0.271728 -0.275767 0.166299 -0.111105 -0.151753 0.419106 -0.016503 0.364235 0.216746 0.193535 -0.532418 -0.146502 -0.498641 0.241554 0.044241 0.410161 -0.307942 0.075309 0.199571 -0.241056 0.183451 -0.057340 -0.099994 -0.161032 -0.038616 0.350005 0.202316 0.058314 0.291579 0.504277 0.351441 0.243991 -0.166747 -0.358274 0.205202 0.182270 -0.320426 0.582787 -0.088440 0.347224 -0.118693 -0.155242 -0.231655 0.027028 -0.012579 -0.293739 -0.010509 -0.410041 0.274763 0.452455 0.544392 0.283989 -0.438722 -0.176454 -0.633624 0.429279 -0.012071 -0.206108 0.322162 -0.202062 0.264981 0.232040 -0.294088 -0.145483 0.133400 -0.039046 -0.004501 0.032051 0.081076 -0.120106 0.221937 -0.093389 -0.199920 -0.220046 -0.303602 -0.340733 -0.146620 0.254386 0.345364 0.432204 -0.172170 0.317815 0.121674 0.081035 -0.052030 0.137415 0.220279 -0.219273 -0.661641 0.313411 0.252576 -0.113574 -0.040766 0.337965 -0.208091 -0.085954 0.184990 0.003656 0.397991 0.172335 -0.118815 0.093496 -0.217260 0.025691 -0.358350 -0.512812 0.128232 0.271616 0.193697 0.121765 0.193119 -0.173137 -0.275708 -0.246680 0.017302 0.156637 0.446725 -0.129969 0.100614 -0.167427 -0.092145 -0.575185 -0.447852 -0.053177 0.280902 -0.554691 0.228985 0.446741 -0.374459 0.317286 -0.000794 -0.155191 -0.136352 0.158105 -0.258214 -0.407765 0.031665 -0.298089 0.094051 0.325294 0.013790 0.392706 -0.062644 -0.379768 -0.104804 0.154557 -0.611196 -0.379884 -0.607628 -0.226193 0.224212 0.076530 -0.445446 -0.475141 0.023643 -0.226915 -0.237050 -0.259642 0.060627 -0.374006 0.101213 0.040024 0.376682 0.206524 -0.042763 0.334233 -0.369243 0.052108 -0.135623 0.112160 0.094502 0.539081 -0.520966 0.141510 -0.037020 0.082553 -0.604472 0.138216 0.297232 0.018657 -0.115552 -0.223387 -0.116107 0.137721 0.012905 0.137006 -0.316705 -0.039965 -0.082141 0.046126 0.031473 0.257823 0.395770 0.078406 -0.370733 0.156245 0.039104 -0.269573 
o 0.095363 0.030338 0.077587 -0.383815 0.027304 -0.123465 0.025979 -0.445699 0.108869 0.218925 -0.175553 -0.026110 -0.627498 -0.230058 -0.266741 -0.019623 -0.013567 0.277273 0.282956 0.041139 0.537720 -0.035417 -0.310416 0.145515 -0.145198 0.262584 -0.094141 0.164197 -0.115963 0.148577 0.028440 0.080759 0.282666 -0.220577 -0.351059 -0.094934 0.221690 0.042211 0.367549 0.023321 -0.113025 0.113461 -0.026557 0.100118 0.007813 0.491820 -0.131946 0.281391 0.060249 -0.298217 0.039958 0.579333 0.334039 0.600176 -0.436919 0.074412 -0.503186 -0.016686 -0.226924 -0.295795 -0.152191 0.410023 -0.093863 0.286316 -0.395269 -0.321258 0.228089 0.451585 -0.147553 -0.246913 -0.138648 -0.160332 -0.022751 -0.476226 -0.183969 -0.146469 -0.866314 -0.235944 -0.468737 0.266395 -0.075935 0.169035 0.024403 -0.304425 0.077753 0.039833 -0.274468 -0.372270 0.027354 0.391247 -0.304114 0.376758 0.476900 0.251075 0.176164 0.266504 0.019959 -0.109830 0.289548 -0.225521 -0.092838 0.130706 0.217396 0.407578 0.155705 -0.454347 0.063877 -0.645215 -0.005109 -0.109996 0.349948 0.280255 0.621957 -0.199050 -0.542590 0.287028 0.133986 0.186768 0.363171 0.022968 -0.343480 -0.089242 -0.780795 0.301086 -0.088106 0.089264 0.523386 -0.052570 -0.156094 0.534259 0.225688 -0.306702 0.344842 -0.216733 -0.137034 -0.614261 0.082942 -0.230446 -0.329170 -0.283100 -0.036108 0.582410 0.107359 0.462566 -0.197698 0.200638 -0.081998 0.151605 -0.365451 -1.150587 0.126905 0.085835 0.070304 0.258876 0.015205 -0.836579 0.145996 0.324085 -0.058413 -0.070071 0.303280 -0.170119 -0.211307 0.245590 0.385781 -0.376501 0.270879 0.353162 0.237545 0.463578 -0.284922 0.071036 0.101033 0.541778 -0.256225 -0.060813 0.261178 0.015424 0.142411 0.276404 -0.568268 -0.799989 0.230545 -0.489041 0.348264 -0.264963 -0.113789 0.372158 0.001912 -0.659883 0.034238 -0.013701 0.305712 0.106375 0.018701 0.436760 -0.003896 0.010266 0.170199 0.268603 
ta 0.155874 -0.072832 -0.314355 -0.342345 -0.084887 -0.196750 0.525434 0.491448 0.374461 -0.014771 -0.435981 -0.019116 -0.096519 0.542425 -0.280687 -0.243179 -0.318400 0.578608 -0.094690 0.141571 0.031528 -0.151915 -0.094587 -0.222524 -0.158684 -0.419422 -0.504467 0.093253 0.115736 -0.067334 -0.020646 -0.125898 0.105352 0.466754 -0.020603 -0.724212 0.239828 0.288775 0.342136 0.217540 0.119533 0.052682 -0.082580 -0.381924 0.195784 -0.211380 -0.191935 -0.156794 -0.226056 -0.093238 0.226181 0.466426 0.500703 -0.040110 -0.115425 -0.464103 -0.082997 0.435825 -0.384784 -0.497973 -0.208780 -0.031849 0.057231 -0.023904 -0.361716 -0.161322 -0.160821 -0.010395 0.164764 -0.250039 0.067348 0.076175 0.103744 -0.166525 -0.470714 0.181817 -0.497188 -0.200904 -0.294624 -0.090124 -0.050661 0.134855 0.126383 -0.021124 -0.239921 0.101181 0.744443 0.381065 0.215009 0.106663 0.078052 -0.123495 0.043300 -0.148990 -0.243109 0.095111 0.156737 -0.151876 0.577306 0.075370 0.261704 0.210092 -0.189017 -0.030776 0.098699 0.262342 -0.042164 0.263456 -0.319371 -0.108654 -0.162089 0.171738 -0.136734 -0.156617 0.346308 -0.156421 0.026463 0.190604 0.521677 -0.047618 -0.085429 -0.075367 -0.135641 -0.255193 0.238826 0.453166 0.162489 0.223402 -0.161374 -0.038757 0.085737 -0.063516 -0.186045 -0.300951 0.089806 -0.314506 -0.296875 -0.038921 0.287512 0.304369 -0.006942 0.026232 0.255374 -0.036266 0.049490 0.077137 0.004701 0.180403 -0.522751 -0.486655 -0.442945 -0.028116 -0.244153 -0.175888 0.167976 0.322623 0.105463 -0.058985 0.554089 0.104875 0.218716 -0.555320 0.157260 -0.153101 0.158426 0.081465 -0.075266 -0.141850 0.137213 0.165700 -0.085971 -0.689662 -0.025594 -0.211304 -0.100100 0.060931 -0.179833 -0.141011 0.030808 -0.086882 -0.128579 -0.174128 0.659849 -0.119172 -0.296951 -0.372847 0.000067 -0.098594 0.141192 -0.282561 0.128625 -0.134923 -0.195618 0.071047 -0.036896 -0.408555 0.474211 0.020851 -0.205439 0.183583 
li 0.508186 0.209054 0.382149 0.084713 -0.036543 -0.052307 -0.388170 0.161943 -0.234697 -0.171516 0.123627 -0.008538 -0.526656 -0.454585 0.235742 0.397568 -0.172900 0.367062 -0.204944 0.181195 0.235761 0.315577 0.307029 -0.114466 0.231624 -0.366621 -0.203625 -0.366697 0.330951 -0.022888 0.504352 0.003320 0.362891 0.231611 0.495726 0.162698 -0.062940 0.096381 -0.195189 0.498145 -0.174434 -0.057947 0.313563 -0.324718 0.215051 -0.290632 0.159067 0.146731 0.079248 -0.164965 0.061039 0.427585 0.407401 0.363853 0.158649 -0.158513 -0.375085 0.192625 0.128933 0.052464 -0.066718 0.018108 -0.019128 0.126475 -0.151441 0.116239 0.254205 0.311531 0.333439 0.404456 0.245970 -0.050612 0.265594 -0.215598 0.328563 0.079077 -0.616779 -0.180472 -0.142507 0.391159 0.279556 0.434602 -0.227395 0.107850 -0.551760 0.417411 0.074664 -0.012740 0.174047 -0.344373 0.889897 0.012470 0.004375 -0.119809 0.039994 0.092294 -0.018890 -0.338512 0.235500 0.184077 0.358520 0.500252 0.197695 -0.562716 -0.102463 -0.117933 0.094436 -0.186370 0.471504 0.334347 -0.069570 -0.087936 -0.025946 -0.205799 -0.301961 -0.071040 -0.166511 0.566381 0.423183 -0.165629 0.086837 -0.257464 -0.124055 -0.296885 -0.257674 0.012829 0.016867 0.377792 -0.130052 0.132329 0.027873 0.338684 0.177898 -0.056753 -0.382636 0.239966 -0.336428 -0.152976 -0.405856 0.035817 -0.215407 0.048232 -0.181417 0.608472 -0.386838 -0.152050 -0.166289 -0.081514 -0.403773 -0.822767 -0.414370 -0.036624 -0.211213 -0.187431 -0.239130 -0.094541 -0.129014 -0.258992 -0.295231 -0.246904 0.593472 -0.265023 -0.103057 -0.221079 0.559221 0.171629 0.304918 -0.327629 0.279775 0.080562 -0.173364 0.346690 0.416282 0.490337 -0.460818 0.273933 0.250639 0.176380 0.044443 0.112728 0.026342 -0.465876 -0.294345 -0.063838 -0.553683 0.068097 0.148996 -0.382085 0.099606 0.132350 0.111336 -0.274251 -0.392618 0.207926 0.153990 0.247362 -0.240437 0.686801 -0.125022 0.056795 
na 0.380749 -0.345505 0.116807 -0.261768 -0.258180 0.070243 0.380484 0.115752 0.379989 0.355204 -0.360674 0.050598 0.221484 0.171691 -0.388891 -0.423165 -0.352612 0.295887 0.196385 0.109059 0.085504 -0.246041 -0.067070 0.329978 -0.159151 -0.235264 -0.430526 0.242155 0.445690 0.080729 -0.030339 -0.370238 0.164421 0.072407 -0.133602 -0.522342 0.221136 -0.136405 0.597283 -0.064041 -0.260613 0.030539 -0.382678 -0.127638 0.334119 0.171901 -0.312017 -0.057588 -0.089264 -0.343683 0.129763 0.319321 0.283484 0.520011 -0.243619 -0.020581 0.223077 0.034508 -0.264716 -0.092312 0.063837 0.435948 0.075742 -0.191555 -0.157567 0.092442 0.065618 0.332433 -0.403562 0.061527 -0.238096 -0.402134 0.192988 -0.246047 -0.411857 -0.307147 -0.424672 -0.302790 -0.276379 0.318459 -0.117070 -0.025152 0.385718 -0.518859 0.050900 0.330576 0.309939 0.127954 -0.036010 0.180207 -0.195195 0.339690 0.054587 -0.020525 -0.075508 0.165393 0.401878 0.001528 0.325811 0.039815 -0.031415 0.274782 0.221964 -0.028178 0.047090 -0.050948 0.210382 -0.325447 -0.253352 0.082587 -0.114113 0.239028 0.164976 0.233684 -0.034594 -0.014049 0.051392 0.086067 0.383717 0.037838 -0.080394 -0.416963 -0.537295 -0.054766 0.432306 0.198110 0.291620 0.253141 0.020387 0.246271 0.004726 -0.126390 -0.108260 -0.356596 0.004747 -0.275018 0.067947 0.077345 0.261385 0.191550 -0.142741 0.674619 0.278606 0.301193 0.274436 0.050862 -0.132763 -0.019362 -0.539318 -0.516063 -0.518729 -0.288566 -0.186671 -0.246672 0.213684 -0.379877 -0.095377 -0.111750 0.486405 0.186323 0.388823 -0.206289 0.153486 0.166816 0.421782 -0.528330 0.323785 0.192868 0.089691 0.482597 -0.037093 -0.247312 -0.225613 0.261148 -0.037541 -0.089484 -0.158537 -0.247764 0.247491 -0.162223 -0.527542 -0.550663 -0.036978 -0.331313 -0.161704 -0.330226 0.175152 -0.021185 -0.094253 -0.155153 0.234582 -0.300985 -0.003005 0.054252 -0.040128 0.181327 0.177705 -0.138879 0.201682 0.531996 
rı -0.444362 -0.015933 -0.071864 -0.120006 0.247768 -0.183838 0.247904 -0.043753 -0.487865 0.057585 -0.267067 0.358186 -0.073437 -0.441287 -0.458488 -0.007169 0.055620 -0.103695 0.183160 -0.126685 -0.157783 0.140418 -0.213434 0.153429 0.219302 0.104813 -0.239175 0.010678 0.301943 0.144763 0.174926 0.192964 0.132517 0.087793 -0.212273 -0.137674 -0.091586 0.428607 -0.070160 -0.200320 0.064152 0.452778 -0.297845 -0.139090 -0.193933 0.637847 -0.048689 -0.328402 -0.275871 -0.379729 0.081506 0.312057 0.204208 0.189002 -0.137015 0.238351 -0.469459 -0.139826 -0.391901 -0.155853 0.169007 -0.275181 0.067998 0.035599 0.197068 -0.094790 -0.153082 -0.204408 0.104187 -0.155173 -0.013447 -0.163109 0.153300 -0.409914 -0.205938 0.073894 -0.119848 -0.069364 -0.133117 -0.216622 0.036338 -0.031586 0.186146 -0.316721 0.057758 0.513342 -0.121343 0.018762 0.066876 0.326945 -0.467112 0.169492 0.194078 -0.098287 0.069271 0.097959 -0.045542 0.040595 0.279294 -0.005245 -0.195429 0.155419 -0.373044 0.483318 0.122023 0.034130 -0.249164 0.086017 -0.246576 0.200357 -0.080306 0.130336 0.068647 0.073985 0.236219 0.192437 0.239727 -0.212795 -0.110413 0.329179 -0.022702 -0.356457 0.121165 -0.018010 0.311360 -0.100183 0.300064 -0.291748 -0.130223 0.168633 -0.295589 -0.333048 -0.427301 -0.037270 0.023330 0.187658 0.368608 0.051977 0.058995 -0.183038 0.364870 0.077224 0.199145 -0.230129 0.236279 -0.144470 0.317245 -0.137927 -0.543655 -0.430993 -0.203699 0.046075 -0.025628 0.240564 0.117584 -0.409967 -0.111072 -0.031714 0.219638 -0.030032 -0.086333 0.027819 -0.164974 0.181372 0.146121 -0.056109 -0.189407 0.369812 -0.216003 0.038132 0.275212 -0.109189 -0.024084 -0.026428 -0.257456 0.055460 0.047163 -0.069689 -0.149483 -0.173304 0.228555 0.581440 0.393832 -0.205066 0.257250 0.035124 0.363903 -0.066853 0.145011 -0.265870 -0.179341 -0.362428 0.063740 -0.334861 -0.059176 -0.101229 -0.207175 -0.431508 0.073340 0.214196 
sı -0.064047 -0.371848 -0.381937 -0.209499 0.247686 0.253975 0.125377 -0.294083 0.344557 0.137535 -0.417248 0.085432 0.049805 -0.263716 -0.053279 -0.051138 0.115766 0.072729 0.328863 -0.305197 -0.061630 -0.044691 -0.181503 0.286315 -0.221453 -0.057287 -0.221354 -0.045919 -0.084050 -0.072816 -0.054663 -0.427876 0.123927 0.354527 -0.120246 -0.517272 0.138346 0.121443 0.472788 0.315568 0.169571 -0.033176 0.026572 -0.069321 -0.184032 0.501331 -0.170278 -0.150238 -0.268794 -0.189845 0.005387 0.275368 0.236855 0.313323 -0.041157 0.176461 -0.021287 0.191549 -0.350489 -0.319844 -0.335706 -0.060470 -0.123472 0.298700 -0.147663 0.139727 -0.006138 0.159461 -0.033747 -0.251093 0.245722 0.035021 -0.154866 -0.547082 -0.521761 -0.025621 -0.334503 -0.027008 -0.075637 0.012503 -0.078710 -0.203967 0.335865 -0.021433 -0.307038 0.254309 0.315284 -0.339816 -0.109097 0.263358 0.166391 0.008743 0.388517 0.216060 0.084902 -0.045451 0.001890 -0.077298 0.075719 -0.416843 -0.073859 -0.188831 -0.241485 -0.059467 0.277994 -0.124360 0.098027 0.108172 -0.013728 -0.176656 -0.311279 0.124593 0.014563 -0.292975 0.199970 0.621757 -0.089474 -0.255417 0.079004 0.123880 0.038680 -0.033549 -0.509493 0.140654 0.333906 0.417464 0.358720 -0.175281 -0.148331 -0.053692 -0.086823 -0.222516 -0.074562 -0.193475 0.429090 -0.465331 0.139393 0.280621 -0.115534 -0.101587 -0.150215 -0.023625 0.198042 0.088148 0.221915 0.275503 0.317232 0.332690 -0.328601 -0.831159 0.063053 0.198411 0.069542 0.006586 0.446491 0.196578 -0.156590 0.060298 0.057257 0.139824 0.315392 -0.136627 -0.046145 -0.113702 0.000731 -0.033572 -0.068293 -0.058776 0.489103 0.353786 -0.076115 0.195992 0.119591 -0.012330 0.146449 -0.319859 0.110013 -0.190089 0.303407 -0.016065 -0.417125 -0.352666 0.408368 -0.032784 0.222505 0.078223 0.159252 0.166116 0.290427 -0.515327 -0.067687 -0.351835 0.247246 -0.131774 0.061724 0.187017 0.482258 -0.310806 0.150858 0.337853 
ki 0.550799 -0.143282 -0.232622 -0.159232 0.509814 0.131902 -0.192606 0.198553 0.299552 0.005181 -0.247039 0.213276 -0.214550 -0.177066 -0.712721 0.294053 0.010076 -0.001779 -0.076268 -0.254261 -0.053720 0.062080 0.328255 0.080615 -0.581361 0.300481 0.106970 0.374705 0.026595 0.053007 0.068693 -0.129536 -0.015306 0.571795 -0.173883 -0.173122 0.071014 -0.058641 0.234490 0.769699 -0.314139 0.420339 0.188572 0.329701 -0.241120 0.015170 0.295742 -0.078686 0.118743 -0.040600 0.145223 -0.285105 0.091854 0.367393 -0.049385 0.127551 -0.080599 0.557012 0.294602 -0.464946 -0.497051 -0.339625 0.282034 0.402985 -0.343171 -0.021480 0.259952 0.289510 0.095410 0.322985 0.356617 -0.295137 0.041625 -0.161487 -0.489892 0.014470 -0.154865 0.429186 -0.126971 0.317729 0.301238 -0.228756 0.352580 0.229631 -0.387989 -0.080904 0.382466 0.030103 0.248985 -0.646485 -0.324535 -0.001207 -0.069850 0.285154 0.123553 0.302941 -0.068834 -0.139617 -0.304370 -0.223694 0.259059 -0.135713 -0.240004 -0.386779 0.096895 -0.016247 0.056508 -0.169351 0.267887 0.039725 -0.052308 0.234573 -0.124995 -0.354214 -0.036754 0.398545 -0.027245 0.398078 0.369139 -0.126132 -0.190421 0.177080 -0.403326 0.062468 0.050486 0.047477 0.128200 -0.113498 0.005700 0.172282 -0.315200 0.113023 0.161329 0.371388 0.070304 -0.304253 -0.054124 -0.401492 -0.215422 -0.619888 -0.502663 0.195823 -0.074290 0.542294 0.205624 0.145696 -0.149671 0.650344 -0.350340 -0.428939 -0.257672 0.157869 0.475620 0.170687 -0.191697 -0.332295 -0.080118 0.217792 -0.454718 -0.446483 0.141477 -0.414098 0.098516 -0.309482 0.042294 0.058476 0.024642 0.438545 0.505622 0.366942 0.284118 0.254586 0.367667 0.551460 -0.227387 -0.326280 0.077586 0.107819 -0.567571 -0.139727 -0.437992 -0.145508 0.361343 -0.017611 -0.592769 0.662851 -0.273608 0.212217 -0.212117 0.151943 -0.000224 -0.225100 0.124210 0.371271 0.601343 0.300678 0.092683 0.123715 -0.120767 -0.500575 
ge 0.372314 0.003635 0.149451 -0.448178 0.052772 0.053792 0.047021 0.766771 0.171810 0.285544 -0.050886 -0.233723 0.532475 0.275904 -0.231897 -0.373464 0.140369 0.699309 -0.331590 0.306581 -0.129397 -0.119586 0.082242 -0.014753 0.114326 -0.382767 0.081417 0.005196 0.145419 -0.289628 -0.195432 0.627142 -0.044049 0.365941 0.207258 0.180963 -0.189641 -0.123347 -0.169305 0.677297 -0.058348 -0.359595 -0.079802 -0.203378 0.161265 -0.393515 -0.322083 -0.038624 -0.321481 -0.007100 0.003489 0.319942 0.047017 0.491624 0.206491 -0.651961 -0.086992 0.232242 0.024126 -0.326947 0.135521 -0.143020 0.116875 0.227399 -0.327479 -0.002514 -0.117532 -0.459739 -0.110389 0.393019 0.267218 0.278220 -0.196924 0.451688 0.142420 -0.388151 0.090440 -0.633254 0.461186 0.247063 0.205068 0.174451 -0.142558 0.358272 0.184313 -0.186290 0.751298 -0.087015 0.264976 -0.131895 1.724778 0.171591 -0.329244 -0.349543 -0.293146 -0.083247 0.033600 0.030574 0.176215 -0.005546 0.206702 0.399657 -0.089760 -0.090537 -0.379039 0.181807 -0.209339 -0.030644 -0.074696 -0.273794 0.019262 -0.019406 -0.024280 0.210283 0.136821 -0.348604 -0.030108 0.285121 0.442228 -0.190630 0.381045 -0.103168 -0.063934 -0.655148 -0.476710 -0.147504 -0.032644 -0.406019 0.333817 0.404778 -0.102272 0.287151 -0.103680 -0.300203 -0.269736 0.129817 -0.114713 0.321033 -0.185539 0.196570 0.125505 0.362377 -0.105166 0.100030 -0.098280 -0.046338 -0.225056 -0.002382 -0.196637 0.448533 -0.487659 -0.425257 -0.021053 -0.283011 0.013348 0.420643 0.242316 -0.927576 0.269070 0.122247 0.153970 -0.541434 0.396472 -0.099659 0.029839 0.033108 -0.252454 -0.437661 -0.124538 -0.196739 0.226779 0.213540 -0.208298 0.165813 -0.473419 0.194110 0.043928 0.194077 -0.268538 -0.029272 0.302179 -0.330238 -0.308249 -0.040286 -0.544415 -0.014397 -0.283659 -0.191096 -0.011284 0.428023 0.199751 -0.191674 -0.245349 0.089453 -0.049643 -0.340612 -0.058484 0.295037 0.126941 -0.167500 
i -0.000324 -0.225239 -0.142831 0.102130 0.345072 -0.012856 0.020560 0.592538 0.240814 0.073022 -0.199650 0.147428 -0.240567 -0.229814 -0.154082 0.525465 -0.092639 0.263306 0.351802 -0.024242 -0.081167 0.255813 0.047240 0.285431 0.107171 -0.090081 -0.530593 0.030116 0.453501 0.127851 -0.073235 -0.211251 0.018365 -0.203775 -0.151599 -0.129013 -0.022015 0.207383 -0.065211 -0.070583 0.221669 0.272904 0.085251 0.176131 0.665681 -0.119987 0.195756 -0.352376 0.101210 0.239713 0.035666 0.132591 -0.059569 0.200974 -0.181145 -0.258057 0.223617 0.299471 0.097784 -0.411806 0.130755 -0.195397 0.327059 0.005004 0.093025 -0.015337 -0.240600 0.068150 0.176085 -0.083141 -0.009190 -0.368456 0.254454 -0.201639 -0.023256 -0.196533 -0.383377 0.204704 -0.114210 -0.075433 0.068037 -0.324366 0.224800 0.020378 -0.725363 0.078251 0.328330 0.395537 0.330816 -0.274470 0.187536 -0.117809 -0.259362 0.188248 -0.216126 0.085909 0.112929 -0.179285 0.481078 -0.049380 0.182803 -0.201497 0.142827 0.165135 0.036489 0.147615 -0.369235 -0.139367 -0.238056 0.169496 0.061636 0.280167 -0.230004 -0.431240 -0.085063 -0.494247 -0.121500 0.206135 0.044988 -0.140694 -0.192116 -0.141925 -0.308615 -0.049312 -0.372579 -0.283971 0.105465 -0.145875 0.373504 0.495387 -0.089468 0.591626 0.022572 -0.109247 -0.210002 -0.322484 0.072763 0.283117 -0.428116 -0.304303 -0.219957 0.173236 0.297603 -0.179741 -0.216660 0.203242 0.062318 -0.314039 -0.194296 -0.176358 -0.381529 -0.115544 0.243059 0.161804 -0.127421 0.001711 -0.246038 -0.229812 0.156559 -0.044674 -0.039749 -0.245725 0.031088 0.123632 0.017722 -0.035118 -0.311239 0.297365 0.157573 0.159128 0.220546 0.311744 0.267143 0.333820 0.111178 -0.220608 -0.116263 0.123701 -0.151582 0.339041 0.457528 0.455694 -0.264149 0.233959 0.297384 0.661580 0.283858 -0.082736 0.124621 0.377083 0.116190 -0.252473 -0.536375 -0.286823 -0.021883 -0.608280 -0.214312 -0.073031 -0.289606 0.011058 
ka 0.038385 0.074354 -0.195698 -0.065967 0.059926 -0.048992 0.532299 0.391951 -0.064955 0.006299 -0.012885 -0.236276 0.432198 -0.114255 -0.214114 -0.216793 -0.055467 0.055333 -0.062631 -0.028142 -0.090169 -0.123481 -0.084224 -0.102779 0.043853 -0.405501 -0.216934 0.029905 0.636175 -0.263176 -0.000364 0.080959 0.164731 0.314521 0.057874 0.154354 -0.043899 0.083230 0.160748 -0.114871 -0.191292 0.162120 -0.258202 -0.408626 0.203352 0.138279 -0.281187 -0.268228 -0.490283 -0.123851 -0.060823 0.308989 0.192564 0.341141 0.317591 -0.073966 0.063539 0.158329 -0.174561 -0.175861 0.017282 0.072593 0.025920 -0.115344 -0.030958 -0.003499 0.084083 -0.194397 0.042158 0.266254 0.220838 -0.243592 0.185651 -0.129497 -0.229480 0.025372 -0.145924 -0.316252 0.079516 0.252482 -0.004138 -0.117268 0.350799 -0.215141 -0.262993 0.219568 0.375814 0.206691 0.086427 0.043675 1.035009 0.172959 -0.099930 -0.104192 -0.228479 -0.109385 0.036189 -0.022636 0.325279 0.011874 -0.026620 0.210021 0.035567 0.032221 -0.033041 -0.179893 -0.241259 0.333146 0.085394 0.068687 -0.444182 -0.054726 0.163615 0.117758 0.389504 0.120611 0.042460 0.171861 0.061856 -0.121653 0.224177 -0.060587 -0.251348 -0.241085 0.237866 0.021337 0.098033 -0.084398 -0.009318 0.044457 -0.097240 0.023801 -0.214721 -0.281195 -0.225899 0.199246 0.169496 0.470380 0.187592 0.071797 -0.126327 0.559420 0.032464 0.021656 0.159437 0.230882 0.191723 0.032633 -0.458030 -0.525280 -0.322262 -0.162540 -0.149786 -0.070886 0.470581 0.338292 -0.082250 -0.251515 0.388586 0.123753 0.261762 -0.153098 0.175291 -0.285070 0.108375 -0.238895 -0.178126 -0.217459 0.113283 0.391925 0.026473 0.018496 -0.140252 -0.083473 -0.340374 -0.069900 -0.331589 0.018198 0.149963 -0.275182 -0.028914 -0.165056 0.150518 -0.118596 -0.315201 0.256711 0.188549 -0.258263 0.150598 0.353321 0.289770 -0.188045 -0.142716 -0.115891 0.078343 -0.212417 0.278164 -0.239399 0.245195 0.361115 
ne 0.289711 0.158602 0.139984 -0.080696 0.165830 -0.206331 0.202124 0.343924 -0.080278 -0.067626 0.072285 -0.048270 -0.214831 0.106000 -0.314748 -0.304228 -0.030882 0.513323 -0.134354 0.221403 -0.118255 0.176664 -0.115155 0.067511 -0.202290 -0.241196 -0.232078 0.142982 0.338450 -0.142262 0.071270 0.319689 0.308662 0.317064 -0.217017 -0.013761 -0.002297 0.197802 0.030728 -0.192887 -0.249525 0.112068 -0.278109 -0.212132 0.014875 0.090753 -0.121969 -0.052175 -0.197186 -0.167105 0.221453 0.509985 0.393715 0.042465 0.157514 -0.279160 -0.167171 0.313443 -0.123715 -0.301095 -0.052260 -0.110424 -0.026495 0.010892 -0.188382 -0.122745 0.117681 -0.107166 -0.135005 -0.062664 0.015890 -0.023777 -0.132207 -0.107480 -0.115187 -0.107198 -0.205966 -0.501123 -0.243553 0.393383 0.332266 0.057686 -0.032703 -0.182737 0.133743 0.174096 0.213495 0.237520 0.330578 -0.137194 0.522327 -0.076741 0.027417 0.190640 -0.000539 0.125754 0.129162 0.002826 0.422119 -0.235124 0.107222 0.274773 0.134128 0.336591 0.221305 -0.065708 -0.202208 0.191819 0.125475 0.060402 -0.231010 0.133195 0.179852 0.068275 0.020957 0.142967 0.159047 0.141607 0.354956 -0.117199 -0.005255 -0.334579 -0.224686 -0.510840 0.171083 0.019927 0.256627 -0.144166 -0.185814 -0.006928 0.033043 0.130853 -0.163569 -0.104415 -0.259996 -0.143442 0.049017 -0.096325 0.336967 -0.118788 -0.218664 0.269029 0.088848 0.147539 0.033834 0.108577 0.051664 0.087384 -0.438367 -0.083067 -0.372472 -0.083500 -0.248713 0.040167 0.161313 -0.110833 -0.115317 0.066397 0.161478 0.064192 0.488103 -0.203517 -0.045893 0.065667 0.274204 0.067565 0.139682 0.032953 0.291358 0.375155 0.038004 -0.145099 -0.165500 0.095102 -0.402079 0.192188 0.076097 0.086593 -0.155200 -0.230519 -0.093908 -0.327625 0.319620 -0.073320 -0.122293 0.382774 -0.000231 -0.006351 -0.088422 0.234450 0.077331 -0.248963 -0.231984 0.136359 -0.116119 -0.029507 0.058773 0.045052 0.249381 0.123347 
me 0.134673 0.039280 -0.100485 -0.033509 0.299154 0.049141 -0.017269 0.161644 -0.365606 -0.192145 -0.640505 0.425809 -0.156876 -0.403004 -0.366729 0.110178 0.142967 0.097973 0.053422 -0.044299 -0.122798 0.510476 -0.066414 -0.088170 0.261251 0.121091 -0.336686 -0.257688 0.535999 0.141884 0.100907 0.022613 -0.191859 -0.056822 0.064776 -0.362670 -0.452672 0.580761 0.178116 0.261084 0.298561 0.183349 0.597769 0.040170 0.255041 0.088383 -0.068080 -0.176058 -0.056946 -0.180633 -0.022225 0.146769 0.088676 0.315324 -0.143982 -0.179433 -0.429335 -0.084242 -0.160149 -0.358810 0.195569 -0.282961 -0.278736 0.125711 -0.142123 0.011183 0.218306 -0.194028 0.278383 0.075576 0.128760 -0.080790 -0.364548 -0.058673 0.096841 -0.246063 -0.182989 -0.292801 -0.012198 -0.037171 0.296202 0.095349 -0.085809 0.155680 -0.167579 0.229761 0.096099 -0.240801 0.252400 -0.287150 -0.110453 -0.205191 0.048490 -0.032466 -0.345355 -0.022367 0.442752 -0.207277 0.225432 0.238733 0.277951 0.355324 0.061903 0.042045 -0.091809 0.244142 -0.094175 0.067591 -0.162996 0.064748 0.183428 0.154299 0.170334 0.039050 -0.148907 0.208128 0.424939 -0.312171 0.328439 0.100664 -0.060965 -0.398797 0.194092 -0.200228 0.099966 0.177778 0.141168 0.018910 -0.339951 0.513501 0.154379 0.004834 -0.474238 -0.260231 0.070664 0.019328 0.354597 -0.260076 -0.344034 -0.146610 -0.054108 -0.175755 0.142813 0.027216 -0.400222 -0.151531 0.244301 -0.302698 -0.191528 0.020430 -0.160367 -0.042528 -0.320990 -0.020752 -0.062691 -0.192591 -0.395510 0.042157 -0.112695 0.226327 0.075775 -0.487937 -0.176466 0.229710 0.192643 0.124360 0.202358 0.300272 0.097836 -0.125104 0.403928 0.204880 0.342061 0.211757 -0.315187 0.174220 0.399670 -0.189161 -0.050611 -0.087433 0.152341 0.279294 0.145646 0.173558 0.014530 -0.178512 -0.062701 0.053643 0.324415 -0.437677 0.099317 -0.384362 0.086815 -0.148954 -0.152153 -0.180974 -0.127667 0.428558 -0.205670 0.056943 
re -0.257094 -0.767866 -0.195006 -0.197933 0.119777 0.185996 -0.335588 0.496608 -0.192161 0.616442 -0.188760 0.481905 0.024550 -0.329132 -0.543520 0.330509 0.274113 -0.113275 -0.052845 -0.021819 0.176824 -0.140708 0.265582 -0.169759 0.165534 -0.061655 0.115614 0.203173 0.621674 0.109481 -0.048265 0.198497 -0.015679 0.334945 0.075144 -0.258587 0.218958 -0.017160 -0.093268 0.830221 0.032805 0.278571 0.345924 0.019117 -0.420618 0.236941 0.198173 -0.417290 0.130489 -0.120364 -0.114803 0.065864 0.197964 0.331459 -0.346657 -0.054660 -0.184965 -0.043288 -0.033281 -0.230432 0.368772 -0.189158 0.087866 0.425222 -0.028046 0.279038 0.083345 -0.098513 0.173975 0.246283 0.056185 -0.276475 -0.000917 0.130092 -0.321054 -0.154226 0.140989 0.027413 -0.077436 0.197337 0.129629 0.257492 0.346989 0.477391 -0.006655 0.007060 0.100407 -0.107786 0.067197 0.129708 -1.083557 0.275505 0.033911 -0.242044 -0.033930 0.230862 -0.349600 0.112490 -0.096358 0.214787 0.304382 0.113693 -0.335489 -0.428478 -0.068396 0.011169 -0.162022 -0.199611 0.071039 -0.204378 0.053193 0.070513 0.025903 -0.696782 0.048039 -0.231385 -0.091211 -0.010458 0.123635 0.165406 -0.062849 -0.128577 0.144098 -0.435191 -0.237165 -0.109292 0.159024 -0.506928 0.210990 0.612828 -0.598635 -0.030256 -0.182346 -0.012142 0.085224 0.418653 0.119487 0.071191 -0.434316 -0.116369 0.269520 0.297363 -0.233343 0.385982 -0.077810 -0.247901 0.193926 0.002623 -0.552756 0.234836 -0.508905 -0.251339 0.199114 0.185671 -0.211169 -0.224177 0.035080 -0.512868 -0.430318 -0.169210 -0.180505 -0.220182 0.063995 -0.232020 -0.208024 0.074491 -0.026961 -0.049632 -0.823414 -0.347581 0.672145 0.748985 0.414622 0.511980 -0.706429 -0.232658 -0.070696 0.182202 -0.329713 -0.034852 0.525119 0.096481 -0.211309 -0.063560 -0.302583 -0.109480 -0.120824 0.167266 0.058333 0.009680 -0.058042 -0.446233 0.182063 -0.124158 0.545335 0.054651 -0.347947 0.055104 -0.079384 -0.180379 
nü -0.450907 0.359434 0.240529 -0.829395 0.363566 -0.499951 -0.865944 -0.676503 -0.427638 -0.003299 -0.800599 -0.639834 -0.307928 -0.410352 0.171685 -1.008705 0.772643 0.800801 0.038719 0.116296 0.170579 -0.171589 0.053366 -0.281020 -0.457168 0.605270 1.060053 -0.076950 -1.291679 0.437969 0.000251 1.011663 -0.015624 -0.422691 0.431642 0.513638 -0.265559 -0.732830 -1.106094 0.469142 0.102805 -0.308539 -0.528079 0.314879 -0.307470 0.150485 0.004330 0.513389 -0.532897 -0.148648 0.446446 0.347713 -0.269232 1.101970 -0.082733 0.089264 -0.550468 -0.596372 -0.222049 -0.039064 0.070451 -0.610621 0.903841 0.253983 -0.356214 -0.568207 0.052622 0.220512 0.358396 0.379880 0.459724 0.022253 -0.316806 0.093053 0.152424 0.112601 -0.166810 -0.014483 0.539207 -0.629452 0.058534 0.079711 -0.278362 -0.501480 0.329604 -0.747346 -0.754849 -1.139383 -0.803378 0.192934 0.399976 0.293563 0.420127 -0.678768 0.113960 -0.077646 -1.079981 -0.217691 -0.429987 0.477334 -0.329665 -0.043063 -0.783713 0.568818 -0.705994 -0.357120 0.200404 -0.554803 0.661159 -1.058627 0.736828 -0.404836 0.250910 0.136235 0.030667 0.026588 0.619219 0.109657 -0.225326 -0.250149 0.362069 0.787477 -0.578570 0.643098 -0.253783 0.181253 -0.032171 -0.511935 0.505431 -0.641217 0.365237 -0.803899 1.099004 -0.190884 -0.479239 -0.098531 0.185842 0.384933 -0.490451 -0.540769 0.969414 0.034417 -0.365526 -0.021361 -0.117729 0.229542 -0.137641 0.422087 -0.351820 -0.067685 0.952423 0.393560 1.378256 0.308145 -0.281294 -0.036368 0.912056 -0.123966 0.285088 -0.483179 -0.501083 -0.401611 0.427579 -0.040711 -0.109380 -0.263714 -1.259920 -0.116987 -0.173226 -0.330000 -0.824558 0.006177 -0.598816 0.282554 0.100733 0.243612 0.386898 -0.073588 -0.625826 0.245662 -0.602036 0.010508 0.326141 0.225121 -0.350253 0.029989 -0.619180 -0.258431 0.036019 0.148993 0.262230 0.054442 0.253722 -0.373922 0.196699 0.492773 0.002768 -0.354597 0.353976 -0.733921 
lar -0.191220 0.347854 0.135564 0.405200 0.054889 -0.219505 0.304714 -0.053108 -0.294854 -0.227010 -0.039278 0.037583 -0.197500 -0.151424 -0.400987 0.064572 -0.023743 -0.030929 0.343472 0.084827 -0.026515 0.376325 0.081949 0.342264 0.084741 0.224514 -0.324182 0.028603 0.040354 0.137417 0.356859 0.024409 0.207762 0.041789 -0.320684 -0.591516 0.046362 0.377355 0.014136 -0.396411 -0.012656 0.582307 -0.312691 -0.077000 0.036555 0.353541 0.301127 -0.014608 -0.090517 -0.363702 0.206711 0.272045 0.140410 0.113590 -0.021645 0.081271 -0.217765 -0.046987 -0.226091 -0.088586 -0.096008 -0.200683 0.216567 -0.038124 0.226392 -0.132913 -0.128276 0.140445 0.064333 -0.130666 0.062981 -0.270530 0.281743 -0.447773 -0.364580 0.099391 -0.295790 0.195967 -0.300202 -0.171839 0.184925 -0.076829 0.067482 -0.358876 -0.155758 0.423850 -0.227615 0.309621 0.221940 0.079134 0.000649 0.010466 -0.199018 0.104035 0.196476 0.088134 0.196390 -0.164074 0.409924 0.025387 -0.233670 0.096333 -0.044702 0.648846 0.098192 0.252847 -0.286927 0.023313 -0.097208 0.333557 0.037268 0.283839 0.088076 0.159115 0.211635 -0.151859 0.141594 0.058889 -0.123648 0.219781 -0.176906 -0.203044 0.093670 -0.057956 0.228220 -0.186963 0.323536 -0.104669 -0.014831 -0.003765 -0.098607 -0.202592 0.042741 -0.040446 0.057614 -0.123612 0.345894 -0.073272 0.138461 -0.205098 0.111247 0.150955 0.299090 -0.234146 0.069705 0.047254 0.194951 -0.138744 -0.457125 -0.271631 -0.158695 0.171749 0.060677 0.191575 -0.013736 -0.471256 -0.210220 0.098349 0.380893 -0.110491 0.012948 0.196698 -0.187116 0.320962 0.186109 -0.139198 -0.200263 0.499552 -0.007170 0.373317 0.010479 -0.272909 0.123946 0.414980 -0.223650 -0.025744 -0.158836 0.111331 -0.108026 -0.117581 0.018296 0.498537 0.607753 -0.098042 0.250105 0.336109 0.651789 -0.154660 0.132841 0.053936 -0.039700 -0.464647 -0.078837 -0.245810 -0.211620 0.037695 -0.289779 -0.524161 0.130397 0.120391 
lan -0.466839 -0.157091 -0.336538 0.032323 0.292489 0.016261 0.193256 -0.226355 -0.180179 0.023326 -0.351823 0.185992 0.130354 -0.432914 -0.296219 -0.067796 0.280345 -0.274705 0.287553 -0.203567 -0.286684 0.101802 -0.205613 -0.043224 0.062358 0.055058 -0.008114 0.069866 0.131456 0.113398 -0.081880 0.155159 0.014957 0.075753 -0.096042 -0.169782 -0.028861 0.105578 -0.027689 0.011640 0.254280 0.213357 -0.012299 0.003413 -0.021094 0.404999 -0.115004 -0.206771 -0.137332 -0.335459 0.010799 0.161661 -0.246910 0.287350 -0.031760 0.175540 -0.187965 -0.222912 -0.322366 -0.094835 0.166660 -0.302288 0.096801 0.091848 0.081795 -0.005418 0.020062 -0.275618 0.144243 -0.015195 0.206934 -0.091922 0.032085 -0.347575 -0.406559 -0.147687 -0.222854 0.046790 0.060738 -0.273469 -0.054743 -0.192176 0.258669 -0.129415 -0.260873 0.026683 0.069285 -0.200258 0.017666 0.120428 0.321448 0.180659 0.081557 -0.032564 -0.174711 -0.065165 -0.128479 0.022794 0.224134 -0.158215 -0.045398 -0.058663 -0.334135 0.385857 0.049148 -0.089286 -0.193095 0.130694 -0.075652 -0.109442 0.029744 0.047002 0.238316 -0.054963 0.239682 0.397585 0.248393 -0.374385 -0.273262 0.202499 0.129773 -0.038168 -0.153241 0.069843 0.123391 0.009611 0.087575 -0.453364 0.027255 0.082144 -0.181720 -0.328148 -0.153768 -0.047564 0.075257 0.143022 0.326004 0.263156 0.071193 -0.328391 0.104643 0.207752 0.145644 -0.264131 0.212895 0.199291 0.546483 0.070104 -0.170222 -0.213917 0.137326 0.158030 0.241956 0.167891 0.233558 0.007719 -0.033877 -0.078520 0.178290 -0.097833 -0.120927 0.036309 -0.151117 0.013115 -0.081008 -0.083503 -0.580776 0.077652 0.207491 -0.018716 0.105001 0.110604 -0.050882 -0.068058 -0.074686 -0.147707 0.001854 -0.167506 -0.103574 -0.099508 -0.137624 0.396274 0.323881 -0.043137 0.187968 0.264861 0.146789 0.163698 0.183553 -0.156621 -0.238178 -0.530830 0.234577 -0.426285 0.022817 0.000496 0.041226 -0.574946 0.149030 0.182873 
bu -0.123762 -0.199931 -0.051476 -0.155778 0.202836 0.047382 -0.243558 -0.025211 -0.156875 0.214471 -0.382411 0.179131 0.212908 -0.306874 -0.168884 -0.196987 0.005441 -0.069692 0.013303 -0.095375 -0.060861 -0.136544 0.002427 -0.277329 0.011950 -0.165949 -0.133117 0.088143 0.467364 0.000149 -0.068686 -0.124045 -0.137059 -0.033576 0.123344 -0.135143 -0.297439 -0.263231 0.218536 0.131742 -0.069162 0.168561 0.008178 0.000511 0.249538 0.262777 -0.204219 -0.154026 -0.303204 -0.064208 -0.041943 0.081422 0.005247 0.553378 0.241918 0.145964 -0.027313 -0.196385 -0.016321 0.044189 0.005458 0.080347 -0.142678 -0.110282 0.124706 0.315757 0.139224 -0.085311 0.216899 0.403584 0.072742 -0.270320 0.073371 -0.023210 -0.118523 -0.194546 -0.211957 -0.148593 0.063919 0.127021 -0.181043 -0.124743 0.246847 -0.161350 -0.130787 0.119867 0.012451 -0.386565 -0.026769 0.025468 0.345497 0.287631 0.049070 -0.238769 -0.342709 0.062196 0.019564 0.113319 0.074900 0.204242 0.029735 0.303945 0.012209 -0.358176 -0.026297 -0.315976 0.094521 -0.025063 -0.142285 -0.060342 -0.036808 -0.027030 0.043751 -0.083115 0.033038 0.066805 0.137708 0.033786 0.102903 -0.058896 0.169362 -0.223309 -0.311816 0.119169 0.267040 0.144687 0.118101 0.184064 -0.113876 0.177799 -0.035174 -0.048110 -0.296634 -0.117798 -0.095953 0.119904 0.292544 0.203280 -0.408667 0.027398 -0.013797 0.280287 -0.208845 0.257665 -0.043328 0.146566 0.189510 0.188783 -0.379872 -0.358799 0.056173 -0.130114 -0.171807 -0.021826 0.265225 0.023281 -0.131936 -0.153087 0.209465 0.127743 -0.000771 -0.267808 0.011213 -0.066078 0.027819 -0.317464 0.020491 -0.041323 0.245895 0.016602 0.102132 0.270640 0.113266 -0.085605 -0.065764 -0.033426 0.003982 -0.125219 0.192247 -0.157209 -0.002756 -0.162417 -0.026234 -0.027696 -0.085898 -0.168271 0.076083 -0.083863 0.319968 -0.006349 0.248452 -0.243652 0.148062 -0.212620 0.171694 0.167601 0.187519 0.204067 0.069290 0.344223 
ha 0.178444 -0.185122 -0.257660 -0.702712 0.536103 0.100470 0.136148 0.664128 0.482587 0.149790 -0.695098 0.345033 -0.017510 0.210565 -0.367136 -0.229654 0.109100 0.658995 0.437975 0.037281 -0.074101 0.116837 0.180379 0.243589 -0.081531 0.248740 -0.362220 0.380747 0.689252 0.178848 -0.504254 -0.323649 -0.343154 -0.021025 -0.020595 -0.170627 -0.279315 0.029940 0.517067 0.012937 -0.007673 -0.268695 -0.203338 0.380798 0.476838 -0.310867 0.064525 0.087111 0.156363 -0.037035 -0.191736 -0.021330 0.039827 0.618373 0.008024 -0.413060 0.461017 0.148960 0.091324 -0.870878 -0.141719 -0.392526 0.128876 0.288647 0.033711 0.058422 0.159642 0.046345 -0.173452 0.313909 -0.080822 0.066026 -0.229549 -0.064918 -0.118801 -0.138951 -0.226422 0.130863 -0.084217 0.303382 0.083974 -0.399305 0.457865 0.030917 -0.067092 -0.127741 0.550336 -0.058833 0.200716 0.006801 0.586861 -0.267412 -0.443049 0.524045 0.213896 0.207206 0.361526 -0.197755 0.062823 -0.243673 0.078799 0.150292 -0.458606 0.007311 0.283906 0.137347 0.191365 0.223283 -0.534371 -0.313168 0.104775 0.252122 -0.427828 -0.021136 0.092589 0.048505 0.244590 0.206977 0.409598 0.069896 -0.312598 -0.098378 -0.216903 -0.058684 0.058172 -0.137762 -0.042031 0.194594 -0.249309 0.241355 0.214858 0.050807 -0.071331 0.089480 0.020900 -0.550966 0.057734 0.102481 -0.122629 -0.324894 -0.387111 0.054985 0.126993 -0.034884 0.085994 0.550313 -0.281089 0.140554 -0.103189 0.405857 -0.231405 -0.024518 -0.011964 0.130103 0.200093 -0.206889 -0.040887 -0.032014 0.300821 0.210667 0.253633 -0.498447 0.137904 0.054864 -0.211231 -0.280366 0.241541 0.344867 0.223878 0.090618 0.508055 0.123073 0.074004 -0.012295 0.098274 -0.050230 0.574601 -0.180569 -0.197795 -0.273183 -0.384389 -0.220061 0.051126 0.104035 -0.126082 0.301436 -0.195017 0.145675 -0.097554 -0.012746 0.062617 -0.337024 -0.108045 -0.195461 -0.091021 -0.275907 0.167775 0.194691 -0.076225 -0.095209 
si -0.155620 -0.180601 -0.146249 -0.109585 0.542764 -0.045670 -0.000808 0.227682 -0.347045 0.066774 -0.447363 0.370046 -0.042981 -0.333710 -0.533178 -0.221641 0.183904 0.062535 0.087828 -0.190600 -0.192747 0.277124 -0.037127 -0.001261 0.006421 0.088939 -0.178509 0.108197 0.283979 0.125804 0.115130 0.174749 -0.013423 0.280617 -0.079863 -0.406277 -0.120204 0.320015 0.109710 0.165281 0.141758 0.322423 0.147909 0.023338 -0.295779 0.347097 -0.024576 -0.262942 -0.167513 -0.309828 0.060236 0.204262 0.108847 0.305011 0.073907 -0.034531 -0.337852 -0.037782 -0.227513 -0.284796 0.121351 -0.411418 -0.019396 0.228640 -0.055555 0.064722 0.226597 -0.280293 0.217466 0.089284 0.162604 -0.132787 -0.254312 -0.159028 -0.278189 -0.099362 -0.145568 -0.171916 -0.121112 -0.077887 0.233858 0.049552 0.275377 -0.062109 0.138847 0.195122 0.131311 -0.037305 0.081001 -0.076874 -0.265389 -0.015571 0.012371 0.057914 -0.159545 0.044409 -0.030071 -0.146487 0.166134 0.014192 0.113711 0.214223 -0.236766 0.221113 0.088768 0.061808 -0.195353 0.179355 -0.019469 -0.031230 -0.046967 0.083885 0.094398 -0.135948 0.187985 0.257937 0.237028 -0.312951 0.019105 0.155804 0.064133 -0.393026 0.056546 -0.362650 0.262770 0.002716 0.213478 -0.406834 -0.064079 0.177049 -0.170797 -0.153470 -0.318566 -0.041525 0.032842 0.091186 0.305297 -0.052840 -0.009775 -0.407171 0.111357 -0.050107 0.121711 0.007472 -0.038799 0.023019 0.367241 0.117260 -0.411182 0.514471 -0.160100 -0.044243 0.066132 0.019081 0.118694 -0.034657 -0.245669 -0.002615 0.006014 0.003396 -0.007831 -0.278190 -0.017932 0.108515 0.007401 0.022648 -0.152195 0.181777 -0.084503 -0.001191 0.337380 0.179478 0.110363 0.218231 -0.301832 -0.002537 0.213755 -0.235861 -0.255218 -0.332845 0.144596 0.443123 0.415889 0.129104 0.044668 0.329532 0.108159 0.106353 0.102862 -0.149970 -0.102368 -0.410604 0.235007 -0.250117 0.050666 -0.113296 0.040371 -0.152169 0.158262 0.043438 
e -0.246127 0.355672 0.672881 0.009915 0.217989 -0.244119 -0.368948 0.357673 -0.577229 -0.231576 0.003600 0.082558 -0.825656 -0.331494 0.014133 0.090436 0.357581 0.700869 0.419038 0.228070 0.336751 0.685942 0.333978 0.235166 0.318397 0.170576 -0.370428 -0.244997 0.145302 0.238975 0.341840 0.320319 0.276446 -0.361087 -0.189040 0.216687 -0.231894 0.331783 -0.425844 -0.587964 0.122369 0.147592 -0.107856 -0.067852 0.052387 0.304688 0.603312 0.242778 0.182786 0.050853 -0.114827 0.477844 0.497769 -0.080802 0.045068 -0.193282 -0.257647 -0.164675 0.095764 -0.278488 0.011360 -0.351410 -0.008425 -0.017570 0.221598 -0.185858 0.186152 0.299417 -0.005922 -0.158598 -0.127845 -0.041401 -0.116262 -0.103176 0.462185 0.149243 -0.136888 -0.048239 -0.358655 0.276708 0.508809 0.184688 -0.290329 -0.146220 -0.251335 0.386077 -0.546286 0.229748 0.111414 0.243489 0.210134 -0.438490 0.058544 0.264936 0.547185 0.284588 0.002301 -0.272995 0.128810 -0.049021 -0.126252 0.127502 0.136097 0.471022 0.282084 -0.042561 -0.234252 -0.061528 0.405892 0.231281 -0.004106 0.002315 -0.182426 -0.473015 -0.185693 -0.403102 0.117237 0.221262 -0.061871 0.195451 -0.315983 -0.292704 0.279247 -0.398554 0.006284 -0.133376 0.109076 -0.090044 0.010455 0.020206 0.111401 0.319473 0.189055 0.009178 -0.214160 0.030781 0.221873 0.043659 -0.357626 -0.227155 0.050653 -0.398419 -0.291503 0.060942 -0.481906 -0.067404 -0.031031 -0.316319 -0.392292 0.530819 -0.080717 0.144405 -0.054860 0.409409 -0.278837 -0.389932 -0.172368 0.018871 -0.027091 0.041461 0.247798 0.134353 -0.148249 0.159507 0.057851 0.083255 0.339432 0.257632 -0.208279 0.265332 0.298940 0.484186 0.404782 0.543663 -0.290529 0.233998 0.508810 0.303159 -0.257272 0.079456 0.487929 0.158587 0.260094 0.210005 0.550107 0.541002 0.309180 -0.274043 -0.126472 0.293337 0.142298 0.033448 -0.497073 -0.169052 -0.159942 0.085269 -0.502516 0.152198 0.244972 -0.209850 
sa 0.274396 0.102345 0.160438 -0.123204 0.107467 0.059031 -0.142563 -0.223201 0.003695 -0.202985 -0.530717 -0.053798 0.231116 -0.068202 -0.023106 -0.207334 0.037545 0.344763 0.093143 -0.179373 -0.126640 0.114365 0.199661 0.023560 0.032612 -0.064644 -0.219507 -0.233601 0.023149 0.189784 -0.034435 -0.289371 -0.205566 -0.188395 0.244444 -0.205884 -0.307924 0.009296 0.303704 0.155557 0.075364 -0.132621 0.090698 -0.164861 0.308047 -0.055244 -0.134034 0.225260 -0.106727 -0.026859 -0.007655 -0.061590 -0.009001 0.487818 0.171342 -0.036188 -0.033065 -0.143873 0.032895 -0.098084 0.119903 0.037407 -0.215655 -0.096292 -0.040816 0.189630 0.156096 0.092598 0.109120 0.208225 0.109385 -0.097033 -0.130270 -0.111950 -0.034843 -0.109788 -0.225624 -0.040663 0.169004 -0.120766 -0.083694 0.078145 -0.103409 -0.071167 -0.022203 0.095231 -0.078799 -0.331650 -0.058506 -0.099316 0.601026 -0.013844 0.011674 -0.232460 -0.196276 -0.126495 0.225266 -0.325843 0.000220 0.261300 0.161727 0.399656 0.065016 -0.131458 -0.118414 0.169221 0.269155 -0.052271 -0.138547 0.105763 0.030231 0.126980 -0.043869 0.207341 0.118799 -0.074596 0.058737 -0.098676 0.148720 0.076082 0.248317 -0.212186 -0.122743 0.035810 0.250661 0.311900 0.048072 0.299744 0.040920 -0.053101 0.303419 -0.154534 -0.117836 -0.189709 0.072798 -0.088381 0.330314 -0.087956 -0.490337 0.091142 -0.061295 -0.102802 -0.007638 0.125694 -0.189880 0.124211 -0.026993 -0.068304 -0.129910 0.222938 0.040570 0.010859 -0.178693 -0.297252 0.218903 0.128776 -0.169090 -0.232622 0.338428 0.247760 0.063577 -0.262606 0.092119 0.133794 0.110954 -0.333944 0.054590 -0.062311 0.088784 0.016494 -0.057774 0.033148 0.233731 0.135365 0.117846 0.036311 0.094430 -0.337036 0.129304 -0.084262 -0.190923 0.044796 -0.062150 0.147845 -0.011534 -0.434776 0.176072 -0.163420 0.324251 -0.242281 0.317221 -0.090030 0.006744 -0.126528 -0.163607 0.050215 0.225383 0.166705 0.009650 0.116485 
ye 0.024348 0.356386 -0.036399 0.197659 0.416915 -0.000300 -0.334401 -0.062112 -0.214422 -0.154661 -0.231388 0.067942 0.109828 -0.276021 -0.270076 -0.059206 0.141099 -0.274370 -0.035748 -0.444059 0.047510 0.097398 0.150476 -0.021407 0.000291 0.262939 0.072078 -0.028359 -0.494772 0.319553 0.477834 0.237428 0.005109 -0.224742 0.124029 -0.130809 -0.347386 -0.011942 -0.341275 0.253597 -0.050208 0.616025 0.164682 0.125226 -0.307082 0.267841 0.334314 -0.144038 -0.213216 -0.075388 0.119364 -0.087343 -0.209679 0.500050 0.198163 0.110718 -0.379589 -0.083973 -0.004147 0.056985 -0.097925 -0.369403 0.482170 -0.104035 -0.059049 -0.222213 0.088794 -0.007537 0.343423 0.415304 0.415054 -0.347742 0.065083 -0.090241 -0.150045 -0.019167 -0.036397 0.417822 -0.058433 -0.388101 0.218800 -0.311757 -0.049882 -0.119866 -0.087745 -0.041090 -0.127647 -0.089400 -0.061377 -0.573560 0.556068 0.097983 -0.163803 -0.194867 -0.277269 -0.026634 -0.419656 -0.328912 -0.016646 0.161025 0.135392 -0.070132 -0.445235 0.329887 -0.608608 -0.083558 -0.226671 -0.507734 0.052891 -0.014150 0.416212 -0.072599 -0.000115 -0.075761 0.067496 -0.142598 0.220845 -0.090442 -0.353070 -0.119504 0.368233 0.121999 -0.135433 0.310760 -0.208424 -0.157475 -0.012218 -0.352504 0.509266 -0.123825 -0.104912 0.001789 0.288772 -0.077086 -0.043087 0.070630 0.327985 -0.052292 -0.320966 -0.645717 0.120329 -0.335849 0.056198 0.044387 -0.256720 -0.193596 0.020071 0.192777 -0.295110 0.061550 0.301164 0.185702 0.779828 0.008132 -0.380389 -0.165235 -0.009753 0.040255 0.138194 -0.388005 -0.401287 -0.183773 0.262385 0.257315 -0.064504 0.004794 -0.589069 0.385718 0.154522 0.140999 -0.220968 0.099369 0.011466 0.524306 0.089048 0.024465 -0.014082 -0.030113 -0.446595 0.113615 0.124764 0.650398 0.462531 0.189475 -0.173058 0.336633 0.066085 -0.132723 0.119793 0.233415 0.149918 0.029687 0.145622 -0.035629 0.069437 0.023484 -0.189536 -0.172771 -0.028444 -0.519855 
lı -0.033539 0.041476 0.105863 -0.570234 -0.317203 -0.001019 0.017138 0.156051 0.278805 0.311113 -0.523021 -0.129937 -0.642356 -0.084558 0.077591 -0.371269 0.076219 0.587798 0.470790 0.428826 0.479819 -0.033971 0.171220 0.204400 0.036822 0.060863 -0.163926 0.021242 -0.024803 0.277502 -0.081930 -0.060013 0.099416 -0.373099 0.105112 -0.267329 0.219477 0.148290 0.135551 -0.312849 0.065814 -0.203973 -0.421518 0.207989 0.183273 0.135543 0.317379 -0.091872 -0.051956 -0.128054 0.173248 0.317458 0.348083 0.553302 -0.392761 -0.156279 0.136375 -0.075268 -0.068963 -0.512989 -0.073451 -0.050018 0.515138 0.006236 -0.101276 -0.240791 -0.097363 0.686394 -0.209008 -0.104221 -0.324996 -0.091129 0.108198 -0.224874 0.105697 -0.010745 -0.159999 -0.012013 -0.230491 -0.019288 0.132660 -0.183325 0.418570 -0.383972 -0.271292 0.160746 -0.058916 0.076641 -0.271321 0.524288 -0.954728 -0.288764 0.370620 0.047764 0.507599 0.242734 0.103295 -0.111807 -0.156813 0.272566 -0.074807 -0.156834 -0.185340 0.103751 -0.071986 0.122560 0.222751 -0.441404 -0.160070 -0.184633 0.345858 -0.187509 -0.165506 -0.030442 -0.002954 -0.281658 0.342255 0.363476 0.126951 -0.096164 -0.441330 0.146146 -0.451730 0.202922 -0.147727 0.365729 0.435095 0.188374 -0.149969 -0.291727 0.379978 -0.133647 0.444999 -0.333114 -0.094952 -0.349360 -0.184764 0.347032 -0.104635 -0.181274 0.249451 0.119724 0.175807 0.065032 0.075133 0.224139 -0.335083 0.063638 -0.438256 -0.606686 0.000968 -0.005404 0.360935 0.461155 -0.074105 -0.245798 -0.137551 0.229012 0.277737 0.267012 0.321634 -0.216852 0.012569 0.192317 0.200133 -0.370607 0.262888 0.366005 0.088824 0.353819 -0.239741 0.032995 -0.104457 0.371277 0.419986 0.213335 0.235181 -0.124135 0.055284 0.191095 -0.424429 -0.461571 0.037269 -0.122116 0.058656 -0.062495 -0.001412 -0.254902 -0.041554 -0.277254 0.271333 -0.154529 -0.295438 -0.089573 -0.001275 -0.056899 -0.063299 -0.143507 0.065355 -0.035172 
nın -0.139514 -0.412045 -0.012163 -0.645743 0.294404 0.101420 -0.152214 -0.056394 0.082477 0.083967 -0.723443 0.239614 0.135952 0.022294 -0.245864 -0.408531 0.160165 0.526134 0.070043 -0.082826 -0.086322 -0.078440 -0.024195 -0.118485 -0.144523 -0.023512 -0.045662 0.187436 0.366731 0.048078 -0.391617 -0.186409 -0.190937 0.190627 0.222943 -0.010486 -0.148509 -0.277420 0.442233 0.262118 -0.057862 -0.261084 -0.096198 -0.160758 0.205148 0.099342 -0.267408 0.190064 -0.169954 -0.223251 -0.080107 0.081803 0.080921 0.475723 -0.091347 -0.034848 0.072765 -0.255161 -0.167389 -0.218578 0.027565 0.032154 -0.366397 0.141431 -0.161605 0.251105 0.176456 0.052046 -0.107933 0.219823 -0.059224 -0.056627 -0.211266 -0.165108 -0.201751 -0.049370 -0.460547 -0.163114 -0.010050 0.294335 -0.199375 0.153660 0.116680 -0.062290 0.122009 -0.033789 0.013222 -0.541047 -0.210088 0.336749 0.301764 0.138912 0.122067 -0.043407 0.027582 0.109971 0.113102 0.041029 0.046377 0.021400 0.125151 0.380140 -0.102916 -0.408109 0.259324 -0.202066 0.333409 0.310636 -0.058518 -0.325714 -0.175385 0.171170 -0.000582 -0.184321 0.096199 0.349181 0.196184 0.000100 0.390418 0.114353 -0.047073 -0.072046 -0.398784 0.066483 0.549537 0.408487 -0.021959 0.310687 -0.255828 0.135615 0.029362 -0.433941 -0.275772 0.131643 0.111358 -0.179381 0.152786 0.071142 -0.157824 0.182227 -0.090534 0.228804 -0.331029 0.382185 0.019302 0.335924 0.177583 0.257042 -0.404720 -0.088101 0.005562 0.003025 -0.234428 -0.058890 0.313099 -0.033508 0.359616 -0.192648 0.210309 0.128366 0.273619 -0.384632 0.080404 -0.329402 -0.100154 -0.251445 0.071706 -0.250815 0.006807 -0.124298 0.270244 0.016892 0.077394 -0.207356 -0.243020 -0.076724 0.312295 -0.312559 0.052355 -0.313860 -0.556802 -0.646196 0.178949 -0.035516 -0.157619 -0.426492 -0.328562 0.116545 0.085955 -0.392168 0.043860 -0.175340 0.256724 -0.134406 0.154962 0.447191 0.413335 0.197866 0.128957 0.244457 
bi 0.006590 -0.107826 0.247644 0.164784 0.405004 -0.074914 -0.427219 0.052295 -0.061796 -0.064065 0.084189 0.320735 -0.418471 -0.155647 0.126843 -0.066795 -0.000406 0.440760 0.046181 -0.125115 0.030734 0.118449 0.115714 0.055307 -0.060892 -0.278674 -0.239521 -0.128504 -0.310198 0.113649 0.511312 0.028576 0.345746 0.265578 0.213781 -0.546070 0.160133 0.079622 -0.288552 0.229953 0.148992 0.081040 -0.122390 -0.177935 -0.359473 0.091451 -0.001084 0.177510 -0.007495 -0.486047 0.063674 0.566102 0.404701 0.280767 0.177220 -0.203497 -0.531902 0.243924 -0.076448 -0.066141 -0.228886 -0.197814 0.117158 0.251985 0.041525 -0.069387 0.198894 0.031719 0.339616 -0.088561 0.179452 0.109360 0.117216 -0.414008 -0.185242 0.080220 -0.596383 -0.085118 -0.396514 0.099394 0.310440 0.532530 -0.305078 0.075025 -0.164776 0.321250 0.026415 -0.133994 0.027812 -0.021690 0.332565 -0.050975 0.114738 0.069697 0.084557 0.162482 -0.205491 -0.515489 0.150036 -0.122408 0.140081 0.269300 -0.151786 -0.086365 0.091488 -0.182737 -0.030839 -0.175529 0.195550 0.165953 -0.051433 -0.005153 -0.264772 -0.358383 -0.036510 -0.097981 0.030504 0.013566 0.088780 0.121563 0.076688 -0.399189 0.010096 -0.233315 0.044081 0.130700 0.164010 -0.071613 0.096328 -0.099928 -0.052403 0.168345 -0.027173 0.074382 0.005741 0.004057 -0.091708 -0.146896 -0.317081 -0.149577 0.057701 -0.430742 0.049697 0.158106 -0.077422 -0.055747 0.134728 0.471933 -0.410855 0.061409 0.076713 0.201234 0.172929 -0.085714 0.005676 0.038493 -0.179388 -0.116684 -0.046168 -0.190087 0.169758 -0.065356 -0.037671 0.102324 0.309443 0.161823 0.051783 -0.164156 0.130680 0.073323 -0.226912 0.218962 0.415619 0.224291 -0.099674 0.214164 0.545268 -0.115886 -0.031474 -0.041107 0.118182 0.104098 0.397998 0.025234 0.089851 0.293400 0.469374 0.071272 0.137417 -0.149629 -0.147914 -0.028834 -0.077176 -0.168151 0.126716 0.105001 0.010857 0.210255 0.059640 0.055632 
rin 0.417568 0.051109 -0.051228 0.093727 0.052585 -0.017478 -0.030469 0.074200 0.130438 -0.049504 -0.137063 0.069112 -0.357746 -0.081533 -0.118991 0.181089 -0.022270 0.406799 -0.076937 0.170312 -0.072017 0.367204 0.222199 0.313593 -0.009592 -0.253592 -0.390440 -0.247715 0.055145 -0.078175 0.322860 -0.150158 0.116207 0.486414 -0.093209 -0.281855 0.173765 0.454301 0.258287 0.471536 0.008207 -0.038994 0.181239 -0.111248 -0.163972 -0.024958 0.039491 -0.005563 -0.090551 -0.202944 0.133050 0.315265 0.324531 0.186853 0.064045 -0.181191 -0.450373 0.525696 -0.070605 -0.408966 -0.387604 -0.386559 -0.002912 0.212541 -0.119709 0.002859 -0.062711 -0.049498 0.180188 -0.057643 0.316727 0.286859 -0.032344 -0.191227 -0.026970 0.073361 -0.270852 -0.296138 -0.061935 0.173458 0.437642 0.250724 -0.146211 0.068782 -0.163137 0.490035 0.481356 0.008095 0.519301 -0.249525 0.342131 -0.077479 -0.096491 -0.038526 -0.045294 0.057361 0.311596 -0.241868 0.337005 -0.059864 0.190139 0.296716 -0.007115 -0.073235 -0.004458 0.214838 -0.091247 -0.073336 -0.057747 0.391866 -0.155388 0.173545 -0.239258 0.012220 -0.001519 0.034592 -0.115264 0.202028 0.371267 0.152340 -0.009136 -0.327211 0.086096 -0.511749 -0.017334 0.071325 0.300065 -0.120038 -0.107031 0.245124 0.045673 0.276031 -0.183224 -0.161954 -0.049591 -0.201596 -0.083400 -0.148766 -0.362510 0.067998 -0.110575 -0.164821 0.111488 0.233773 -0.135929 0.039247 -0.028412 0.093416 -0.161559 -0.678687 -0.424501 0.025102 -0.117968 -0.244695 0.080168 -0.020414 -0.343423 -0.120269 0.069888 0.042100 0.495031 -0.307929 -0.076087 -0.034408 0.387209 0.355548 0.008858 -0.070814 0.239744 0.165401 0.134508 0.149427 0.293181 0.306551 -0.213662 0.035215 0.316648 -0.019194 0.141818 -0.051113 0.014182 -0.142831 0.247656 -0.033782 -0.074631 0.147852 0.323983 -0.160834 0.117440 -0.154732 -0.103937 -0.393951 -0.336694 0.196854 -0.007268 -0.113199 -0.001504 0.300553 -0.087389 0.052902 
ke -0.288356 -0.683673 0.288103 -1.238383 0.295923 0.142071 -1.131897 0.370320 -0.152183 0.727243 -0.700365 0.335422 -0.213427 -0.078715 -0.102622 -0.624817 0.684982 1.011497 -0.180994 0.226185 0.048132 -0.187397 0.216213 -0.270403 -0.019748 -0.175933 0.031741 0.218163 0.244445 0.411166 -0.422172 0.534288 -0.037156 -0.296086 0.063983 0.148803 -0.395931 -0.402106 -0.485048 0.616320 0.119131 -0.245772 -0.274797 0.088817 -0.235782 0.036990 -0.133271 -0.107962 -0.109165 -0.028342 0.197567 0.336809 0.223492 0.460694 -0.333749 -0.091970 -0.247922 -0.406083 -0.100945 -0.000691 0.490550 -0.487533 0.018724 -0.002125 -0.041673 0.356832 -0.033302 -0.254109 -0.081297 0.180529 -0.155638 0.079196 -0.540004 0.742412 0.376592 -0.542407 0.105782 -0.533248 0.620793 0.080950 0.292454 0.605965 -0.380764 0.321366 0.412219 -0.499106 -0.308990 -0.747157 -0.203647 0.169018 -0.762001 0.081520 0.370103 -0.618758 -0.456417 0.173064 -0.362357 0.299788 -0.081174 0.445752 0.512633 0.336176 -0.270320 -0.099654 -0.319247 -0.370233 0.077896 -0.543708 0.151548 -0.629047 0.519455 -0.213044 -0.127030 -0.293413 -0.195876 -0.271230 0.221351 -0.244938 0.303408 0.137017 0.272126 -0.201691 -0.291820 -0.161328 -0.104590 0.167692 -0.096768 -0.514269 0.431450 0.260020 -0.139698 0.344610 0.143090 0.060052 -0.282321 0.285288 -0.089089 -0.016393 -0.577222 -0.198823 0.564513 -0.094675 -0.797022 0.398216 -0.541053 -0.205444 0.127783 0.092673 -0.333292 0.755171 0.051152 -0.307410 0.539683 -0.088541 -0.302398 -0.089484 0.502522 -0.548022 0.207641 0.082144 -0.198950 -0.789891 0.464902 -0.000543 0.053698 0.213766 -0.372600 -0.329927 -0.402184 -0.769731 0.461551 0.505266 -0.251187 -0.036026 -0.018792 0.125955 0.732153 -0.308383 -0.475614 0.057338 0.448901 0.022790 -0.338697 0.410725 0.188610 -0.431705 -0.675928 -0.016178 -0.344589 -0.012466 0.254381 0.224744 -0.029801 -0.064580 0.349929 0.243421 -0.271820 0.511315 0.072596 -0.368948 
den 0.006262 -0.062455 0.068017 -0.282572 0.331760 -0.208307 -0.328142 0.176239 -0.332928 -0.017582 -0.154997 0.066208 -0.290918 -0.096897 -0.362711 -0.319317 0.393063 0.587741 -0.067606 0.181148 -0.200248 0.332929 0.124682 0.186961 -0.249142 -0.066412 0.077950 0.161486 -0.166823 0.004565 0.102579 0.596489 0.259076 0.636876 -0.122455 0.055368 0.096348 0.048606 -0.244058 0.341568 -0.089435 0.186250 -0.238015 -0.121907 -0.627838 0.165198 0.056745 0.230571 -0.110100 -0.319166 0.248098 0.452113 0.207025 0.126835 0.066549 -0.057932 -0.626407 0.234574 -0.109584 -0.241257 -0.122089 -0.666939 0.111134 0.446081 -0.165432 -0.006829 0.287483 -0.310742 0.036763 0.162509 0.251425 0.303985 -0.322345 -0.167310 -0.126708 0.188303 -0.233010 -0.306258 -0.004256 0.311092 0.516105 0.378419 -0.238542 0.001964 0.388877 0.122990 0.024005 -0.050326 0.252838 -0.005463 0.224787 0.034586 0.026023 -0.015181 0.133566 0.142333 -0.266102 -0.144556 0.076173 -0.119021 0.094460 0.291515 -0.179265 0.249054 0.172737 -0.081216 -0.152896 0.116910 0.448959 -0.056398 -0.194214 0.094212 0.008052 -0.182863 0.137145 0.326638 0.027636 -0.036320 0.039406 0.221043 0.116090 -0.321277 0.081058 -0.635939 0.130543 -0.015982 0.165528 -0.524672 0.066367 0.058513 -0.214398 -0.163822 -0.061652 0.268934 -0.161570 0.141570 -0.049017 -0.203709 0.085754 -0.222805 0.092887 -0.004421 -0.329332 0.194151 0.019870 -0.007039 0.224803 0.436045 -0.409269 0.229369 -0.125207 0.113914 0.288380 0.069201 0.066720 -0.071003 0.071527 -0.083778 -0.015288 -0.203811 0.366132 -0.222910 0.057939 -0.221917 0.122446 0.349854 -0.299493 -0.114975 0.008100 0.012764 0.246919 0.224052 -0.033373 0.302879 -0.638451 0.182147 0.507680 -0.042775 -0.386425 -0.335643 -0.117300 -0.094193 0.414967 0.058685 -0.144250 0.534843 -0.076802 0.075261 -0.204580 0.076377 -0.293983 -0.323406 0.042114 -0.008193 0.283891 0.406466 -0.038597 -0.012870 0.440248 -0.187946 
ol 0.273775 -0.255641 -0.008121 -0.126757 0.247586 0.099113 -0.277853 -0.518973 0.271158 -0.203164 -0.480406 -0.089527 0.160691 0.164626 0.102803 -0.219744 0.243818 0.458057 -0.024542 -0.470736 -0.139714 -0.033927 -0.006715 0.063270 -0.482730 -0.000846 0.073500 -0.208562 -0.628065 0.096196 -0.006942 -0.311247 -0.005018 0.147497 0.152222 -0.241648 -0.022784 -0.361226 0.087097 0.558906 0.100544 -0.146523 -0.125766 -0.066724 -0.047472 0.054172 -0.117632 0.437210 -0.212953 -0.165139 0.138266 0.020777 0.272411 0.315342 -0.001141 0.058172 -0.255946 0.217156 -0.146288 -0.313051 -0.266040 -0.013451 -0.011217 0.128728 -0.283985 -0.017527 0.247844 0.252007 0.029210 -0.013583 0.262964 -0.041028 -0.343859 -0.307106 -0.324356 0.185241 -0.460212 0.206204 -0.035919 -0.008694 -0.086719 0.214261 -0.362424 0.011408 -0.070376 -0.146999 -0.064867 -0.626996 -0.304846 -0.205240 0.686026 -0.026999 0.297558 -0.070449 -0.077039 -0.103659 -0.109886 -0.447760 -0.065021 -0.023135 -0.002142 0.071218 -0.155148 -0.286741 0.039352 -0.098703 0.258816 -0.071077 0.286097 -0.233253 -0.136086 0.158609 -0.126806 -0.051292 0.105832 0.199539 -0.079145 -0.094282 0.273396 0.090453 0.215312 0.172448 -0.371842 0.255022 0.358915 0.448661 0.066629 0.234102 0.203716 -0.088495 0.112343 -0.206842 0.119044 0.047379 0.222110 -0.414236 0.071042 -0.120408 -0.513683 0.132388 -0.142973 -0.344610 -0.170411 0.299690 -0.016904 0.199565 -0.054378 0.574479 -0.108205 -0.310024 0.320292 0.173942 0.354244 -0.255978 0.251052 0.227549 0.274088 -0.013372 0.160146 -0.225222 0.042705 -0.372686 0.269174 -0.245923 -0.041464 0.013059 -0.281036 -0.152021 0.198424 0.111952 -0.331253 0.044941 0.312602 0.042324 0.077935 -0.162425 0.262286 -0.369818 -0.005563 0.053678 -0.590795 -0.380717 0.263425 0.142963 -0.118693 -0.285343 0.001473 0.122184 0.227509 -0.314477 0.103792 0.331142 0.147510 0.038270 0.195047 0.385429 0.536067 0.059162 0.035474 -0.093796 
te -0.087907 -0.070978 0.031983 -0.195482 0.341387 -0.276548 0.124295 0.812626 0.012955 0.287240 0.041245 0.239355 -0.122718 0.057801 -0.120116 0.059698 -0.365254 0.063805 0.110062 0.174640 0.273122 0.120536 -0.350093 0.192166 0.240368 0.073423 -0.132907 0.112583 0.321434 0.031054 0.085681 0.398208 0.305246 -0.039833 -0.068311 -0.565733 0.080678 0.196979 -0.257687 0.032188 -0.086291 0.189103 -0.107583 0.188619 0.347219 -0.256334 0.041477 -0.124889 0.162844 -0.221616 -0.060205 0.364087 0.103027 0.353705 -0.233044 -0.384628 0.011746 0.062359 -0.045412 -0.004409 0.281272 0.259019 0.313940 0.265685 -0.076895 -0.244008 -0.042118 0.091762 -0.002617 0.074570 -0.178201 -0.379643 0.197207 0.026378 0.102763 -0.419525 -0.408403 -0.152580 -0.300839 0.104522 0.159743 0.075728 0.309065 -0.015152 -0.021451 -0.201990 0.426664 0.313638 0.206292 0.121935 -0.088580 0.077751 -0.291591 0.171710 -0.067014 0.165360 -0.162764 -0.076185 0.245524 -0.076415 0.150452 0.126027 0.042513 0.363095 -0.009225 0.028495 -0.276348 -0.342279 -0.064538 -0.289353 0.349760 -0.022538 0.236301 -0.080894 -0.462313 -0.290903 0.045522 0.363676 0.130720 -0.242900 -0.301360 -0.189647 -0.278734 -0.043543 -0.539996 -0.445810 0.001968 -0.241795 0.225988 0.577085 -0.184077 0.270062 0.143004 -0.042195 -0.367171 -0.180456 -0.245357 0.001188 0.170678 -0.437542 0.120849 0.491187 0.473133 -0.012726 -0.025863 -0.111539 -0.169299 -0.164455 -0.281752 0.401182 -0.493321 -0.349578 0.207984 0.216000 -0.277794 -0.331085 -0.032037 -0.254342 -0.077390 -0.298049 0.056170 -0.331753 0.036412 0.348814 0.357417 -0.117301 0.130307 0.138316 0.167053 0.032942 0.064338 -0.085456 -0.097855 0.486536 -0.275988 0.174732 0.116341 0.327784 -0.444834 0.174977 0.305426 0.223909 -0.261184 -0.076439 -0.334609 0.407121 0.015058 0.036831 -0.144138 0.299810 0.002639 -0.133588 -0.205927 -0.083104 -0.145218 -0.451060 -0.291808 0.083866 -0.069244 0.115469 
lu 0.158848 -0.261339 -0.410742 -0.764635 0.076812 0.048523 -0.120450 0.879437 0.654688 0.199257 -0.959961 -0.026174 -0.028769 0.402364 -0.016364 -0.648782 0.054539 0.909470 0.005806 0.685284 -0.256490 -0.097827 0.367447 -0.132946 -0.422664 -0.230577 -0.086684 0.627580 0.479363 -0.191121 -0.521835 0.001514 -0.283402 0.507660 0.388091 0.075096 0.063361 -0.519143 0.333613 0.582963 -0.129802 -0.406399 -0.208834 0.339921 0.474130 -0.810282 -0.048125 0.000617 -0.152098 0.174130 0.312882 0.027226 -0.403824 0.627078 0.152213 -0.528808 0.718614 0.194582 0.049315 -0.616791 -0.349133 -0.707646 0.521357 0.266548 -0.226817 0.153456 -0.044819 -0.123808 -0.056782 0.671773 0.222983 0.268831 0.097900 0.366484 -0.016398 -0.013976 -0.405599 -0.123318 0.250686 0.430009 0.114706 -0.399216 0.486522 -0.211460 -0.090295 -0.373492 1.003584 0.012775 0.248263 -0.176332 1.205853 0.187755 -0.751382 -0.037381 -0.238724 0.207366 0.040422 0.079679 0.295599 0.083546 0.357583 0.201059 -0.258221 -0.466491 -0.115740 -0.061376 0.145116 0.232991 -0.255137 -0.559421 0.010201 -0.048577 -0.377845 -0.058436 0.135314 0.047546 0.210752 0.630166 0.552900 -0.466305 -0.161500 0.359510 -0.641554 -0.242966 -0.017970 0.169449 -0.286609 0.127840 -0.200358 -0.057422 0.186168 0.077644 0.161410 0.097321 -0.559851 -0.501377 -0.644974 0.562027 0.274783 -0.075723 -0.275025 0.631914 -0.262345 0.233880 0.079510 0.770040 -0.081542 0.579176 -0.178406 -0.277449 -0.301167 -0.166578 0.367911 -0.002351 0.052088 0.267451 0.465184 -0.238745 0.609217 -0.109616 0.520100 -0.839068 0.349600 -0.631318 -0.154043 0.078004 -0.388590 -0.320040 0.557855 -0.148645 0.065102 -0.156788 -0.440232 -0.289535 -0.064367 -0.054485 0.291810 -0.146400 -0.247417 -0.356695 -0.814825 -0.855703 0.196573 0.135970 -0.894311 0.645031 -0.601016 -0.165207 -0.384067 0.486817 -0.050371 -0.761239 -0.240072 -0.104260 0.368913 -0.019252 0.498657 0.298797 -0.081410 -0.063235 
ni 0.191124 0.288278 0.078732 -0.104146 0.508289 -0.324775 0.206250 0.613194 -0.035445 -0.094974 0.096686 -0.070589 0.084828 0.014487 -0.183180 -0.173317 -0.094841 0.310707 -0.070670 0.056547 -0.088249 0.121574 -0.261964 0.083269 0.000144 -0.017476 0.021967 0.005516 0.262765 -0.127474 0.115600 0.617070 0.213889 0.037289 0.056323 0.186727 -0.294769 0.112756 -0.473219 -0.062237 -0.090471 0.078758 -0.296871 0.026943 0.408445 -0.230795 -0.172808 -0.222131 -0.281075 -0.047630 0.012555 0.216917 0.037377 0.305095 0.163235 -0.454083 0.038170 0.229092 -0.029782 -0.276067 0.134235 -0.110262 0.445995 0.087035 -0.159754 -0.429930 0.004120 -0.102141 0.034106 0.261274 0.103380 -0.274369 0.023101 0.086105 0.166157 -0.264466 -0.044620 -0.230578 0.034055 0.197606 0.375344 -0.198228 0.148531 -0.086063 -0.222923 -0.186026 0.444922 0.236761 0.161196 -0.384462 0.905990 -0.104630 -0.285885 0.159328 -0.085562 -0.041417 -0.067739 -0.131498 0.242746 -0.189673 0.083373 0.085200 -0.159732 0.422896 -0.150515 -0.062644 -0.327984 0.092902 0.204505 -0.220473 0.042369 -0.110327 0.112833 0.267007 -0.075268 -0.115042 0.305170 0.330723 0.202040 -0.470856 -0.031615 0.051835 -0.259075 -0.116265 -0.234673 -0.375324 -0.163683 -0.242170 0.212129 0.051731 -0.010508 0.341614 0.095840 -0.102349 -0.400358 -0.072476 -0.015966 0.136530 0.301739 -0.460975 -0.097347 0.363627 0.299301 -0.132913 -0.008313 0.049613 -0.162564 -0.025291 -0.249435 0.070077 -0.301269 -0.095508 0.210159 0.172719 -0.125255 -0.010010 0.060239 -0.121292 0.137111 -0.248751 0.141757 -0.381256 0.225330 0.179810 0.215362 -0.057050 -0.098114 0.043283 0.431271 0.205148 -0.018466 -0.142129 -0.365591 0.146487 -0.164425 0.186870 0.117123 0.348038 -0.456021 0.076527 0.190127 0.137436 -0.037414 0.117782 -0.556949 0.691409 -0.203148 -0.143411 -0.089739 0.708071 0.245148 -0.049960 -0.347832 0.001616 -0.166303 -0.534995 -0.109596 0.067112 0.070885 -0.232626 
rın -0.193027 -0.142058 -0.096881 0.153134 0.450321 -0.025355 0.189496 -0.155957 -0.201721 -0.242300 -0.070252 0.253532 0.100064 -0.259755 -0.094830 -0.003824 -0.008101 0.133089 0.144141 -0.421724 -0.182559 0.139174 -0.280389 0.106688 -0.063632 -0.268367 -0.446251 -0.112020 0.233363 -0.050299 0.173635 -0.269456 0.220324 0.294217 0.020605 -0.027969 -0.057002 0.275607 0.224928 -0.221587 0.122552 0.166276 -0.000813 -0.367713 0.036853 0.544363 -0.264614 0.090571 -0.301534 -0.427600 -0.112612 0.491249 0.291596 0.061965 0.152249 -0.028870 -0.327924 0.038630 -0.202489 -0.044456 -0.102598 0.107826 -0.497292 0.199688 0.099464 0.036332 0.183734 -0.197233 0.141826 -0.158719 0.071880 0.078574 -0.012543 -0.655333 -0.278120 0.105994 -0.626459 -0.217812 -0.199476 0.181963 -0.035754 0.186999 -0.088023 -0.151073 -0.382338 0.512628 -0.041006 -0.156612 -0.016261 0.260378 0.753251 -0.039682 0.171031 0.238378 0.013364 0.004821 0.114992 -0.257730 0.334140 -0.313561 -0.053280 0.227298 0.198796 0.100828 0.387503 -0.252339 -0.186463 0.440396 0.092034 0.276501 -0.541240 0.118658 -0.022851 -0.273155 0.175766 0.483848 0.104641 -0.328350 0.052618 0.171499 0.118907 -0.456138 -0.173284 -0.108065 0.477197 0.125017 0.189196 0.103373 -0.194249 -0.013325 -0.123590 -0.118150 -0.500465 0.019731 0.212689 -0.014948 0.339360 0.010800 -0.058336 0.173479 -0.243577 -0.089723 -0.002067 -0.024953 0.076962 0.125466 0.441524 0.154794 -0.477263 -0.487908 0.027023 0.217817 -0.404958 -0.109958 0.533447 0.132688 -0.195800 -0.057145 0.066612 0.159619 0.366472 0.085048 -0.222184 -0.216550 0.155273 -0.007648 0.070268 -0.113160 0.337916 0.412822 0.022403 0.190577 0.280731 -0.186450 -0.273051 -0.001055 0.236461 -0.277145 0.329694 -0.252489 -0.178522 -0.061934 0.498626 -0.057243 0.415451 0.276532 0.359114 0.137285 0.222124 -0.340755 -0.201448 -0.169859 0.081958 -0.351223 -0.013406 0.140513 0.350451 -0.081061 0.129086 0.546282 
nı 0.071306 0.021778 -0.151933 -0.504582 0.248354 0.002842 0.208889 -0.293923 0.470821 0.039656 -0.525569 -0.223077 0.136613 0.005117 -0.103914 -0.028164 0.083103 0.213172 0.278706 -0.282712 -0.000336 -0.160274 -0.382555 0.028961 -0.082394 0.200896 -0.265289 0.042975 0.006912 0.121265 -0.418246 -0.304713 -0.101896 -0.669503 -0.076395 -0.102659 -0.380002 -0.151901 0.249043 -0.037676 0.163537 -0.060981 -0.321813 0.033081 0.797782 0.009986 -0.216971 0.019529 -0.164884 0.165578 0.056660 0.013087 0.015662 0.477482 -0.347469 0.108375 0.315335 -0.183214 -0.165750 -0.175419 0.080830 0.324938 -0.021145 -0.149022 -0.132866 -0.061465 -0.213351 0.390117 -0.171864 -0.061602 -0.134609 -0.387594 0.016378 -0.233025 -0.110705 -0.257682 -0.522371 0.286535 0.101592 -0.252323 -0.399448 -0.297644 -0.002468 -0.140575 -0.309417 -0.319698 -0.133554 -0.342806 -0.263917 0.055594 0.645573 0.109914 0.193499 -0.023532 -0.198877 -0.228232 0.110066 -0.097343 0.372053 -0.043276 -0.062728 -0.023802 -0.026230 0.211782 -0.033268 -0.260895 0.117948 -0.349043 -0.303689 -0.285665 0.277783 0.257858 0.168448 0.103778 -0.127911 -0.049508 0.128411 0.026239 0.197069 -0.256686 0.028954 0.321894 -0.847269 0.815006 0.029796 0.160595 0.064770 0.284794 0.134837 0.191552 0.222108 -0.158102 0.359794 -0.238754 -0.007870 -0.617870 0.153669 0.186599 -0.422779 -0.183952 -0.071033 0.299634 0.143663 0.067269 -0.161370 0.281649 -0.075126 -0.166823 -0.123049 -0.707115 0.144900 0.102184 0.241455 0.024056 0.075366 -0.298555 0.426080 -0.083298 0.464059 0.011721 -0.166525 -0.489817 0.202840 0.210115 -0.075440 -0.504048 -0.297788 0.283510 0.357918 0.153033 -0.238292 -0.247387 -0.132237 -0.130933 0.432376 -0.232991 0.060784 -0.123861 0.031619 0.382450 -0.385660 -0.130541 -0.095287 0.032042 0.214251 -0.328121 -0.169485 -0.019066 0.253853 -0.207123 0.367987 0.107604 0.001141 -0.169626 -0.146461 -0.023956 0.149517 -0.138824 -0.197658 0.221026 
ğı 0.183060 -0.021263 -0.012190 -0.340182 -0.026298 -0.056305 -0.276107 0.122652 -0.027388 0.027943 -0.423520 0.125410 -0.988476 -0.448438 0.092167 -0.384913 0.123837 0.607979 -0.025989 0.438656 -0.057345 0.250793 0.317385 0.125936 -0.128920 -0.316744 -0.207415 0.085046 0.179896 0.294983 0.296713 0.083410 0.245883 0.242681 0.174000 -0.200769 0.252507 0.559359 -0.192338 -0.152239 -0.034342 0.063419 -0.412374 0.026633 -0.442516 0.117688 0.188646 -0.295424 -0.278303 -0.592548 0.557716 0.445034 0.386270 0.309989 -0.234207 -0.032526 -0.588686 0.356243 -0.139809 -0.386181 -0.090241 -0.864945 0.486765 0.120143 -0.036799 -0.120460 0.129112 0.127106 0.166996 -0.043726 -0.026787 0.273407 0.160967 -0.358863 0.152620 0.267812 -0.175671 -0.461611 0.039922 -0.018693 0.647744 0.214160 0.115513 -0.244210 -0.133014 0.548975 -0.108541 0.120447 -0.049918 -0.086122 -1.498622 -0.375467 0.432075 -0.018759 0.236003 0.286426 0.075921 -0.200793 -0.184387 0.426420 0.319711 -0.014619 -0.187666 0.034873 -0.166965 0.250557 0.021933 -0.028916 0.113948 0.298633 0.010799 -0.271637 -0.297034 0.100575 0.294811 0.263782 0.521392 0.069274 0.140120 0.049534 -0.133693 -0.243548 0.025415 -0.277163 0.095481 0.469242 0.433006 -0.071855 -0.331872 -0.589897 0.192325 0.083668 -0.119470 -0.012254 -0.182003 0.144355 -0.320855 -0.106869 0.281374 -0.285768 0.171162 -0.173959 0.087008 0.040145 0.213843 -0.002545 0.056056 0.366316 -0.477749 -0.812943 -0.030435 0.108716 0.361516 0.291762 -0.023870 0.105871 -0.505292 0.507989 -0.000716 0.197694 0.514127 -0.152382 -0.180894 -0.067929 0.506064 0.332687 -0.022552 0.182110 0.087702 0.227272 -0.320863 -0.017499 -0.096010 0.060693 0.218161 0.517588 0.453590 -0.545310 -0.038334 -0.335048 -0.360852 0.064786 0.360555 -0.024290 -0.124173 0.528003 0.151345 -0.299495 -0.246789 -0.339895 -0.100905 -0.200104 -0.216447 -0.012027 0.331178 0.020323 -0.101976 0.055602 0.117972 -0.190062 
bir -0.260837 0.103256 -0.047355 -0.535732 0.132782 -0.022752 -0.058324 0.257487 -0.202632 0.035056 -0.579058 -0.162591 0.262638 0.010680 -0.192342 -0.528434 0.382033 0.485349 0.134736 0.021925 -0.119884 0.039960 0.057778 -0.093935 0.180924 -0.065362 -0.256491 0.004460 0.379607 0.216358 -0.321066 0.084856 -0.266266 -0.283961 0.129573 0.139418 -0.523525 -0.020278 0.089760 -0.185193 -0.034895 0.031233 -0.286142 -0.157614 0.337190 0.112282 -0.025312 0.010591 -0.338004 0.074407 0.038517 0.283230 0.076752 0.551654 0.172741 -0.110051 0.024300 -0.284134 -0.180751 -0.149498 0.136504 -0.248074 -0.093366 -0.265338 0.072238 0.203889 0.072281 -0.141453 -0.001412 0.418613 -0.031864 -0.083161 -0.346833 0.121762 0.109759 -0.103874 -0.051310 -0.158790 0.283347 -0.058697 -0.038125 -0.072699 -0.086828 -0.204528 0.183815 -0.052611 -0.212017 -0.324221 -0.019956 0.150973 0.837112 -0.036694 0.015232 -0.344010 -0.281931 -0.175097 0.037562 -0.079732 0.183555 0.395724 -0.075322 0.405509 -0.069217 0.126913 -0.179517 -0.038474 0.017116 0.098283 -0.185291 -0.267741 0.087449 0.018655 0.012098 0.032724 0.373890 -0.223514 0.280465 -0.038297 -0.035087 0.132349 0.323250 -0.266307 -0.111596 0.005918 0.211016 0.116350 0.077061 0.116262 0.068460 0.032092 0.226400 -0.136458 -0.182976 -0.115262 -0.187587 0.158925 0.517839 0.309078 -0.390236 0.079290 0.192614 -0.034389 -0.361293 -0.065578 -0.250570 0.222088 0.085279 -0.229175 -0.279067 0.180952 0.114612 -0.088628 -0.038834 -0.022956 0.313836 0.141825 -0.001134 -0.249369 0.724857 0.361541 -0.065014 -0.331156 0.265815 0.131725 -0.101514 -0.373564 -0.280662 -0.063618 -0.023703 -0.077871 0.350905 0.091687 -0.069096 -0.085756 -0.058943 0.162928 0.070224 -0.337549 0.073394 -0.149868 0.108963 0.051160 0.102102 0.132857 0.097884 -0.348849 -0.027443 -0.323021 0.263409 0.069093 0.464833 -0.077121 -0.182544 -0.340686 -0.124759 -0.054977 0.060467 0.008764 0.228547 0.088475 
do 0.634356 -0.340539 0.039179 -0.007979 0.160922 0.090370 -0.039644 0.393516 0.484903 0.412366 0.607744 0.069044 -0.238091 0.239279 -0.471886 -0.363942 0.071125 0.524026 -0.407945 0.146964 -0.110769 -0.361940 0.126645 0.184842 -0.722142 -0.351843 0.309781 0.753862 -0.253682 -0.220193 0.182609 0.586739 0.555754 1.093000 -0.355466 -0.510610 0.633780 -0.311247 -0.305476 0.677734 -0.529832 0.190790 -0.542895 0.034531 -0.904444 -0.037335 -0.201257 -0.047997 -0.069033 -0.550989 0.447003 0.484850 0.435961 0.147335 0.163470 -0.192946 -0.379175 0.909276 -0.068425 -0.441862 -0.336000 -0.378846 0.611536 0.511357 -0.453923 -0.253044 0.349821 -0.197406 -0.400173 -0.078545 0.298695 0.080701 0.125604 -0.108043 -0.787101 -0.280010 -0.044740 -0.398875 -0.417198 0.699841 0.641267 0.159948 0.067909 0.297870 0.219706 -0.220193 0.681565 0.333086 0.385195 -0.435855 -0.165958 0.235368 0.068586 0.361456 0.110181 0.400517 -0.375104 -0.097166 0.053282 -0.585226 0.356060 -0.230849 -0.336117 0.048540 0.103229 -0.196731 -0.246561 -0.209418 0.587949 -0.085077 -0.229518 0.104174 0.131675 0.102970 -0.027096 0.421005 -0.120370 0.300844 0.439745 -0.189386 0.154979 0.045805 -0.400987 -0.724888 -0.042069 -0.030975 0.301857 -0.835724 0.260841 -0.032448 -0.408067 0.353803 0.160619 0.260348 -0.203201 -0.211968 -0.538468 -0.185796 0.616264 -0.634929 -0.314270 0.526810 0.138381 0.488242 0.548779 0.091076 0.036117 1.231174 -0.536403 -0.100304 -0.392635 -0.127579 0.660722 0.056871 -0.019253 0.027586 0.048611 0.148234 -0.198149 -0.534157 0.427933 -0.309885 0.300471 -0.189295 0.257705 0.374396 -0.191078 -0.038354 0.376334 0.500945 -0.387380 -0.058122 -0.290657 0.434670 -0.514017 -0.034667 0.198117 0.097295 -0.694635 -0.222153 -0.339442 -0.593037 0.428040 -0.278716 -0.626092 1.059446 -0.023949 0.435738 -0.644542 0.366536 -0.140968 -0.174392 0.106249 0.457076 0.587547 0.318566 0.223775 -0.137489 0.405054 -0.422836 
yı -0.075337 0.022414 -0.101467 0.026911 0.040334 0.164732 0.020266 -0.341230 -0.229878 0.210372 -0.538762 0.014304 0.468554 -0.412994 -0.405122 -0.235094 0.158876 -0.373583 0.231727 -0.215687 -0.139415 0.173912 -0.010913 0.433016 0.194566 0.049722 -0.302548 -0.104502 0.244764 0.163521 0.208615 -0.267543 -0.086887 -0.202014 -0.282303 -0.462063 -0.253544 0.205281 0.466999 0.001923 -0.059988 0.576901 -0.100213 -0.054794 -0.099522 0.636526 -0.034629 -0.320870 -0.279879 -0.183771 0.148346 -0.016109 -0.196005 0.685527 0.030485 0.540577 -0.118899 -0.329594 -0.268998 0.291687 0.143844 -0.109157 -0.095140 -0.347926 0.170464 0.305953 -0.104427 0.054554 -0.010570 0.290929 0.126782 -0.482287 -0.048174 -0.052717 -0.189573 -0.334109 0.142838 -0.082944 0.258733 -0.318808 0.033282 -0.240354 0.181132 -0.424873 0.236831 0.366361 -0.222005 -0.297060 0.118478 -0.030783 -0.338396 0.384355 0.064805 -0.478868 -0.435035 -0.256250 0.126198 0.048483 0.054808 0.417776 -0.099885 0.224792 0.114517 0.289147 -0.413198 0.050247 -0.024246 -0.489060 -0.324300 0.231046 0.128533 0.110504 0.278511 0.365976 0.191557 0.087974 0.037718 -0.342218 -0.408209 0.316528 0.325985 -0.436908 -0.070936 0.233979 0.367869 0.166867 0.390640 -0.293056 0.251427 0.207343 -0.008480 -0.284039 -0.304686 -0.297102 0.045690 0.159092 0.750258 0.120756 -0.432482 -0.136386 0.248696 0.235170 0.086176 0.101472 -0.056725 -0.142119 0.247239 -0.339326 -0.269436 -0.359183 -0.100526 -0.064539 0.133522 -0.161313 0.166157 -0.212382 -0.439625 -0.188134 0.490937 0.279954 -0.145240 -0.018210 0.107577 0.484201 0.197917 -0.384260 -0.314022 0.326836 0.115872 0.123200 0.308247 0.119890 -0.026743 0.420627 0.002550 -0.165117 -0.227019 -0.279805 0.214353 -0.163110 0.109440 0.480661 0.206068 0.021100 0.255207 -0.337251 0.474000 -0.382998 0.334600 -0.105989 0.357962 -0.344445 0.088596 -0.211794 -0.065981 0.226782 -0.104796 -0.388001 0.298916 0.358056 
tı 0.044332 -0.408106 -0.097075 -0.272484 0.221062 0.228096 0.107395 -0.003102 0.257998 0.146149 -0.435721 0.386535 -0.039543 -0.112817 -0.516501 0.028665 -0.101152 0.123066 0.129814 -0.071548 -0.287801 -0.111914 0.065575 0.095968 -0.138368 -0.196243 -0.434999 0.302194 0.286240 0.050622 -0.223325 -0.467999 -0.030289 0.218870 -0.017360 -0.924647 0.102862 0.196695 0.641901 0.182833 -0.014683 0.035062 -0.210102 -0.063490 0.106453 0.239526 -0.076066 -0.201444 -0.079499 -0.396338 0.189272 0.137410 0.178806 0.300745 -0.168273 0.068151 -0.049677 0.166477 -0.090948 -0.299603 -0.005392 -0.108107 -0.153996 0.201906 -0.001682 0.368755 -0.131587 0.054348 -0.142448 -0.121418 -0.037286 -0.010241 0.289925 -0.521328 -0.620350 -0.228264 -0.428034 0.009850 -0.187747 -0.057930 -0.162201 0.016405 0.264943 0.060673 0.105147 0.309147 0.179720 -0.115394 0.105885 0.239362 0.012234 0.190239 0.139697 0.054060 0.095880 0.155465 0.325820 -0.010283 0.210118 -0.116863 0.242654 0.303564 -0.224509 -0.167470 0.315708 0.229484 0.114227 0.057642 -0.579893 0.261287 -0.058582 0.331606 -0.207000 -0.046056 0.212300 0.189116 0.118085 -0.020747 0.373024 0.091455 0.018438 -0.285808 -0.378605 -0.120169 0.273344 0.487605 0.432148 0.050439 -0.340702 0.101077 -0.154021 -0.307775 -0.429183 -0.024585 0.425899 -0.284194 0.074287 -0.156532 -0.129502 0.108190 -0.110408 0.109275 0.199660 0.150009 0.351305 0.123639 0.256290 0.278983 -0.521512 -0.391755 -0.249134 0.030459 -0.187807 -0.000323 0.311036 -0.222745 -0.278069 -0.316231 0.233581 0.161360 0.250497 -0.242336 -0.182195 0.046797 0.092456 -0.184861 0.018669 0.333408 0.118129 0.010418 0.057256 -0.107084 0.193887 0.009045 0.015209 -0.080120 0.052872 -0.383167 -0.007545 -0.228640 -0.359160 -0.056765 0.219829 -0.209016 0.140678 -0.177688 0.339769 0.129661 0.155103 -0.614457 -0.254533 -0.572291 0.197482 -0.129388 0.091779 0.185188 0.242381 -0.202352 -0.131213 0.423773 
ti 0.034591 0.220458 0.197053 -0.198837 0.220644 0.026695 -0.308914 -0.158974 -0.225189 -0.231085 -0.317791 0.317492 -0.102038 -0.127366 0.009706 0.126022 -0.361087 0.196790 0.194607 -0.294673 0.185858 0.251459 -0.154750 -0.031366 0.246871 0.187512 -0.352550 -0.628253 -0.324948 0.248484 0.197394 -0.243430 0.141990 -0.186138 0.326434 -0.208647 -0.383657 0.100397 -0.062608 0.355361 0.190691 0.006120 0.282758 -0.102602 0.293823 0.092294 0.005739 0.247848 -0.023061 0.000287 -0.151589 0.233310 0.525651 0.286802 0.002355 -0.220122 -0.414636 0.005694 -0.087891 -0.258154 -0.227071 0.269170 -0.128578 0.189040 -0.169819 -0.055841 0.164472 0.418456 0.336167 0.011633 0.006040 -0.167506 -0.120732 -0.308120 0.101180 0.163156 -0.577404 0.262265 -0.405346 -0.129259 -0.121495 0.252826 -0.258060 0.023932 -0.273372 0.244133 0.098587 -0.409440 -0.181906 0.147612 0.398538 -0.123835 0.315486 0.005979 0.091153 0.094460 0.096241 -0.396998 0.053205 0.027735 -0.132134 0.311651 -0.087719 -0.296005 0.140599 0.070704 0.144465 -0.171319 -0.006564 -0.207874 0.130687 0.088303 -0.146808 -0.339162 -0.228904 0.005219 -0.017307 0.055094 0.341376 0.088182 -0.188654 -0.333191 -0.030754 0.420580 0.041958 0.068581 -0.048152 0.643333 -0.239880 0.263391 0.083356 -0.070842 -0.005123 0.002197 0.173284 -0.150572 0.104460 -0.306248 -0.633443 0.094662 0.005618 -0.634666 -0.008887 0.149070 -0.320091 -0.364551 -0.180071 0.029979 -0.194229 -0.325184 0.162657 0.051324 -0.325624 0.024090 -0.072688 -0.189830 -0.024051 -0.073669 -0.109434 -0.111315 -0.007846 -0.285224 -0.032919 0.124852 0.177478 -0.005585 0.535387 0.046344 0.327374 -0.077344 0.108130 0.060115 0.601796 0.245886 -0.074503 0.222436 0.410185 0.113649 0.016627 0.247988 0.115407 -0.079714 0.080140 -0.092900 -0.027141 -0.790839 0.031597 0.005449 0.425138 -0.563434 0.193078 0.284936 0.024683 0.012292 -0.161204 -0.036088 0.005950 0.530420 -0.305116 0.045583 
