953 200
</s> 0.002001 0.002210 -0.001915 -0.001639 0.000683 0.001511 0.000470 0.000106 -0.001802 0.001109 -0.002178 0.000625 -0.000376 -0.000479 -0.001658 -0.000941 0.001290 0.001513 0.001485 0.000799 0.000772 -0.001901 -0.002048 0.002485 0.001901 0.001545 -0.000302 0.002008 -0.000247 0.000367 -0.000075 -0.001492 0.000656 -0.000669 -0.001913 0.002377 0.002190 -0.000548 -0.000113 0.000255 -0.001819 -0.002004 0.002277 0.000032 -0.001291 -0.001521 -0.001538 0.000848 0.000101 0.000666 -0.002107 -0.001904 -0.000065 0.000572 0.001275 -0.001585 0.002040 0.000463 0.000560 -0.000304 0.001493 -0.001144 -0.001049 0.001079 -0.000377 0.000515 0.000902 -0.002044 -0.000992 0.001457 0.002116 0.001966 -0.001523 -0.001054 -0.000455 0.001001 -0.001894 0.001499 0.001394 -0.000799 -0.000776 -0.001119 0.002114 0.001956 -0.000590 0.002107 0.002410 0.000908 0.002491 -0.001556 -0.000766 -0.001054 -0.001454 0.001407 0.000790 0.000212 -0.001097 0.000762 0.001530 0.000097 0.001140 -0.002476 0.002157 0.000240 -0.000916 -0.001042 -0.000374 -0.001468 -0.002185 -0.001419 0.002139 -0.000885 -0.001340 0.001159 -0.000852 0.002378 -0.000802 -0.002294 0.001358 -0.000037 -0.001744 0.000488 0.000721 -0.000241 0.000912 -0.001979 0.000441 0.000908 -0.001505 0.000071 -0.000030 -0.001200 -0.001416 -0.002347 0.000011 0.000076 0.000005 -0.001967 -0.002481 -0.002373 -0.002163 -0.000274 0.000696 0.000592 -0.001591 0.002499 -0.001006 -0.000637 -0.000702 0.002366 -0.001882 0.000581 -0.000668 0.001594 0.000020 0.002135 -0.001410 -0.001303 -0.002096 -0.001833 -0.001600 -0.001557 0.001222 -0.000933 0.001340 0.001845 0.000678 0.001475 0.001238 0.001170 -0.001775 -0.001717 -0.001828 -0.000066 0.002065 -0.001368 -0.001530 -0.002098 0.001653 -0.002089 -0.000290 0.001089 -0.002309 -0.002239 0.000721 0.001762 0.002132 0.001073 0.001581 -0.001564 -0.001820 0.001987 -0.001382 0.000877 0.000287 0.000895 -0.000591 0.000099 -0.000843 -0.000563 
la -0.157836 0.219621 0.222696 -0.305698 0.408255 -0.129977 -0.054827 -0.033450 0.143162 -0.029353 -0.364175 0.129533 -0.277705 0.271633 -0.118266 -0.116871 0.072966 0.600228 0.460113 -0.298849 0.128735 0.112185 -0.336937 0.358887 -0.676369 0.233134 -0.267603 -0.041931 0.091880 0.306347 0.356204 -0.165225 -0.174929 -0.210601 -0.039723 -0.329962 -0.240943 0.137723 0.027740 -0.257745 0.255859 0.099887 0.173072 -0.159747 0.579787 0.348814 -0.110031 -0.291255 -0.308836 -0.131914 -0.362603 0.010923 0.440696 0.037621 -0.342795 -0.304735 -0.030059 0.051450 0.141944 -0.217458 0.075039 -0.054558 -0.006077 0.190167 -0.107625 -0.340446 0.211480 -0.066787 -0.086377 -0.085974 0.404178 -0.085184 -0.200515 -0.222054 0.295361 0.078985 -0.587101 -0.022029 -0.174841 -0.273259 0.038759 -0.145343 -0.058111 -0.523881 -0.117203 -0.126658 -0.180964 -0.163461 -0.432514 0.043354 0.047760 -0.130482 0.151831 0.363190 0.170046 0.122031 0.653498 -0.347951 -0.028682 -0.049660 -0.371178 -0.141648 0.041039 0.235030 0.170180 0.078270 -0.176189 -0.192575 -0.110782 -0.251156 0.042741 0.012126 -0.311713 -0.097779 -0.319262 0.175052 0.319436 -0.178825 -0.099692 0.161883 -0.018483 -0.259229 -0.210184 0.020799 0.155478 -0.146160 0.000727 0.405402 0.089520 -0.132905 0.205497 -0.038575 -0.273895 0.137822 0.210537 -0.304642 0.076697 -0.169841 0.192996 0.082528 -0.016363 -0.338339 -0.212012 0.026754 -0.152849 0.024437 -0.121828 -0.091226 -0.223648 -0.008052 0.130019 -0.147653 -0.131846 0.045698 -0.075593 -0.062761 0.030735 0.090200 0.210491 0.103701 -0.253013 -0.199198 0.136966 0.058260 0.096620 -0.211017 0.088390 0.181567 -0.178084 0.334325 -0.049216 0.037338 0.061705 -0.060447 0.248552 0.106207 0.045209 -0.243546 -0.091415 0.054551 -0.099164 0.302162 0.164070 0.509404 0.576024 0.221769 0.031077 0.080899 -0.097166 0.206277 0.046084 0.039138 -0.202587 -0.243394 -0.415072 -0.296518 -0.024357 0.221871 0.084720 0.074155 
le 0.061634 0.064310 -0.349279 0.144881 0.073092 -0.164968 0.094486 0.333102 -0.005555 0.080451 -0.254620 0.471276 -0.250136 -0.087256 -0.498959 0.504236 0.120804 -0.031385 0.004479 -0.079276 -0.196514 0.416230 0.159230 -0.088190 0.203787 0.166542 -0.525902 -0.045313 0.566643 0.081239 0.103766 -0.158476 -0.176825 0.258108 -0.168776 -0.083991 -0.219164 0.549452 0.090643 0.739624 0.397604 0.709510 0.699934 0.295625 0.394341 0.200703 0.164053 -0.253622 1.098243 0.056208 -0.377533 -0.338022 0.218515 0.145117 -0.390281 -0.369959 0.041898 -0.280436 0.038146 -0.322094 -0.109726 -0.366281 -0.106295 0.315090 -0.148585 -0.012249 0.134303 -0.003277 0.051129 0.179484 0.533501 -0.203643 -0.130214 -0.078340 -0.051092 0.101285 -0.264784 0.242414 -0.140433 -0.186247 0.236128 -0.511312 0.275101 0.278575 -0.355492 -0.220699 0.524889 0.101545 0.443162 -0.584718 0.147587 -0.232127 -0.246984 -0.008469 -0.234912 0.189020 0.758630 -0.008121 0.059232 -0.090346 -0.017528 -0.027584 -0.375410 -0.184327 -0.096368 0.400600 -0.218916 -0.108836 -0.143850 0.147075 0.652139 0.413914 -0.023074 -0.301902 -0.142042 0.023708 0.048973 -0.192100 0.270365 0.060723 -0.127953 0.019043 0.229538 -0.034109 -0.133716 0.017762 0.112886 -0.155369 -0.349400 0.641751 -0.325707 -0.149232 -0.413741 0.112779 0.081559 -0.073965 0.341417 -0.442971 0.008280 -0.305029 -0.207877 0.071280 -0.122049 0.267863 -0.279636 -0.045119 0.093984 -0.244985 -0.549898 -0.264815 -0.531439 -0.134782 -0.140609 0.313298 -0.376078 -0.561749 -0.291041 -0.227872 -0.083538 0.037960 -0.040516 -0.376098 0.202295 0.016201 -0.219162 0.380590 0.216895 0.460886 0.047604 0.090479 0.346564 0.313914 0.401566 0.263547 -0.183352 -0.145959 0.077642 0.344206 -0.458138 -0.253789 0.367993 0.437578 0.428027 0.177339 -0.326063 -0.326971 0.084135 0.090299 0.229387 0.595077 0.270632 -0.524071 -0.221077 0.066761 0.088970 -0.545844 -0.539817 0.358024 -0.339662 -0.314004 
da 0.301656 0.078919 -0.092235 -0.198295 -0.245348 0.192084 -0.090893 -0.503847 0.273241 -0.058431 -0.276704 -0.364780 -0.057326 -0.181071 0.059838 0.002257 0.336557 0.338375 -0.149438 0.057347 -0.340371 -0.005010 -0.035975 0.103568 -0.358435 -0.112207 0.124546 -0.067610 -0.043640 0.063449 0.336935 0.163306 0.056414 0.001896 -0.051702 -0.177841 0.003517 -0.092010 0.078616 0.006732 0.127806 0.064030 -0.400750 0.142614 -0.002098 0.169789 -0.132503 0.241543 -0.907872 -0.129079 0.390493 -0.255511 -0.028538 0.176512 0.028282 0.338788 -0.479983 0.527551 0.102376 -0.112319 -0.149817 -0.149870 -0.026195 -0.017198 0.084633 0.013915 -0.039330 -0.173590 -0.229263 -0.193108 0.279561 0.241213 0.348732 -0.256704 -0.106071 -0.255599 0.141099 -0.477292 0.133477 -0.388118 0.238796 -0.105275 -0.352022 0.024542 0.002584 -0.113338 -0.314392 -0.238925 0.068071 -0.278380 0.090295 0.102962 0.543021 -0.239422 -0.304175 -0.126056 0.069755 0.100095 -0.055447 0.065180 -0.006314 -0.247801 0.018930 0.056148 -0.479544 0.230381 0.061084 -0.319355 -0.343495 0.272269 -0.197143 0.003602 0.069137 0.387504 0.273331 0.219322 0.003745 -0.010709 0.206819 -0.045357 0.533229 0.024893 -0.462860 0.001096 -0.410172 0.143620 0.468339 -0.085775 -0.163065 -0.220760 0.162224 0.287588 -0.085532 -0.271061 0.169856 0.171197 -0.020659 -0.128562 0.027248 0.237673 -0.025709 0.175655 -0.274138 -0.074515 0.060228 0.153617 0.161496 0.404873 -0.101689 -0.752143 0.091615 -0.124257 0.120580 0.173751 0.018163 0.036662 -0.227209 -0.068798 0.236835 0.119623 0.171253 -0.085488 -0.103557 -0.109697 0.311458 0.084966 -0.235517 -0.109276 -0.147807 0.330422 -0.236290 -0.065184 -0.125826 -0.211917 0.256714 0.181756 0.021668 -0.431819 0.036537 0.120187 -0.415879 -0.106237 -0.046088 -0.165421 0.161882 0.414075 0.189363 -0.075339 0.172511 -0.203853 -0.074724 0.046022 0.044892 -0.023987 -0.058075 0.175135 -0.125000 0.008396 -0.138122 0.072555 
de -0.303863 -0.213373 0.234168 -0.258428 0.115505 -0.051558 -0.582318 -0.047584 -0.011383 0.222957 -0.356341 -0.040645 0.031857 0.165560 -0.107196 -0.158300 0.331762 0.817335 0.052053 0.040433 -0.303852 -0.069481 -0.002452 0.033060 -0.329154 0.057240 0.079626 0.241723 0.016060 0.091071 0.330423 0.107912 0.131873 0.100388 0.174144 -0.126765 0.024462 -0.387755 -0.037935 0.576504 0.203088 -0.127732 0.126400 0.011450 0.105107 0.177488 -0.097056 0.030106 1.138851 -0.010988 -0.017101 -0.069466 0.148532 0.251357 -0.088337 -0.034360 -0.179755 0.066385 0.354308 -0.078925 0.174300 -0.137659 -0.130906 0.492154 -0.126550 0.344732 0.177419 -0.110871 -0.099392 0.255590 0.168747 0.030491 0.003349 -0.133084 0.143503 -0.162618 -0.360158 -0.480951 0.029181 0.021150 0.288459 0.167130 -0.146971 0.085779 -0.352352 -0.290147 -0.201602 -0.542789 -0.316805 0.068701 0.167887 0.243237 0.057578 -0.269761 -0.044704 0.137968 0.147359 -0.106722 -0.131509 -0.043901 -0.131733 0.164704 -0.143098 -0.183076 -0.118672 0.008705 0.093940 -0.014562 0.066062 0.222607 -0.030742 0.043516 -0.029775 -0.441743 -0.099709 0.198480 -0.126534 -0.100842 0.225216 0.013895 0.435936 0.074493 -0.456531 -0.246359 -0.181905 -0.181309 0.033134 -0.276625 -0.020293 -0.148925 -0.114066 -0.202495 -0.054013 0.089750 0.151418 -0.139181 0.066741 -0.100902 -0.054100 0.039441 0.124592 -0.010898 -0.590150 0.413942 -0.135881 0.165885 0.134966 0.228842 -0.375676 -0.096602 0.044517 -0.340953 0.144886 0.046427 -0.096006 0.023852 0.089902 -0.523885 -0.031727 -0.055107 0.048708 -0.123309 0.228930 -0.396322 0.021684 0.060114 -0.041998 -0.349509 -0.404240 -0.168959 -0.079018 0.365122 0.207707 0.244929 -0.106169 -0.007022 0.177192 -0.243859 -0.117462 0.067689 -0.315110 -0.151674 0.209911 0.252124 0.202914 0.401507 -0.037718 0.030370 -0.208132 0.304675 -0.097252 -0.223553 0.142555 -0.267743 0.021373 0.308787 -0.029948 0.141762 0.123937 0.100469 
ya -0.220616 0.233312 -0.475338 -0.257983 0.005845 -0.272173 0.495126 0.213240 -0.085816 -0.091763 -0.078548 -0.010799 -0.257222 0.220056 -0.095437 -0.069687 -0.113829 0.105066 -0.287118 0.005775 0.087928 -0.043992 -0.575931 -0.085666 -0.104904 0.181878 0.088021 0.217321 0.049315 0.204263 0.146461 0.547538 0.046473 -0.156991 0.015070 -0.081283 -0.152809 0.450954 -0.170111 -0.158438 0.189038 0.469236 0.002396 -0.501039 -0.107624 0.057784 -0.450006 -0.195806 -1.304444 -0.184789 -0.006158 0.104569 0.224937 -0.034427 0.005394 -0.291346 -0.421176 0.191302 -0.259115 -0.120756 -0.032491 -0.146931 -0.357127 0.042599 -0.241693 -0.660526 0.071043 -0.521785 -0.043639 -0.021592 -0.114394 0.281227 -0.072178 -0.140480 0.157610 0.122559 -0.206469 -0.475822 -0.092430 -0.117700 0.202230 0.053206 -0.411402 0.081797 0.137804 -0.293508 0.107550 -0.090979 0.161798 -0.018151 -0.334483 -0.072100 0.324772 -0.112079 -0.410513 0.096691 -0.601684 0.071026 0.157834 -0.033267 -0.128567 -0.194285 -0.124723 0.450125 -0.366274 0.049304 -0.248217 0.035956 -0.171853 0.000476 0.026649 0.114745 0.221185 0.045341 -0.020191 0.446740 0.458311 -0.331436 0.140673 0.028429 0.097555 -0.060737 0.038067 0.106636 -0.097183 0.108779 0.112332 0.048436 -0.224967 0.279560 -0.010989 -0.001758 -0.526603 -0.157294 -0.090248 0.182086 0.074478 -0.476788 0.624730 -0.382001 0.178221 0.168752 -0.105702 -0.160381 0.027637 -0.120057 0.147586 0.121504 -0.451432 -0.343881 -0.101776 -0.085562 -0.156690 0.312819 -0.331144 -0.165287 0.055137 0.289946 0.316959 0.117148 -0.204126 -0.375731 0.211883 -0.096132 0.048622 0.286602 -0.026498 0.085331 -0.264301 0.508861 0.148946 -0.573607 -0.312072 -0.361388 -0.160568 0.490047 0.230096 -0.164359 -0.477167 -0.381143 -0.076973 0.359973 0.405176 -0.170948 -0.085658 -0.069168 -0.227305 0.150961 -0.094211 0.008493 0.138112 0.187106 0.158256 0.035344 0.162155 -0.425791 -0.276884 0.229172 -0.141948 -0.230519 
a -0.072358 -0.371291 0.169598 0.166226 0.274202 0.083136 -0.267919 -0.282786 -0.053478 -0.055089 -0.190666 0.185273 -0.114536 -0.297067 -0.119405 0.188317 0.404925 0.350018 0.014680 -0.147625 -0.634811 0.153864 0.242037 0.165752 -0.523595 0.112121 0.284473 0.153529 -0.004701 -0.084145 0.310105 0.307114 0.228436 0.493237 -0.208376 -0.581665 0.219404 -0.000510 -0.305301 0.232503 0.309834 0.023613 -0.145617 0.111375 -0.162873 0.224928 -0.037671 0.051937 -0.034298 -0.295170 0.125911 -0.272117 -0.071679 -0.039662 -0.141376 0.028886 -0.432577 0.123567 0.124466 -0.149929 0.089507 -0.375642 0.215883 0.381711 -0.010945 0.006558 0.130085 -0.163216 -0.082999 -0.315491 0.366645 0.001607 0.257039 -0.394377 -0.333333 -0.123237 0.216193 -0.132084 -0.140808 -0.264181 0.365624 -0.113036 0.101306 0.047023 0.059373 0.019637 -0.150884 -0.042802 0.018170 -0.328377 0.111054 -0.018538 0.316945 0.017479 0.239266 0.412037 -0.310880 -0.027363 -0.117451 -0.251230 -0.050934 -0.300010 -0.187278 0.254696 -0.056946 0.415502 -0.044621 0.196185 0.006655 0.216400 -0.348580 0.212077 0.089530 -0.156058 0.162540 0.142443 -0.046733 -0.330521 0.113493 0.028704 0.028861 0.047599 -0.040655 -0.302277 -0.132179 0.150537 0.238367 -0.519680 -0.112717 -0.266491 -0.220993 -0.152103 -0.344592 0.024782 0.292414 0.082848 0.158987 -0.122007 0.186499 -0.133998 -0.060332 0.197932 -0.113932 -0.191448 0.367549 0.036261 0.346725 0.365110 -0.244314 -0.422187 -0.079311 0.001098 0.073750 0.261587 -0.091056 0.024663 -0.275365 -0.243631 -0.050619 -0.246586 0.102805 0.139656 -0.071830 -0.172904 -0.016812 0.216462 -0.233104 0.015326 -0.037865 0.169740 -0.189483 0.056977 0.148106 0.116661 0.037646 0.111996 0.075433 -0.196877 0.118230 0.004627 -0.269625 0.198778 0.216513 0.003811 0.172600 0.325241 0.285618 0.182311 -0.186895 -0.036881 -0.492627 -0.223717 0.060570 -0.202841 -0.015497 0.024738 0.061428 -0.341357 0.064231 -0.241861 
ma -0.365885 -0.031960 -0.080214 -0.576089 0.522412 -0.156054 0.127224 -0.012792 0.041354 -0.058950 -0.112696 -0.031914 -0.161613 0.174895 -0.069072 -0.083610 0.193427 0.431670 0.076764 -0.327647 0.074913 0.139068 -0.655544 0.064474 -0.493372 0.215772 0.131186 0.030207 -0.071702 0.034053 0.091868 0.069471 0.108992 -0.058893 0.010848 -0.663038 -0.096901 0.160150 0.054343 -0.291957 0.250601 -0.124160 -0.203778 -0.546302 0.018104 0.353146 -0.168427 0.235713 -0.934791 -0.174529 -0.175319 -0.086074 0.625359 -0.372140 -0.296711 -0.209872 -0.131358 0.260669 -0.120425 -0.261483 0.051600 0.181434 -0.198714 0.321592 -0.128216 -0.375081 -0.107942 -0.050890 0.070635 -0.401843 0.246680 0.034950 -0.332460 -0.495087 -0.158157 0.338284 -0.252073 -0.037088 -0.275387 -0.152184 0.124350 0.192516 0.024557 0.069907 -0.061261 -0.089858 -0.172916 -0.128619 -0.467470 0.434651 0.036177 -0.421545 0.676741 0.335095 0.481665 0.163317 0.141198 0.023595 -0.169591 -0.307451 -0.424229 -0.196116 -0.233868 0.055487 0.482707 0.086514 -0.011848 0.269679 0.050395 -0.364003 -0.281431 0.037707 -0.144230 0.010171 0.330178 0.499514 0.120646 -0.245813 -0.039265 0.142972 -0.140961 0.100090 -0.254441 -0.066234 0.271389 0.159632 0.215179 0.286359 -0.236030 -0.442593 -0.028890 -0.406813 -0.386716 0.112747 0.519787 -0.125214 0.294934 -0.217184 0.294655 0.094395 0.145513 -0.041286 -0.174351 0.108978 0.237423 -0.110885 0.211054 0.257371 -0.516381 -0.158134 0.045330 0.126237 -0.246711 0.368713 0.301265 0.232050 0.238816 0.174851 -0.009555 0.058748 0.125194 -0.009547 -0.018608 -0.158963 -0.150536 -0.088049 0.230693 -0.163245 -0.067941 0.268322 0.298326 -0.146353 0.133853 -0.165112 0.007347 0.145198 0.063338 -0.071281 -0.349781 0.008303 -0.324116 -0.027225 0.457356 0.145269 0.160549 0.223878 -0.232470 0.086245 0.259049 -0.147431 -0.133976 0.176014 0.162032 -0.055949 -0.090058 -0.143236 0.260217 -0.177769 0.019733 0.083209 
ve -0.152623 -0.186311 0.178699 -0.151081 -0.089508 -0.194422 0.075814 0.116378 -0.279421 -0.005277 -0.283531 0.031240 -0.312432 0.039353 0.063693 -0.133277 0.013191 0.452230 -0.031092 0.209214 -0.052861 -0.008781 -0.173094 -0.048228 -0.376145 -0.027087 0.223678 0.091497 0.019101 0.286643 0.563294 0.619372 0.536825 -0.101203 0.127977 -0.250241 -0.001347 -0.154740 -0.540946 -0.044631 0.087991 0.225470 -0.288212 -0.291396 0.084194 0.064238 -0.098424 -0.178983 -0.241274 -0.209791 0.137080 0.099125 0.408393 0.192978 -0.156121 -0.019681 -0.422911 0.233659 -0.048641 0.043017 0.115700 0.019310 0.275509 -0.028134 -0.136962 -0.276688 0.279650 0.078654 -0.095427 0.067427 -0.047066 -0.170593 0.076366 -0.259848 0.196300 -0.168982 -0.321501 -0.425081 -0.259241 0.506346 0.444793 0.137193 -0.150941 -0.098906 -0.078253 -0.119581 -0.114157 0.043244 -0.228167 0.118636 -0.269461 -0.071632 0.626806 -0.089874 -0.094471 0.346565 -0.748844 -0.049744 -0.046943 -0.002708 0.013043 -0.102135 -0.071767 0.222066 -0.306645 0.011101 0.127859 -0.267833 0.227691 -0.093137 0.187354 -0.153536 0.103854 -0.212302 -0.112892 0.008813 0.082845 0.135962 0.189108 -0.071907 0.080911 -0.029576 -0.124364 0.287700 -0.132558 -0.062258 0.026262 -0.025691 0.155191 0.092174 -0.151533 0.386710 0.017684 -0.103962 -0.202535 0.216019 -0.273496 -0.173492 0.359956 -0.491029 0.112847 0.166274 -0.078376 0.096356 0.092160 -0.269694 0.014663 0.290862 -0.448953 -0.640061 -0.037037 -0.141310 0.352797 0.334919 -0.442585 -0.084254 0.060819 0.180557 -0.027564 -0.242944 0.077867 -0.253629 0.329230 -0.094166 0.364603 0.179385 0.007104 -0.054160 -0.246017 0.355153 -0.161943 -0.235910 -0.210046 0.225439 0.053166 0.532474 0.355850 -0.001049 -0.313379 0.149729 -0.177496 0.005876 0.031055 0.110355 -0.256583 0.287484 -0.081942 -0.065784 -0.261144 0.195392 0.173769 0.322088 -0.040569 0.078830 0.243968 0.015194 -0.179540 0.124486 0.030290 -0.219439 
ri -0.161289 -0.039850 -0.124965 -0.019319 0.226110 -0.045578 -0.256234 0.473047 -0.078315 0.005837 -0.447308 0.619071 -0.499171 -0.129500 -0.122982 0.022915 0.117587 0.547542 0.280517 0.085195 -0.347207 0.487702 0.200758 0.103396 -0.084603 -0.019733 -0.238184 0.186342 0.124585 0.281598 0.414337 0.145418 0.295209 0.282467 0.092379 -0.475554 -0.176967 0.282694 -0.342234 0.201752 0.374091 0.517296 0.085396 0.133737 0.209803 -0.118738 0.390958 -0.451166 0.676116 -0.153347 -0.170105 -0.329780 0.329186 0.120152 -0.401744 -0.357290 -0.124281 -0.279812 0.184610 -0.134072 0.047175 -0.542661 0.601633 0.211094 0.074221 -0.113015 0.273104 0.121160 0.149585 0.218352 0.335064 -0.083246 0.108858 -0.339780 0.052607 0.346653 -0.217119 0.351803 -0.401510 0.331224 0.528113 -0.388481 0.387926 -0.063413 -0.180694 -0.014488 0.291893 0.429340 0.082052 -0.365860 -0.088434 -0.488360 0.051531 0.268335 0.178702 0.538934 -0.048857 -0.227576 0.036791 0.129835 0.100405 -0.123352 -0.506856 0.006024 -0.023701 0.363615 0.018516 -0.113072 -0.090217 -0.037713 0.266501 -0.009934 -0.460303 -0.486645 -0.048297 -0.222236 0.128410 -0.129903 -0.146655 0.021486 -0.214640 -0.145963 0.308873 0.040846 -0.097510 0.132565 -0.056493 0.030492 0.009841 -0.070566 -0.231618 0.100824 -0.135876 0.255827 -0.102111 0.127503 -0.240145 -0.184205 0.275497 -0.633792 -0.091002 -0.285628 -0.012112 0.009188 0.058964 -0.208179 0.017210 0.284342 -0.540754 -0.299635 -0.298083 0.032323 0.359438 0.336428 -0.351972 -0.089514 -0.332508 -0.013645 -0.052539 -0.165567 0.089128 -0.213759 0.222971 -0.058598 -0.027364 0.359494 0.045486 0.302860 0.162956 0.214676 -0.078429 0.116921 0.089914 0.229647 0.342258 0.406561 0.572838 0.082066 -0.096204 -0.209709 0.113775 0.487860 0.371980 0.459514 -0.252481 0.110831 0.124091 -0.086904 -0.177028 0.312090 -0.028684 -0.146833 -0.288849 -0.103191 0.160805 -0.392835 -0.089817 0.077149 -0.104640 -0.443170 
ra 0.308610 -0.156381 0.118790 -0.198088 -0.054226 0.044189 -0.105435 0.007136 0.152710 -0.083448 -0.222030 -0.262877 0.069712 -0.024200 -0.084177 0.129543 -0.072941 0.005748 0.024705 -0.110822 -0.144509 -0.039894 0.119737 -0.041280 -0.175500 -0.022825 -0.095910 -0.004216 0.072820 0.085168 0.151165 -0.115727 0.200521 -0.001647 0.057526 -0.086650 -0.068104 -0.258687 0.053377 0.332844 0.032120 0.009035 0.109239 0.153518 0.263849 -0.081544 0.040087 0.497386 -0.324993 0.107476 0.090570 -0.300883 -0.084866 0.328668 -0.209255 0.213127 -0.011296 0.242282 0.107533 0.025261 0.029228 0.056904 0.196441 0.026912 -0.168225 0.170496 0.158415 0.191869 -0.109487 0.124842 0.469957 -0.301165 0.156791 -0.179805 -0.117957 -0.169538 -0.279231 0.041298 0.011860 -0.020221 0.041113 -0.097387 -0.021555 0.158384 -0.118252 -0.153036 -0.000736 -0.005389 -0.207614 -0.314260 0.277665 0.250488 0.148468 -0.135077 -0.209453 -0.101356 0.131250 -0.077524 -0.062852 0.045853 0.077008 -0.005324 -0.063713 -0.217382 -0.230524 0.096703 0.184105 -0.400769 0.006613 0.159407 0.242037 0.108371 0.146326 -0.015683 -0.079159 0.029809 -0.390915 0.153504 0.131586 -0.078844 0.352844 0.185802 -0.364347 0.180501 -0.191206 -0.069402 -0.127167 -0.137120 0.043822 0.098557 -0.027071 0.062496 0.295485 0.021498 0.065581 -0.074118 -0.133514 -0.044050 -0.044569 -0.155372 -0.116915 0.165587 -0.008166 0.240145 -0.072456 0.084882 0.049770 0.163453 -0.036953 -0.262361 -0.078985 -0.184032 0.361386 -0.082574 -0.156944 -0.117621 0.029432 -0.252401 0.077564 -0.179879 0.068761 -0.206324 0.258785 -0.097343 0.193044 -0.031550 -0.069750 -0.033972 -0.015590 0.067167 -0.157694 -0.002288 0.070202 0.286029 0.171079 -0.043677 0.039885 -0.119523 -0.484283 0.218052 -0.218896 -0.000842 -0.197872 0.105981 -0.243438 0.212631 0.130602 -0.049426 0.007994 0.140408 0.114366 0.105887 0.064856 0.028147 0.012991 0.178610 -0.001548 0.019588 -0.097292 0.032186 
ler 0.281887 -0.445208 0.042130 0.187300 -0.131535 -0.158446 0.067709 0.028403 -0.150720 0.209266 0.219201 0.153860 -0.203413 0.200971 -0.148602 0.356934 0.093300 0.303128 -0.370466 -0.042628 -0.193374 -0.297343 0.177702 -0.274623 -0.199923 0.090088 0.098335 0.200703 0.098785 0.205681 0.276257 0.309399 0.475956 0.132685 -0.167751 -0.163874 0.164524 -0.006273 -0.396048 0.540525 0.288412 0.337995 -0.075293 0.136196 -0.057637 0.052662 -0.102760 -0.235099 0.973307 -0.317257 0.176283 -0.078243 0.372942 0.209446 -0.458062 -0.163388 -0.551884 0.213995 0.061545 -0.125953 0.225510 -0.026297 0.090661 0.301602 -0.343739 -0.138514 0.158958 0.006338 -0.221660 -0.188648 0.350267 -0.118164 0.049844 -0.197131 -0.087518 -0.152356 -0.202208 -0.193917 -0.456667 0.147325 0.287346 0.051318 -0.254709 0.403557 0.097603 -0.252697 -0.015414 0.082914 -0.003945 -0.322488 0.145662 0.146165 0.406329 -0.131764 -0.275092 0.399166 -0.943160 -0.015198 -0.023209 -0.091216 0.074696 -0.144373 -0.119810 0.048574 -0.382929 0.324626 -0.070054 -0.351601 0.014574 0.501797 0.450324 0.253988 0.329724 -0.287282 -0.083365 -0.157658 -0.227718 -0.193817 0.510256 -0.028629 0.133077 -0.058141 -0.101083 0.219707 -0.613688 0.165718 0.270480 -0.516046 0.011654 0.485750 -0.657468 0.143190 -0.138611 -0.098971 0.140935 0.212836 -0.119393 -0.584565 0.216324 -0.373514 0.042033 0.132415 -0.041185 0.292213 0.179719 -0.371114 -0.037369 0.213159 -0.538513 -0.580769 -0.510305 -0.428650 0.257629 0.291935 -0.564013 -0.342981 -0.058324 -0.275871 -0.254453 -0.175603 -0.019992 -0.130829 0.295213 -0.059115 0.105737 0.489365 0.041177 0.219910 -0.392653 0.156289 -0.212313 -0.105665 0.104738 0.398390 -0.017877 0.409278 0.240438 -0.137564 -0.279445 0.099592 0.039887 0.217345 -0.055285 -0.238342 -0.108421 0.080832 0.028629 0.207657 -0.287857 0.122823 -0.070386 0.231373 0.114440 0.458117 0.422462 -0.047109 -0.519504 0.081114 -0.118077 -0.444749 
o 0.112590 -0.014109 0.136858 -0.446058 0.052492 -0.168828 0.026310 -0.141886 0.010767 0.011294 -0.198605 -0.261263 -0.459040 0.170724 -0.197734 0.086777 -0.155603 -0.118200 0.157167 -0.167068 0.484346 -0.162419 -0.403930 -0.163327 -0.599941 0.335768 -0.032338 0.213629 0.278190 0.411474 0.589649 0.108751 0.035956 -0.341151 -0.209422 -0.236877 0.180391 -0.166863 0.396486 0.045802 -0.237509 0.055545 0.324462 -0.078685 -0.009544 0.506022 -0.171410 0.016502 -0.261022 -0.129541 -0.011085 0.123184 0.136885 0.317644 -0.024125 0.317039 -0.384296 0.070469 -0.069504 -0.088000 -0.375206 0.536249 -0.319210 0.253146 -0.344650 -0.195669 0.365527 0.347412 -0.133022 -0.290175 0.247080 -0.185247 -0.207115 -0.386313 -0.001358 -0.263934 -0.685702 -0.336507 -0.381086 0.084792 -0.064207 0.019815 -0.102201 -0.324594 -0.140036 -0.070121 -0.295695 -0.364012 -0.177003 0.364214 0.203800 0.301562 0.499370 0.297423 -0.185730 0.198144 0.033157 0.088786 -0.268569 -0.371642 -0.322779 -0.204846 0.389522 0.098436 -0.107356 -0.362956 0.226820 -0.660325 0.045737 -0.149404 0.461552 0.138734 0.601273 -0.122130 -0.422118 0.513309 -0.092041 0.175600 0.085551 0.061731 0.075888 0.215323 -0.749711 0.491677 -0.148979 -0.223079 0.315750 0.032060 -0.303147 0.317828 0.152171 -0.013632 0.132869 -0.158503 0.176386 -0.422460 0.193447 -0.353909 0.139222 -0.204555 -0.143479 0.356735 -0.153515 0.545303 -0.019291 0.064089 0.114348 0.268168 -0.140352 -0.417209 0.337248 -0.213339 0.105268 0.282635 -0.169880 -0.560395 0.195035 0.364204 -0.240716 -0.051132 0.192821 -0.000745 -0.093352 0.060391 0.270155 -0.262856 0.429486 0.100825 -0.271749 0.525045 -0.207072 -0.006141 0.200907 0.522102 0.008848 -0.009468 -0.258400 -0.181991 -1.283255 0.320463 -0.723038 -0.561433 -0.090929 -0.317208 0.190850 0.171819 -0.201575 0.328741 0.115424 -0.174050 0.056435 0.183305 0.448001 0.241545 0.009403 0.590968 -0.175263 0.212450 0.115705 0.187129 
ta 0.051736 -0.042928 -0.200005 -0.198781 -0.059933 -0.192658 0.408793 0.379346 0.223975 -0.031080 -0.221409 0.033062 -0.255511 0.503184 0.208515 -0.017315 -0.399854 0.409783 -0.234044 0.124977 -0.055894 -0.037269 -0.265001 -0.238532 -0.163027 -0.255469 -0.117047 0.132442 -0.220003 0.031431 0.184287 -0.267094 0.150228 0.006536 0.044757 -0.710547 0.307642 0.032441 0.173228 0.289446 0.386816 0.074110 0.260687 -0.407704 0.196385 -0.159220 -0.244058 -0.139321 -0.887048 -0.111556 0.163183 -0.109754 0.332929 -0.416226 -0.257367 -0.410685 -0.040484 0.207306 -0.235828 -0.284902 -0.046511 0.097686 0.047459 0.198695 -0.302829 -0.208244 -0.093287 -0.070251 0.199537 -0.290250 -0.215734 0.150913 0.084079 -0.299600 -0.241038 0.329333 -0.464961 -0.116076 -0.259001 -0.196685 -0.049071 0.118078 0.096619 0.075720 -0.051656 -0.183851 0.631554 0.352610 -0.223451 0.080487 -0.067025 -0.179005 0.404919 -0.160257 -0.007781 0.305035 0.003946 0.112383 0.076534 -0.065656 0.003725 -0.194938 -0.113159 -0.061599 0.102430 0.484652 0.100252 0.135923 -0.341741 -0.205343 -0.022397 0.182571 -0.176356 -0.265962 0.332337 0.075709 -0.038867 0.013325 0.467325 -0.004714 0.001535 0.244864 0.022916 -0.234060 -0.013381 0.208687 0.042412 0.319337 -0.339869 -0.126690 -0.144071 -0.107412 -0.320592 -0.256083 0.215683 -0.040546 -0.218561 -0.412411 0.452257 0.275373 0.106964 0.098464 0.104871 0.160226 0.098263 -0.023922 -0.051686 0.241144 -0.438508 -0.259607 -0.469936 -0.140841 -0.296495 -0.077247 -0.170022 0.192123 0.184438 -0.125502 0.332704 -0.094546 0.051345 -0.305180 0.184945 -0.173828 0.040096 0.296382 0.079737 -0.134902 -0.026852 0.071538 -0.172885 -0.720702 0.070220 -0.238944 -0.099235 0.145276 -0.142851 -0.079691 0.005730 -0.092045 -0.335999 -0.002877 0.387777 -0.073474 -0.348867 -0.060204 -0.024898 0.040623 0.248693 -0.125443 -0.111537 0.107440 -0.114950 0.242278 -0.044965 -0.424724 0.191965 0.212043 -0.427305 0.028421 
li 0.281420 0.212274 0.265328 0.114546 -0.001540 -0.038556 -0.068912 0.094759 -0.372259 -0.190620 0.140128 0.022616 -0.078937 -0.034166 0.203498 0.315176 -0.124518 0.253921 -0.221593 0.091758 0.018158 0.232267 0.092261 -0.147714 0.157352 -0.254833 -0.140362 -0.166750 0.294200 0.204607 0.391045 -0.082621 0.352376 0.276981 0.417184 0.147387 -0.166338 -0.057169 -0.267097 0.368942 0.003696 0.046445 0.469364 -0.027733 0.315215 -0.207329 -0.076906 -0.230051 0.729049 -0.038750 -0.096508 0.049900 0.275287 0.195172 0.191242 -0.132057 -0.131974 0.208292 0.238342 0.184123 0.130122 0.005018 0.001669 0.265019 0.112117 0.241065 0.323395 0.093805 0.267192 0.379579 0.041694 0.154501 0.150772 -0.186293 0.306020 0.185884 -0.526258 -0.219663 -0.003957 0.395938 0.175557 0.264125 -0.022998 0.283018 -0.610361 0.035502 -0.006595 -0.106367 -0.187946 -0.262680 0.099032 -0.015838 0.031190 -0.139302 0.119945 0.119107 0.123568 -0.197910 0.057785 0.088119 0.142844 0.262622 0.047668 -0.439849 -0.130759 0.079434 0.094090 0.071663 0.242260 0.335854 0.120022 -0.101923 -0.080310 -0.338502 -0.157396 -0.016247 -0.230242 0.282000 0.392406 -0.166769 0.355107 -0.003124 -0.097127 0.059714 -0.230332 -0.260154 -0.094259 0.307567 -0.160992 -0.081736 -0.210124 0.293597 0.166587 0.049317 -0.160816 0.303100 -0.233107 -0.339562 -0.095464 0.109463 -0.197053 -0.131069 -0.212007 0.563219 -0.285146 -0.059128 -0.109396 -0.213680 -0.444079 -0.437708 -0.274207 -0.007241 -0.176509 -0.082448 -0.213656 -0.068964 -0.108832 -0.339495 -0.374551 -0.123584 0.338281 -0.050804 0.111501 -0.342517 0.214123 0.206605 0.343504 -0.183715 0.094090 -0.156371 -0.147114 0.264009 0.385106 0.226698 -0.414742 0.190841 0.007952 0.256485 0.245700 0.060603 -0.120558 -0.261351 0.077273 -0.028386 -0.420504 0.138388 0.123155 -0.241736 0.212618 0.357431 0.018677 -0.234594 -0.280830 0.207214 0.132505 0.117513 -0.236461 0.515446 -0.232995 -0.089809 
na 0.340138 -0.157471 0.289670 -0.257102 -0.272973 -0.027378 0.281775 0.149757 0.233684 0.217055 -0.108204 -0.180834 0.147801 0.315926 -0.022703 -0.092103 -0.316883 -0.036577 -0.018261 0.100905 -0.079180 -0.323233 -0.116492 0.199954 -0.698587 -0.125455 -0.119508 0.154517 0.408751 0.079906 0.358874 -0.534140 0.140720 -0.041047 -0.131558 -0.339864 0.408797 -0.260415 0.532655 -0.048715 -0.085274 0.000932 0.088093 -0.220682 0.252281 0.256246 -0.371309 -0.194835 -0.515465 -0.110773 0.133418 -0.181907 0.063769 0.063232 -0.164076 0.208365 0.178545 0.186949 -0.042001 0.067528 0.161379 0.542155 -0.060764 -0.023637 -0.137513 0.115095 0.111271 0.121933 -0.413860 -0.074501 0.034833 -0.200080 0.281386 -0.199306 -0.043303 -0.258342 -0.268654 -0.540658 -0.255011 0.027603 -0.060151 -0.167376 -0.035413 -0.438997 0.177018 0.126904 0.140227 0.234260 -0.225518 0.080108 0.359231 0.335020 0.200318 -0.119966 -0.119481 0.247240 0.261752 0.277731 -0.100222 -0.147998 -0.164161 -0.205020 0.435940 -0.017369 -0.126549 0.127740 0.195268 -0.444978 -0.323208 0.244670 -0.033291 0.155702 0.297822 0.213802 -0.070747 0.218254 -0.185772 -0.010758 0.254110 0.020975 0.269562 -0.104201 -0.381434 -0.126771 -0.015646 -0.131561 0.108930 0.063186 0.001926 0.177907 -0.142693 0.162053 -0.140017 -0.313297 0.149296 0.037774 0.025298 -0.049327 0.402083 0.309713 -0.166940 0.497717 0.109174 0.344826 0.172639 0.008704 -0.103278 -0.147395 -0.293567 -0.246032 -0.458307 -0.439708 -0.338949 -0.149739 -0.234023 -0.383817 0.083945 -0.137113 0.107548 0.042769 0.262033 0.103923 0.303928 0.075776 0.237167 -0.174389 0.354632 -0.028240 -0.171467 0.298249 -0.102242 -0.341946 -0.247272 -0.041297 -0.053811 0.055108 -0.351207 -0.118532 -0.066920 0.005489 -0.424102 -0.410294 -0.189455 -0.314406 -0.149102 -0.061243 0.113957 0.060178 -0.101906 0.196504 -0.040982 0.061952 -0.044031 0.253824 -0.178393 0.207238 -0.251797 0.120971 0.098476 0.361142 
rı -0.431894 0.107103 0.119500 -0.090583 0.136886 -0.142680 -0.043658 -0.096352 -0.486347 0.116313 -0.204787 0.382288 -0.288521 -0.495048 -0.262447 0.031743 0.256654 0.345506 0.081075 -0.105105 -0.321403 0.298555 -0.123594 0.267626 -0.396036 0.239292 -0.156145 -0.201639 0.274201 0.103070 0.472916 0.051435 0.161836 -0.048304 -0.070729 -0.503993 -0.039963 0.472244 -0.117066 -0.054492 0.352745 0.436374 -0.192322 -0.355247 -0.094928 0.578288 -0.104865 -0.547408 0.053249 -0.453566 -0.114377 -0.270820 0.410876 -0.033087 -0.117045 0.104570 -0.411085 -0.095868 -0.189118 -0.145119 0.193061 -0.273611 -0.012878 0.164870 0.033966 -0.128177 -0.077988 -0.295166 -0.072479 -0.236965 0.171480 0.019279 0.173786 -0.326925 0.062165 0.073932 -0.107661 -0.281534 -0.269243 -0.402384 0.229560 -0.134442 -0.087544 -0.249184 0.207057 0.383328 -0.334909 0.010084 -0.096867 0.051009 0.000551 0.074405 0.354290 -0.228845 0.047999 0.290498 0.105979 -0.100277 0.065951 0.020399 -0.404870 -0.033595 -0.221219 0.350319 -0.032915 0.332866 -0.078809 -0.009528 -0.297107 0.403558 -0.133542 0.196795 0.031103 0.269417 0.219247 0.353309 0.316793 -0.510680 -0.071346 0.398293 0.035758 -0.300955 0.270663 -0.122334 0.236016 0.090235 0.356517 -0.115689 -0.126868 0.009756 -0.211047 -0.381682 -0.693908 0.070403 0.133626 0.320986 0.405708 -0.246565 0.211988 -0.011657 0.305929 0.033448 -0.153682 -0.055180 0.147171 -0.412134 0.377451 -0.160165 -0.657251 -0.442722 -0.139035 -0.126116 -0.301088 0.335226 -0.180069 -0.332192 -0.110493 0.034383 0.149352 -0.000200 -0.137776 0.094762 0.028792 0.084937 0.055767 0.143554 0.002221 0.086613 -0.412236 0.156006 0.101724 -0.030664 -0.004509 -0.137023 -0.147504 0.210874 0.189767 -0.212523 0.093475 -0.319449 0.176991 0.635369 0.467867 -0.086242 0.231702 -0.177895 0.406529 -0.117674 -0.071205 0.064848 0.002543 -0.221128 -0.065610 -0.130459 -0.179913 -0.243113 -0.436428 -0.289223 0.036408 0.049750 
sı -0.063804 -0.187614 -0.132743 -0.451604 0.367165 0.153581 -0.176689 -0.009305 0.395171 0.000816 -0.366362 0.053577 -0.123232 -0.132677 0.199252 0.022079 0.110592 0.338510 0.144658 -0.286849 -0.186128 0.008595 -0.274245 0.173414 -0.359925 -0.108408 -0.121197 0.120684 0.058435 -0.016382 0.306030 -0.385301 0.066098 0.272196 -0.040891 -0.594060 0.099184 0.000296 0.425575 0.235055 0.212393 -0.149561 0.217925 -0.187411 -0.166420 0.358153 -0.245046 0.369468 -0.524435 -0.059310 -0.103136 -0.207021 0.248844 -0.116619 -0.011623 0.170279 -0.114873 0.311755 -0.052382 -0.191397 -0.296225 -0.119657 -0.065927 0.370896 -0.042653 0.130700 0.078823 -0.057084 0.131820 -0.207852 0.940002 0.147724 -0.005346 -0.489741 -0.328205 0.139087 -0.197882 -0.251980 -0.091930 -0.304455 0.246651 -0.049404 0.311206 -0.031743 -0.427123 0.142868 0.136619 -0.204156 -0.242834 0.092164 0.169667 -0.057862 0.513189 0.131013 0.091908 0.175724 0.436226 0.035878 -0.211955 -0.386634 -0.212924 -0.276323 -0.224209 -0.196804 0.190154 0.112740 0.146879 0.097589 -0.203699 -0.157558 -0.408697 0.067599 -0.245619 -0.161718 0.231451 0.671150 -0.166411 -0.203897 0.002388 0.104550 0.234696 0.158062 -0.363729 -0.217736 0.139413 0.162545 0.181954 0.027577 -0.350773 -0.352640 0.041522 -0.335693 -0.325113 -0.146818 0.535617 -0.234768 0.154175 -0.050393 0.275516 0.166423 -0.100839 0.045447 -0.165078 0.143060 0.113716 0.245491 0.247348 0.498378 -0.224243 -0.356806 0.027052 0.059104 -0.161734 -0.065618 0.292432 0.317724 -0.185519 -0.063573 0.046336 0.056186 0.304011 -0.044888 -0.008306 -0.191818 0.073648 0.042517 0.169401 -0.214645 0.127510 0.281382 -0.063755 0.102461 0.171110 -0.172465 0.177327 -0.154000 -0.075387 -0.229520 -0.076245 -0.043986 -0.541492 -0.213461 0.399589 0.142309 0.152809 0.256689 0.131044 0.141166 0.316513 -0.310549 -0.290974 -0.109979 0.219914 -0.085998 -0.189073 0.090499 0.366150 -0.069865 0.025605 0.325802 
ki 0.715501 0.080450 -0.409434 0.181710 0.283393 0.081635 -0.131114 0.088928 0.230188 -0.222068 -0.121942 0.021627 0.174152 0.168966 -0.497677 0.340891 0.151471 -0.289941 -0.357499 -0.286717 -0.415671 0.141060 0.465847 -0.174391 -0.493593 0.189970 0.057740 0.423414 0.281095 -0.091911 0.285947 -0.030379 -0.053308 0.991536 -0.304570 -0.263130 -0.098734 -0.142107 0.063824 0.793881 -0.164948 0.545268 0.300193 0.577491 -0.345194 0.035367 0.187052 0.416053 0.509791 0.138922 0.068559 -0.671028 -0.178157 0.250502 -0.146337 0.027745 -0.288801 0.212417 0.531455 -0.178880 -0.627278 -0.398059 0.160768 0.502029 -0.329409 -0.139306 0.349254 0.101168 0.025744 0.269061 0.488084 -0.101549 0.006617 -0.001565 -0.502491 0.175833 0.318750 0.474480 -0.080572 0.324889 0.452420 -0.486312 0.490770 0.393783 -0.207953 -0.394461 0.594962 0.276249 0.317256 -1.094857 0.216438 -0.163840 -0.322061 0.147479 -0.115572 0.348972 0.042915 0.025000 -0.498549 -0.178500 0.125748 -0.264828 -0.449559 -0.246078 -0.146662 0.222809 0.006856 -0.062506 0.052012 0.309024 0.241155 0.315845 0.023218 -0.353822 0.033453 0.406837 -0.227889 0.194289 0.335000 -0.212971 0.099590 0.290540 -0.256881 0.305454 -0.208894 -0.051547 0.091386 -0.283131 -0.396102 0.071622 -0.422473 0.048152 0.104451 0.454311 0.275044 -0.094227 0.041301 -0.651642 0.168950 -0.522581 -0.428670 0.139076 -0.133097 0.322168 0.236184 0.201375 -0.221298 0.734703 -0.070436 -0.290913 -0.253487 -0.020619 0.534631 0.109394 -0.270141 -0.150259 -0.416136 -0.066808 -0.454657 -0.405909 0.153508 -0.199657 0.215697 -0.362860 -0.058628 0.295559 0.111287 0.526713 0.418358 0.350880 0.080473 0.182225 0.276868 0.406424 -0.013519 -0.131031 0.180837 0.129916 -0.781879 -0.348130 -0.346913 -0.001273 0.396232 -0.051178 -0.675324 0.221709 -0.284349 0.177637 -0.252186 0.426750 -0.083233 -0.271218 0.140709 0.416425 0.440619 0.054598 0.113664 0.222213 -0.137300 -0.760955 
ge 0.193997 0.258203 -0.001873 0.272757 -0.327932 -0.123590 0.305645 0.103748 0.111745 0.045952 0.090804 -0.473601 0.598537 0.671108 -0.085622 -0.173067 0.238226 1.016479 -0.543048 0.337607 -0.179233 -0.055682 0.074402 -0.033217 0.248870 -0.201428 0.280335 -0.166059 -0.326009 -0.250114 -0.316213 0.662555 0.140340 0.079563 0.327182 0.678183 -0.034901 -0.129145 -0.458237 0.820491 0.385704 -0.205068 0.031103 -0.039562 0.199357 -0.369137 -0.410900 0.299180 -0.612450 0.006117 0.000718 0.248509 0.043752 0.350376 0.175616 -0.811760 -0.142889 0.343450 0.343047 -0.423077 0.302545 -0.049401 -0.185940 0.389815 -0.311758 -0.057194 0.032083 -0.520624 -0.174864 0.352610 -0.305507 0.627928 -0.144196 0.347781 0.416799 -0.236410 -0.031646 -0.808774 0.375762 -0.095313 0.251797 0.130271 -0.490515 0.638421 -0.379749 -0.616029 0.753471 -0.289142 0.034173 -0.208363 0.080980 -0.005883 -0.222262 -0.579948 -0.211665 -0.036955 -0.161330 -0.098239 0.055531 -0.139150 0.154297 0.326688 -0.226044 -0.053445 -0.546290 0.334420 -0.132207 0.196524 0.061312 0.146464 0.219027 0.075887 0.005933 -0.034375 0.077354 -0.249910 -0.089534 0.095570 0.717472 -0.076163 0.533625 0.108539 -0.137880 -0.326172 -0.738747 -0.083697 -0.040647 -0.319734 0.223003 0.217221 -0.190737 0.317282 -0.012208 -0.183074 -0.215051 0.170592 -0.143857 -0.011337 -0.057606 0.108263 -0.016692 0.170370 -0.192131 0.100891 -0.277982 0.256443 -0.345175 -0.036623 -0.370318 -0.084419 -0.496269 -0.418487 -0.070831 -0.017172 -0.181141 0.351064 0.125839 -0.983983 0.238594 0.151138 0.048332 -0.423294 0.502647 -0.336725 -0.054206 0.318270 -0.020866 -0.578753 -0.078331 -0.213958 0.161598 0.115439 0.126986 0.115407 -0.651341 0.370882 0.006754 0.246350 0.476889 -0.015364 0.110909 -0.152549 0.124159 -0.045313 -0.461866 0.216024 -0.192425 -0.058710 -0.012171 0.726586 0.284292 -0.117323 -0.316559 0.036156 -0.174161 -0.587200 -0.397933 0.474286 -0.035579 -0.371977 
i 0.152254 -0.142388 -0.023958 0.186322 0.065176 -0.062004 -0.049536 0.224308 0.344971 0.030631 -0.189540 0.127558 -0.209510 0.106186 -0.292858 0.378767 0.058779 0.290524 0.239554 -0.056997 -0.243584 0.118774 0.186670 0.020158 -0.015418 -0.075926 -0.489379 -0.017252 0.189511 0.071665 -0.071501 -0.237055 -0.077489 0.061858 0.026926 0.005741 -0.124102 0.162693 -0.154572 0.121165 0.452458 0.345372 0.132787 0.265400 0.911582 -0.072505 0.217811 -0.339511 0.370844 0.263514 -0.046695 -0.263750 -0.040791 0.137386 -0.696837 -0.369261 0.318391 -0.036857 0.229564 -0.356825 0.216800 -0.270463 0.385805 -0.046157 -0.011274 -0.066245 -0.137049 0.047986 -0.068164 -0.172069 0.318456 -0.337126 0.208038 -0.144986 -0.053892 -0.001994 -0.371792 0.459596 0.014010 -0.437649 -0.060943 -0.538524 0.245618 0.128404 -0.208724 -0.264667 0.222285 0.357553 0.195492 -0.488809 0.362801 -0.143859 -0.066143 0.080767 -0.191088 -0.066504 0.492440 -0.184087 0.273581 0.146023 0.121398 -0.279448 -0.249511 -0.150139 0.016110 0.351850 -0.345422 -0.340643 -0.167274 0.004511 0.314942 0.211886 -0.266156 -0.394162 -0.026647 -0.582930 -0.205797 0.049133 0.069290 -0.140623 -0.054496 -0.016639 -0.208495 -0.060052 -0.425194 0.099513 0.058237 -0.166318 0.317015 0.329600 -0.159339 0.379762 -0.014636 0.090473 -0.082260 -0.184869 -0.037288 0.078764 -0.312250 -0.035682 -0.228522 0.066768 -0.007827 -0.059819 -0.310184 0.203071 0.051418 -0.184947 -0.376375 -0.165587 -0.399022 -0.137293 0.242744 0.136461 -0.175843 -0.115835 -0.112586 -0.484678 0.225656 0.061052 -0.210244 -0.413196 0.160977 0.040387 -0.160399 0.088568 -0.182090 0.359371 0.195967 0.117548 0.008165 0.300953 0.198302 0.113230 0.319878 -0.100108 0.036818 0.050156 -0.008686 0.226626 0.515538 0.574998 -0.007193 0.457820 0.169923 0.165904 0.328919 -0.031712 0.143083 0.537214 0.197600 -0.115794 -0.552137 -0.263067 -0.011567 -0.624750 -0.309543 -0.054697 -0.287137 -0.148795 
ka 0.058359 0.157309 -0.086025 0.113365 0.114858 -0.104825 0.393932 0.190439 -0.038879 -0.064286 0.156412 -0.330426 0.339247 -0.045753 0.144362 0.018764 0.040764 0.237364 -0.273792 -0.137454 -0.054996 -0.194952 -0.010605 -0.047873 -0.027912 -0.362504 0.085951 0.022481 0.120255 -0.259099 0.057723 -0.070984 0.225184 0.435869 0.102405 0.092263 0.127114 -0.077822 0.037090 -0.143238 0.060900 0.119824 -0.045194 -0.385752 0.060298 0.017870 -0.369379 0.089937 -1.235516 0.002366 -0.113719 -0.008985 0.121759 -0.039375 0.308974 -0.032578 0.012265 0.626409 0.047766 -0.262175 0.160961 -0.051145 0.084794 0.014183 0.088098 -0.078868 0.164020 -0.305323 0.050196 0.145122 -0.191081 0.180880 0.256494 -0.149334 -0.151777 0.259277 0.134091 -0.440199 0.086458 -0.037249 0.069795 -0.149031 0.249099 -0.023107 -0.218498 -0.117470 0.224132 0.185903 -0.212108 -0.141874 0.041830 0.082729 0.140269 -0.361880 -0.020940 0.143218 -0.073241 -0.022207 0.017447 -0.117403 -0.083634 -0.098677 -0.137053 0.019876 -0.131693 0.113393 -0.096851 0.279465 0.020580 0.139986 -0.353080 -0.028936 -0.035281 -0.047879 0.306047 0.136393 -0.095640 0.120107 0.094420 -0.146777 0.453095 0.330102 -0.176515 -0.415339 0.016574 0.068809 0.030086 0.011363 -0.020549 -0.249908 -0.054657 0.294595 -0.211966 -0.244439 -0.081816 0.324060 0.069945 0.193477 0.260743 0.138292 -0.054426 0.416398 -0.116890 0.099669 0.062921 0.344907 0.012850 0.138229 -0.445656 -0.424969 -0.339813 -0.050434 -0.276954 -0.046023 0.206487 0.278458 -0.153793 -0.512707 0.384158 -0.067092 0.121011 -0.160577 0.442940 -0.392617 0.096309 -0.065351 -0.086243 -0.256660 0.099280 0.382260 0.024286 -0.002675 -0.015172 -0.328955 -0.475470 0.003520 -0.403590 0.071228 0.453762 -0.220738 -0.122485 -0.099493 0.371812 -0.119702 -0.303430 0.105526 0.351223 -0.076981 0.135409 0.539809 0.090480 -0.061791 -0.275608 -0.216488 -0.079339 -0.378049 0.140684 -0.091560 0.106599 0.125214 
ne 0.404921 0.472568 0.211228 0.056096 0.184128 -0.199483 0.151583 0.039930 -0.071664 -0.267565 -0.032801 -0.270119 -0.064024 0.450806 0.006943 -0.237021 0.198179 0.597126 -0.346070 0.096847 -0.151796 0.283780 0.019738 0.055985 -0.435569 -0.077393 -0.003699 0.028221 0.101552 -0.127121 0.202682 0.217838 0.167634 0.075866 -0.111323 0.056540 -0.140546 0.017955 -0.114173 -0.115582 0.050212 0.081651 -0.066690 -0.267441 0.202910 -0.014753 -0.243825 -0.181826 -0.263939 -0.098504 0.044718 0.052750 0.259098 0.006990 0.220235 -0.444122 -0.167141 0.373148 0.203334 -0.265200 0.033230 -0.130287 -0.150796 0.180988 -0.093127 -0.129421 0.269637 -0.138577 -0.248800 -0.021810 -0.433310 0.337200 -0.236889 -0.024404 0.218788 -0.023017 -0.036394 -0.588063 -0.132093 0.131381 0.350693 -0.081876 -0.197673 -0.097890 -0.056878 -0.297770 0.253688 0.043727 -0.012369 -0.440620 0.078540 -0.160703 0.063735 0.081865 0.036816 0.229588 0.150681 -0.094565 0.038636 -0.277460 -0.056173 0.069309 0.069313 0.313772 -0.094936 0.235939 -0.038887 0.141164 0.023920 0.216854 0.060607 0.171510 0.067648 0.025904 -0.086692 0.207970 0.019115 0.034605 0.385964 -0.124036 0.292917 -0.050646 -0.268403 -0.312268 -0.063352 -0.026374 0.182267 -0.009087 -0.199947 -0.151273 0.098453 0.441352 -0.165838 -0.059870 -0.095066 -0.091853 0.030352 -0.406978 0.415766 -0.116061 -0.316444 -0.053552 -0.096763 0.249428 -0.076402 0.196284 -0.190577 0.108337 -0.421120 -0.175439 -0.373416 -0.170688 -0.315664 0.127750 -0.172760 -0.090060 -0.172669 -0.172191 0.077936 -0.004476 0.273232 -0.192229 0.284314 -0.104895 0.129349 0.187618 0.252314 -0.031825 -0.002728 0.226971 0.034007 -0.214007 0.058066 -0.049750 -0.281349 0.430992 -0.058567 0.112384 -0.309951 -0.207366 -0.233478 -0.171748 0.375318 0.005530 -0.087593 0.207580 0.035409 -0.027590 -0.048931 0.586179 0.009175 -0.178645 -0.278451 0.234803 -0.315614 -0.255625 -0.164357 0.379944 0.122926 -0.202068 
me -0.036270 -0.098103 -0.041070 -0.139628 -0.008148 0.023107 -0.027330 0.159920 -0.324310 -0.094261 -0.363174 0.605168 -0.272562 -0.319855 -0.127907 0.102581 0.050602 0.286177 -0.091520 0.004990 -0.450997 0.562348 -0.029514 -0.117666 0.173193 0.142318 -0.301498 -0.255850 0.473783 0.220561 0.370282 -0.064730 -0.090849 -0.287549 0.230969 -0.315520 -0.284454 0.555092 0.126232 0.423081 0.461765 0.364671 0.632320 -0.092348 0.310139 0.095897 -0.242734 -0.102943 0.253922 -0.304963 -0.224284 -0.308383 0.249178 0.146908 -0.215649 -0.221369 -0.173651 -0.148368 0.071948 -0.151824 0.282024 -0.153531 -0.322359 0.334991 -0.111764 0.188609 0.321519 -0.222750 0.093988 0.050254 0.632415 0.004267 -0.123728 -0.225768 0.227460 -0.097443 -0.355197 -0.459171 -0.126047 -0.288116 0.385894 0.007653 -0.090865 0.287856 -0.291666 0.034957 0.120338 -0.249585 0.042770 -0.288511 -0.014366 -0.185969 0.185486 -0.082400 -0.272065 0.204287 0.733898 -0.082055 0.045313 0.148995 0.151223 0.241779 -0.251309 -0.238420 -0.144680 0.497023 0.069174 0.217746 -0.142139 0.365743 0.320204 0.126260 -0.006404 0.016028 -0.145143 0.369358 0.300999 -0.438001 0.430835 0.120591 0.121763 -0.260808 0.200847 -0.133936 -0.011431 0.085258 0.125675 0.029771 -0.486561 0.394222 0.026343 -0.343887 -0.629413 -0.087200 0.163560 0.174784 0.221337 -0.607777 0.094855 -0.161913 -0.093554 -0.113749 -0.070597 0.187641 -0.307258 -0.171261 0.229294 -0.218258 -0.453325 -0.188955 -0.254099 -0.220601 -0.401522 0.150740 -0.262584 -0.266406 -0.332601 -0.046809 -0.297565 0.274562 0.059123 -0.262240 -0.046820 0.037298 0.025520 0.385024 0.522433 0.205985 -0.081661 -0.134036 0.189894 0.208517 0.292971 -0.005549 -0.199147 0.342789 0.436859 -0.213394 0.067069 -0.353015 -0.005099 0.367167 0.345581 0.137625 -0.204399 -0.180023 0.090141 0.051760 0.251193 -0.033853 -0.002290 -0.197312 0.125964 0.032304 -0.049247 -0.314388 -0.436016 0.439603 -0.269677 0.054659 
re -0.433386 -0.748031 -0.252425 0.074150 -0.161564 0.028475 -0.265443 0.162039 -0.032161 0.532779 0.105749 0.367972 0.217823 -0.106352 -0.466194 0.261021 0.295255 0.226090 -0.126076 -0.029602 -0.508023 -0.355433 0.125496 -0.296394 0.198764 -0.002217 0.084008 0.256421 0.231754 0.119778 -0.043804 -0.011280 0.245877 0.452735 0.166566 -0.108537 0.304029 -0.107670 -0.080867 1.000467 0.334348 0.268084 0.236149 0.126256 -0.206995 0.241438 -0.019496 0.031098 1.398710 0.001683 -0.112532 -0.278083 0.222290 0.158834 -0.388602 -0.106461 0.010861 -0.318990 0.164235 -0.254627 0.284865 -0.133269 -0.016692 0.505783 -0.154716 0.327892 0.011309 -0.145613 -0.051894 0.173485 0.637666 -0.253154 0.091082 -0.014558 -0.364729 0.005955 0.075479 -0.052723 -0.167008 -0.004706 0.255494 0.017062 0.340622 0.661958 -0.377932 -0.276070 0.150694 -0.222906 0.035611 0.002774 0.264069 0.099115 0.021944 -0.443274 -0.218032 0.335028 -0.253198 0.220731 -0.143793 0.029720 -0.004919 -0.040839 -0.621883 -0.487387 -0.105739 0.287611 -0.069892 0.122885 0.060916 0.205809 0.282528 0.175994 0.127662 -0.668615 0.345665 -0.061845 -0.204597 -0.274384 0.439986 0.137182 0.077962 0.157203 0.015768 -0.197346 -0.321361 0.050920 0.094197 -0.469603 -0.062180 0.370977 -0.756048 -0.494334 -0.366755 0.116269 0.236467 0.302025 0.326487 -0.098885 -0.138115 -0.148514 0.142913 0.447012 -0.497370 0.343248 0.103189 0.001269 0.264003 0.023490 -0.580523 -0.377836 -0.402870 -0.427330 0.082383 0.311597 -0.146233 -0.084795 -0.002172 -0.665281 -0.305031 -0.002194 -0.109216 0.024547 0.212605 -0.416704 -0.411125 0.351399 0.117138 -0.149655 -0.216450 -0.223872 0.380139 0.605125 0.407586 0.285852 -0.421230 -0.223632 0.236479 0.031329 0.168982 -0.134263 0.161418 0.111852 0.164715 -0.123089 -0.404266 -0.158731 -0.155784 0.302855 -0.076575 0.379486 0.042114 -0.191321 0.136785 -0.109305 0.577079 -0.102140 -0.452717 -0.077253 -0.119696 -0.238997 
nü -0.578178 0.307440 -0.014919 -0.358032 0.056204 -0.470191 -0.798442 -0.683374 -0.185228 0.035164 -1.064878 -0.886767 -0.345992 -0.272273 -0.754067 -0.648025 0.703994 1.094143 0.120743 0.210330 -0.012207 -0.060391 0.047771 -0.171856 -0.517828 0.841333 0.964133 0.250288 -0.979027 0.338330 0.692105 1.405845 0.041408 -0.353400 0.358120 0.005895 -0.308105 -0.585426 -0.917630 0.752174 0.374933 0.062525 -0.694082 0.387133 -0.074472 0.203905 0.482807 0.468462 -0.987585 -0.089841 0.623196 0.104927 -0.197906 1.196081 -0.201392 -0.057503 -0.772325 0.029624 0.270086 -0.170990 -0.098609 -0.645891 0.360896 0.195201 -0.539617 -0.568629 0.033953 0.173102 0.166824 0.643935 -0.763002 -0.198519 -0.046824 0.170796 0.432265 -0.319627 0.043580 -0.265417 0.333275 -0.350029 0.384734 -0.095618 -0.476399 -0.345165 0.069006 -0.789131 -0.798808 -1.052609 -0.605580 -0.183486 -0.359411 0.222965 0.295584 -0.785852 -0.200986 -0.212019 -1.200337 -0.482370 -0.421235 0.511839 -0.250735 -0.026701 -0.767032 0.570266 -1.130389 -0.072223 0.284255 -0.880261 0.186651 -0.262345 0.619387 -0.186451 0.350335 -0.033211 0.003791 -0.122759 0.610735 0.032460 -0.228089 -0.230139 0.461039 0.591955 -0.619194 0.610325 -0.521952 0.115796 0.242090 -0.534862 0.326491 -0.648481 0.426468 0.022217 0.609946 0.054494 -0.145499 -0.252565 0.156530 0.254932 -0.126462 -0.854686 0.745992 0.281945 -0.632923 -0.045343 0.128671 0.104836 -0.019070 0.641314 -0.167905 -0.757840 0.814253 -0.190841 1.484969 0.693476 -0.497031 -0.232191 0.366915 0.263027 0.449857 -0.389712 -0.485757 -0.444213 0.255417 -0.347132 0.256705 -0.205822 -1.010900 -0.353049 -0.704353 0.235712 -0.383488 0.152956 -0.142703 0.892630 0.522166 0.372861 0.427516 -0.457403 -1.189520 0.234446 -0.437004 0.311547 0.314442 0.653101 -0.002617 0.860173 -0.542372 -0.378683 -0.465925 0.614813 0.776680 0.096052 0.378482 -0.747039 0.261340 0.239895 -0.023514 -0.223347 0.188411 -0.749190 
lar -0.047032 0.372105 0.111058 0.173129 0.252558 -0.169528 0.105788 -0.100957 -0.272221 -0.210943 -0.062640 0.013518 -0.408899 -0.245276 -0.366979 0.265670 0.249342 -0.003124 0.206239 -0.049295 0.012361 0.484912 0.092397 0.248878 -0.223884 0.342750 -0.184388 -0.160512 0.223456 0.082707 0.345101 0.040085 0.160615 0.233091 -0.316665 -0.495158 0.079438 0.441973 -0.057143 -0.268199 0.232503 0.459327 -0.090111 -0.008038 0.208779 0.256776 0.281605 -0.460862 -0.071873 -0.378472 -0.012989 -0.279224 0.170522 -0.137486 -0.177188 -0.071492 -0.275967 -0.017320 -0.140455 -0.071107 -0.049919 -0.147580 0.190053 0.216489 0.084667 -0.237554 -0.015429 0.041043 -0.066339 -0.427635 0.217471 0.026452 0.175565 -0.427738 -0.291337 0.128947 -0.262065 0.243248 -0.357733 -0.436141 0.113432 -0.308835 0.020200 -0.155452 0.256686 0.092587 -0.262240 0.368005 0.031076 -0.204205 0.255863 -0.136592 0.042625 0.165608 0.229906 0.225108 0.124419 -0.175083 0.192559 -0.083130 -0.379159 -0.281630 0.093777 0.515581 0.045304 0.412580 -0.207524 -0.185045 -0.090617 0.097902 -0.021030 0.346566 0.144796 0.122400 0.108744 0.038883 0.039176 -0.196197 -0.172945 0.209071 -0.176582 -0.007683 0.103443 -0.055194 0.070301 0.011560 0.430645 -0.007416 -0.115478 -0.023803 -0.100648 -0.095939 -0.077799 0.093348 0.207105 -0.047536 0.255232 -0.302847 0.264247 -0.052728 0.021317 0.089233 0.071205 -0.117058 0.051875 -0.081323 0.308773 -0.126389 -0.500530 -0.402624 -0.142791 0.091289 -0.096664 0.300117 -0.165906 -0.467083 -0.115938 -0.031593 0.255923 -0.189477 -0.052084 0.105369 -0.122427 0.161751 0.092941 0.053387 -0.117020 0.292137 -0.194463 0.288091 -0.187724 -0.206279 0.251589 0.226080 -0.055894 0.044341 -0.039743 -0.076580 -0.256226 -0.026570 -0.036717 0.530109 0.392352 -0.024826 0.236136 0.076493 0.525248 -0.010195 0.018753 0.130501 -0.132981 -0.231414 -0.171770 -0.114408 -0.285262 -0.117414 -0.320096 -0.455202 -0.095412 -0.118226 
lan -0.425797 -0.215966 -0.104196 -0.096998 0.262863 -0.089171 -0.038061 -0.096591 -0.133084 -0.046608 -0.181858 0.128096 -0.142915 -0.451162 -0.316426 0.110431 0.313000 -0.107964 0.124027 -0.174961 -0.281318 0.127473 -0.179374 -0.030836 -0.229947 0.235996 0.123731 0.058774 0.207246 0.120105 0.188122 0.342868 0.095788 0.017791 -0.013910 -0.305807 0.031386 0.144971 -0.197026 0.076119 0.304166 0.204650 0.084657 -0.108404 0.045461 0.306750 -0.099506 0.114664 -0.774045 -0.219473 -0.027859 -0.136826 -0.178462 0.086362 -0.086896 0.104432 -0.248330 -0.182175 -0.130106 0.018853 0.103654 -0.222028 -0.038312 0.137329 -0.056927 -0.075888 0.080408 -0.277295 0.034325 -0.103208 0.430505 -0.090584 0.061602 -0.300011 -0.246115 -0.238322 -0.184796 -0.117000 0.003077 -0.445844 0.102467 -0.143905 0.074492 0.023836 -0.198566 -0.155200 -0.155684 -0.243055 -0.018559 -0.100928 0.089108 0.134201 0.195703 -0.145968 -0.190970 0.112184 -0.165799 0.073827 0.031168 -0.207316 -0.171586 -0.138508 -0.216827 0.285900 -0.083919 0.020411 -0.150969 -0.084876 0.038213 -0.055832 -0.114919 0.072389 0.338880 -0.124966 0.093676 0.367587 0.225009 -0.388771 -0.165291 0.158202 0.005248 0.070467 -0.182566 -0.092888 -0.075101 0.079068 0.121068 -0.374750 -0.056957 0.105936 -0.076773 -0.283182 -0.245522 -0.019187 0.153245 0.188189 0.319263 -0.040438 0.273786 -0.282389 0.025731 0.371895 -0.210182 -0.150940 0.170943 0.109740 0.555208 0.060160 -0.183892 -0.288705 0.116927 0.002530 0.095650 0.248426 -0.014916 -0.149865 -0.035374 -0.170673 0.179777 -0.140190 -0.092068 0.018720 -0.164154 -0.121752 0.017392 0.044326 -0.314024 -0.078778 -0.046255 0.160670 0.104689 0.183587 0.010866 0.053876 -0.063864 -0.050933 0.012164 -0.241558 -0.362879 -0.039220 -0.221762 0.367833 0.142989 0.013148 0.104256 0.012558 0.141901 0.197428 -0.075956 0.154345 -0.127450 -0.258126 0.124884 -0.405476 0.007557 -0.003945 -0.220638 -0.442008 0.097622 0.109589 
bu -0.152426 -0.106683 -0.029765 -0.186236 0.057931 -0.037151 -0.273958 0.033802 0.016431 0.179855 -0.197074 0.104942 0.151416 -0.153378 -0.027493 -0.084584 -0.093594 0.056882 -0.125954 -0.060790 -0.270976 -0.140725 -0.162036 -0.202773 0.060545 -0.197405 -0.075599 0.134706 0.267974 0.019586 0.229350 -0.254889 -0.046715 -0.042003 0.241088 -0.156789 -0.128250 -0.264183 0.137244 0.167050 0.126682 0.240247 0.107372 -0.056156 0.283693 0.122807 -0.296581 -0.084266 -0.617262 0.009651 -0.050198 -0.263304 0.018059 0.230541 0.131799 0.087307 -0.005099 0.079193 0.118486 0.001869 0.102159 0.017445 -0.076976 -0.059631 0.197415 0.310100 0.162409 -0.229906 0.154100 0.405065 0.043928 -0.151235 0.260022 -0.094446 0.000961 0.037021 0.011184 -0.357282 0.073434 -0.158939 0.032567 -0.062296 0.138113 -0.008416 -0.335654 -0.167358 -0.055359 -0.310355 -0.180649 -0.243473 0.022430 0.207869 0.096813 -0.461284 -0.375684 0.094228 0.369396 0.135587 -0.012796 0.209221 -0.031675 0.073044 -0.199325 -0.385170 -0.153228 -0.009232 0.113193 0.049421 -0.336183 0.215321 0.057715 -0.068777 -0.071669 -0.045212 0.152363 0.132160 0.055767 -0.050986 0.200882 -0.141653 0.336431 0.026189 -0.214177 -0.094681 0.057173 -0.084015 0.028471 0.160045 -0.227451 -0.113742 0.019341 0.067925 -0.401589 -0.094575 0.037503 0.242778 0.153230 -0.106492 -0.072313 0.121123 0.082238 0.165915 -0.399114 0.304838 -0.093366 0.140644 0.147159 0.211200 -0.348759 -0.270913 0.005998 -0.318605 -0.163540 0.023534 0.053007 0.043207 -0.156000 -0.176697 0.080838 0.056684 -0.088016 -0.226575 0.128258 -0.229562 0.063389 -0.030835 0.066115 -0.184249 -0.105345 -0.000623 0.092433 0.155908 0.007895 -0.321893 0.023002 0.002326 -0.048377 -0.120446 -0.037755 -0.282724 -0.049161 0.023130 0.163079 0.009351 -0.191452 0.034068 0.154825 -0.061280 0.249031 0.296184 0.241486 -0.152760 0.020524 -0.285988 0.102248 -0.033592 0.004920 0.314173 -0.097022 0.328001 
ha 0.086744 0.250444 -0.190367 -0.390229 0.088482 0.024054 0.175420 0.520450 0.559480 0.128530 -0.333856 0.125124 0.022265 0.573833 -0.334525 -0.119192 0.014015 0.396588 0.198077 0.205519 -0.352212 0.073853 0.057207 0.106755 -0.480410 0.161739 -0.310456 0.423393 0.199671 0.016439 -0.240952 -0.273418 -0.330618 0.203859 0.105389 -0.043531 -0.184990 0.089720 0.511487 0.090327 0.150257 -0.061755 0.220085 0.217320 0.712430 -0.211632 -0.016164 0.050782 -0.589691 0.049291 -0.359278 -0.362285 0.063591 0.313238 -0.248204 -0.523516 0.505209 -0.117894 0.465714 -0.558262 0.108671 -0.236180 -0.077191 0.419410 0.184282 -0.081956 0.221642 -0.041802 -0.296355 0.262256 0.616844 0.265415 0.035623 0.036511 0.107637 0.183128 -0.100247 -0.044902 -0.032515 0.108326 0.117295 -0.516888 0.364244 0.065777 -0.036649 -0.355067 0.537808 0.052887 0.167540 -0.032808 0.445156 -0.185076 -0.424670 0.467648 0.270424 0.208846 0.842756 0.115227 -0.157457 -0.174593 -0.124264 0.015265 -0.442513 -0.119490 0.252186 0.265370 -0.063197 0.126868 -0.533944 -0.093979 0.168331 0.029333 -0.308802 -0.132198 0.075854 0.172709 0.134082 0.137103 0.360081 -0.020264 -0.137200 0.014070 -0.146770 -0.239571 -0.353277 -0.121346 -0.231258 0.165114 -0.349032 0.070547 0.134207 -0.164472 -0.219294 0.321238 0.038478 -0.283913 -0.007373 -0.026697 0.246693 -0.206118 -0.501511 -0.002250 -0.089695 0.047716 -0.044399 0.664519 -0.320771 0.051106 -0.236435 0.155649 -0.316338 -0.200548 -0.358041 0.345038 0.052280 -0.226235 -0.079961 -0.289409 -0.037557 0.308417 0.105195 -0.164216 0.194054 -0.109065 -0.289274 -0.083007 0.578774 0.318613 0.267425 0.143660 0.391210 0.121285 0.161931 -0.231785 -0.009141 0.149011 0.213273 0.028347 -0.418478 -0.367927 -0.162466 -0.222203 0.141147 0.184847 -0.187340 0.058718 -0.304568 0.131148 -0.147541 0.456164 -0.035735 -0.162829 -0.151973 -0.187458 -0.163463 -0.463622 -0.180657 0.469053 -0.056321 -0.162362 
si -0.152301 0.015817 0.062516 -0.090424 0.272777 -0.108184 -0.091812 0.095684 -0.204459 0.014995 -0.207459 0.242338 -0.089926 -0.136311 -0.285278 -0.241543 0.183751 0.279586 -0.073633 -0.093793 -0.431514 0.264591 -0.010294 -0.019971 -0.204891 0.176087 0.025128 0.133442 0.234934 -0.027328 0.202566 0.117538 -0.013713 0.061160 -0.007108 -0.293066 -0.111034 0.252233 0.042166 -0.003395 0.312117 0.281433 0.010009 -0.113862 0.001310 0.166825 -0.186530 -0.240361 -0.196416 -0.245350 -0.067438 -0.249335 0.101137 0.035942 -0.001658 -0.215458 -0.114773 -0.034241 0.092498 -0.185029 0.236671 -0.263621 -0.146826 0.236806 -0.107336 0.031756 0.225598 -0.321882 -0.069706 0.018751 0.027712 0.023937 -0.060382 -0.107476 -0.015900 -0.006048 0.024651 -0.337329 -0.160692 -0.338446 0.317374 -0.134608 0.157291 -0.071642 -0.011493 -0.078680 0.024251 -0.002128 -0.044669 -0.286377 0.004793 -0.087452 0.032736 -0.046910 -0.098495 0.220568 0.088692 -0.023861 0.017601 0.000205 -0.097625 0.071600 -0.286582 0.202973 0.037859 0.316812 -0.068382 0.284207 -0.169406 0.230042 -0.026077 0.130991 0.053946 -0.003175 0.094470 0.290346 0.221634 -0.375688 0.123707 0.041469 0.062268 -0.183612 0.036782 -0.354207 0.165351 0.066511 0.186171 -0.170697 -0.260216 -0.031014 0.023086 -0.193688 -0.490721 0.047780 0.052505 0.110989 0.260169 -0.315049 0.354707 -0.344567 0.043987 0.082173 -0.141930 0.002599 0.009571 0.064877 0.199434 0.098208 -0.391965 -0.019330 -0.195276 -0.229745 -0.226538 0.187597 -0.117938 -0.081307 -0.208655 -0.087969 0.037849 0.040536 -0.122466 -0.127762 0.112607 -0.029565 -0.104311 0.099617 0.094457 0.093171 -0.096019 0.076019 0.219963 -0.026369 -0.001322 -0.144586 -0.066521 0.272083 0.278134 -0.270286 -0.266729 -0.503934 0.026317 0.470242 0.414570 0.118743 0.018275 0.022779 0.060469 0.116491 -0.146925 0.255461 -0.099915 -0.177766 0.115754 -0.213107 -0.088698 -0.331384 -0.145820 -0.014297 0.094134 -0.026346 
e -0.203689 0.520674 0.611424 -0.065511 0.224977 -0.190417 -0.294430 -0.057655 -0.410324 -0.174157 -0.211657 -0.014151 -0.609894 0.072618 -0.241668 -0.095602 0.555353 0.893614 0.411788 0.055976 0.226585 0.508152 0.233683 0.129333 -0.139328 0.223758 -0.292709 -0.235274 0.254544 0.305578 0.318032 0.320253 0.131286 -0.232233 -0.075541 0.097743 -0.484506 0.144857 -0.466344 -0.446068 0.319514 0.329536 -0.179142 -0.182722 0.647663 0.313972 0.402162 -0.633997 1.576512 -0.096529 -0.308929 0.070337 0.703846 0.112349 -0.230616 -0.342462 -0.121441 -0.143495 0.336244 -0.272807 0.251970 -0.278144 0.017426 -0.034259 0.267289 -0.188894 0.328567 0.277447 -0.240486 -0.058996 -0.191414 -0.014786 -0.121015 -0.112281 0.425555 0.118887 -0.360534 -0.071857 -0.229245 0.301763 0.325902 -0.063034 -0.227273 -0.171575 -0.197505 -0.159467 -0.654191 -0.050483 -0.253569 -0.001877 0.142034 -0.406655 0.221345 0.240732 0.440229 0.284858 0.571989 -0.423397 -0.007008 0.008342 -0.336448 -0.046699 -0.108887 0.227479 -0.002666 0.133439 -0.203820 -0.123926 0.344280 0.191934 0.281178 -0.007762 -0.218434 -0.429928 -0.213939 -0.353128 0.123635 0.033662 -0.067670 0.178546 0.047484 -0.145401 -0.046065 -0.077891 0.093512 -0.073164 0.212526 0.188462 0.221801 -0.215339 0.086918 0.430649 0.077355 0.228421 -0.085779 -0.014270 0.221211 -0.126518 -0.124032 -0.089159 -0.147121 -0.426277 -0.628071 0.319790 -0.400973 -0.089457 0.057657 -0.228524 -0.782535 -0.321515 -0.002135 -0.013956 -0.093760 0.590242 -0.336937 -0.391603 -0.062723 -0.124098 0.065575 0.136976 -0.017928 -0.076279 0.185755 -0.143161 -0.077190 -0.067066 0.262119 0.263289 -0.373280 0.301750 0.115233 0.531017 0.554390 0.389898 -0.082108 0.314087 0.203459 0.151762 -0.226724 0.112635 0.261057 0.272179 0.619247 0.447040 0.612460 0.329107 0.319235 -0.251859 -0.093560 0.697120 0.413836 0.007247 -0.455186 -0.216702 -0.133959 -0.023496 -0.458611 0.139832 0.171780 -0.372402 
sa 0.223868 0.225345 0.091726 -0.309583 0.061802 0.029567 -0.245355 -0.187459 0.235140 -0.278927 -0.342834 -0.130889 0.233205 0.143230 -0.088503 -0.147821 -0.020605 0.357529 -0.058578 -0.205902 -0.352081 0.054375 0.034903 -0.106446 0.029805 -0.048977 0.064203 -0.093108 -0.060220 0.135589 0.150943 -0.302190 -0.350992 -0.296712 0.288171 -0.191325 -0.287548 -0.249716 0.180365 0.230457 0.233284 0.079359 0.176694 -0.146619 0.311580 -0.132021 -0.217328 0.416010 -0.850721 0.019999 0.005665 -0.398804 -0.103678 0.232901 0.006702 -0.057323 0.068337 0.066981 0.369063 -0.032785 0.267386 0.041758 -0.273568 -0.034012 0.020407 0.162190 0.229399 -0.165178 0.065908 0.274013 0.210632 -0.054753 0.078175 -0.009713 0.081989 0.031759 -0.005384 -0.124906 0.161630 -0.406396 -0.015863 0.099102 -0.189681 0.162520 -0.188763 -0.261404 -0.154990 -0.306828 -0.292584 -0.394531 0.063650 0.040368 -0.034704 -0.350725 -0.227028 -0.217907 0.825374 -0.182730 -0.191961 0.273127 0.209165 0.167787 -0.206141 -0.302377 -0.225828 0.255131 0.300625 0.159682 -0.296780 0.280572 0.055915 0.083819 -0.148519 0.179142 0.201409 0.102841 0.077059 -0.138654 0.299759 -0.065705 0.454695 -0.049714 -0.189179 -0.024119 0.054722 0.086173 -0.075935 0.341061 -0.111989 -0.360734 0.309551 -0.206005 -0.217112 0.029845 0.309726 0.061841 0.069432 -0.354233 -0.130620 0.148964 -0.053645 -0.128054 -0.333436 0.308635 -0.205260 0.208395 -0.123076 0.156587 -0.088700 0.161407 0.105409 -0.158534 -0.113975 -0.100319 0.032437 0.170421 -0.100927 -0.139958 0.152029 0.122762 -0.122533 -0.212727 0.014357 -0.084458 0.019338 -0.188781 0.138545 -0.143121 -0.136047 -0.042635 0.070550 0.023313 0.182908 -0.163833 0.194737 0.102479 0.030732 -0.348957 0.033540 -0.257264 -0.238820 0.193088 0.066907 0.284885 -0.126153 0.150607 0.043443 -0.098381 0.253513 0.100937 0.238958 0.031289 0.143013 -0.123149 -0.146627 0.029311 0.120699 0.436405 -0.120796 -0.001246 
ye 0.081782 0.412411 -0.154016 0.413836 0.118015 -0.033216 -0.392473 -0.130589 -0.210653 -0.171774 -0.351953 0.100280 0.278523 -0.321921 -0.746167 -0.043023 0.185177 -0.076012 -0.063397 -0.480600 -0.138495 0.144432 0.295848 -0.033378 0.343227 0.280897 -0.084710 -0.113329 -0.095348 0.113287 0.596741 0.339609 -0.050776 -0.116198 0.218712 0.184407 -0.561662 0.153110 -0.331711 0.408571 0.176626 0.830325 0.035714 0.313464 -0.129483 0.226634 0.398200 0.034405 -0.531266 -0.140092 0.019321 -0.362838 -0.352618 0.651131 -0.005743 -0.145729 -0.395488 -0.109863 0.255278 0.148761 -0.017165 -0.390360 0.061788 -0.039188 -0.317622 -0.173536 0.137525 -0.214568 0.094147 0.511636 0.211591 -0.299881 0.175625 0.037547 0.066167 -0.055397 0.057019 0.214515 0.048429 -0.647360 0.294809 -0.524412 -0.148381 0.049541 -0.194938 -0.257437 -0.167063 -0.173062 0.017142 -0.887853 -0.153524 0.105385 -0.328414 -0.557343 -0.547314 -0.178551 -0.124267 -0.420396 -0.041568 0.304062 0.218931 0.053143 -0.490312 0.259551 -0.925973 0.167087 -0.206671 -0.552009 -0.246173 0.420113 0.410394 0.137324 0.052436 0.047361 -0.074529 -0.195441 0.246762 -0.309219 -0.311082 -0.168838 0.402746 -0.053022 -0.011272 0.358026 -0.316951 0.143360 0.098755 -0.373821 0.306463 -0.023489 -0.017853 0.045230 0.040925 0.115153 0.092760 0.121452 0.324241 -0.241016 -0.142717 -0.559882 0.172082 -0.154428 -0.225896 0.008326 -0.300022 -0.328054 0.060178 0.144707 -0.389252 -0.311782 0.199924 -0.162393 0.706228 0.074189 -0.507292 -0.277640 -0.258471 -0.165034 0.355536 -0.219548 -0.517154 -0.317152 0.274212 0.097927 0.021862 0.052362 -0.430780 0.216680 -0.119963 0.162004 -0.098827 0.281692 0.020761 0.395476 0.257013 0.221702 0.314311 -0.162518 -0.427149 -0.256256 0.376815 0.926766 0.413589 0.315554 -0.160480 0.037834 0.122836 -0.134067 -0.115615 0.546529 0.588488 -0.189085 0.167506 -0.367595 -0.028136 -0.247708 -0.292365 -0.114565 -0.098026 -0.554339 
lı -0.130829 -0.028845 0.039768 -0.580699 -0.478317 0.038470 0.036368 0.221695 0.395466 0.364294 -0.584833 -0.110600 -0.678032 0.211746 0.074576 -0.268895 -0.031609 0.529180 0.309276 0.465887 0.135098 -0.128093 0.056863 -0.119581 -0.432207 0.014031 -0.161495 0.213889 -0.079872 0.412953 0.261205 -0.020554 -0.015672 -0.206662 0.173605 -0.310098 0.157108 -0.033322 0.311848 -0.136411 0.161666 -0.035907 -0.145267 0.007352 0.452886 0.186962 0.347406 -0.383606 0.125683 -0.045717 0.207708 -0.064891 0.442553 0.238777 -0.535368 -0.051376 0.157200 -0.013123 0.071183 -0.364799 -0.052275 0.061951 0.296416 -0.057847 0.008093 -0.179340 -0.134203 0.634351 -0.194091 -0.153806 -0.069727 -0.063622 0.228763 -0.173222 0.222856 0.043226 -0.388006 -0.075627 -0.284168 0.253532 0.086712 -0.199350 0.215505 -0.372636 0.052629 0.065324 -0.090535 0.165622 -0.263129 0.618531 0.016943 -0.219198 0.623374 0.217891 0.286206 0.262960 0.297600 0.184941 -0.278277 0.183484 -0.030665 -0.360106 -0.193014 -0.196991 -0.139011 0.270302 0.233502 -0.597023 -0.361734 -0.196854 0.393447 -0.256042 -0.209475 -0.187405 0.122968 -0.248187 0.206595 0.346968 0.013485 -0.073514 -0.108190 0.289628 -0.385888 0.082152 -0.385578 0.092513 0.224342 0.272196 -0.097274 -0.287255 0.162976 0.198503 0.192999 -0.119923 -0.052220 -0.193721 -0.224663 0.313323 0.116619 -0.098138 0.053496 0.173413 -0.037679 0.181705 0.138494 0.123344 -0.143027 0.199510 -0.322777 -0.666990 -0.066943 -0.206641 0.156386 0.503526 -0.210856 -0.264899 0.091106 0.255959 0.029222 0.274083 0.295132 -0.027867 0.115036 -0.066395 0.121040 -0.157258 0.304901 0.185274 -0.050296 0.363084 -0.170645 -0.033983 0.075887 0.187630 0.497180 0.284136 0.048027 -0.152600 -0.371195 0.330119 -0.366354 -0.478061 0.177598 0.123832 0.077357 0.121539 -0.222255 -0.231934 0.026689 -0.123165 0.131559 0.326626 -0.094412 0.114832 0.144422 -0.019282 -0.114088 0.083723 -0.146734 -0.051281 
nın -0.408688 -0.150985 0.180229 -0.786669 0.138285 -0.044850 -0.292323 0.090792 0.187588 0.026885 -0.410168 -0.008430 0.151863 0.359671 -0.096832 -0.339126 -0.130557 0.496456 -0.064672 0.082256 -0.407929 -0.227053 -0.313620 -0.130206 -0.561803 0.149902 0.286618 0.421358 -0.028190 0.101601 0.124169 -0.153911 -0.205160 -0.007942 0.326659 -0.347720 -0.121268 -0.480243 0.241228 0.326222 0.081067 -0.263287 0.226154 -0.403799 0.201164 0.041098 -0.403955 0.314126 -0.670403 0.072686 -0.083859 -0.330422 -0.024938 0.083039 -0.037480 -0.053432 0.162034 -0.181565 0.275686 0.007640 0.207892 0.059587 -0.400999 0.189539 -0.059582 0.153846 0.093019 -0.243285 -0.078489 0.445899 0.180279 0.016885 0.043074 0.028740 0.155108 -0.009837 -0.102456 -0.421242 0.118309 0.175504 -0.029833 0.271202 -0.024867 0.078480 -0.172371 -0.382887 -0.093974 -0.572408 -0.480294 0.243675 0.012217 0.179645 0.005039 -0.250692 0.051345 0.171849 0.374865 0.290259 -0.315581 0.022935 -0.084768 0.111519 -0.258724 -0.339166 0.059216 -0.003361 0.290848 0.408958 -0.216000 0.016605 -0.128733 0.015796 -0.051051 -0.158063 0.189565 0.495877 0.239668 -0.055504 0.443575 -0.006587 0.241105 0.149323 -0.312264 -0.147849 0.179651 -0.211219 -0.339733 0.277784 -0.330698 -0.302153 0.006231 -0.544308 -0.403310 0.191699 0.359478 -0.037512 0.099797 -0.144794 0.259827 0.110748 0.058608 0.165670 -0.607741 0.393049 0.023697 0.319920 0.023835 0.159459 -0.193044 0.129906 0.113542 -0.287061 -0.306537 0.085636 -0.077928 0.102064 0.341789 -0.062484 -0.034022 0.053992 0.002495 -0.086949 0.098984 -0.470416 -0.192677 -0.066302 0.226806 -0.345036 -0.247706 -0.170485 0.348673 -0.144167 -0.028949 -0.276618 -0.090400 0.039424 0.054354 -0.230758 -0.349351 -0.298150 -0.538022 -0.346660 0.188196 0.144344 -0.186333 0.129948 -0.475182 0.051720 -0.134256 0.139190 0.080412 -0.044957 0.345434 -0.099788 0.044998 0.277413 0.164418 0.486533 0.064542 0.067403 
bi 0.086232 0.059561 0.211273 0.203463 0.386534 -0.027137 -0.357553 -0.155893 0.080354 -0.113713 -0.009245 0.221767 -0.218766 0.163138 0.126217 -0.010704 0.160138 0.651987 0.054577 -0.265574 -0.039907 0.033543 -0.087268 0.020611 -0.095588 -0.075814 -0.053603 -0.012459 -0.197296 0.132654 0.540373 0.082503 0.229728 0.039688 0.174956 -0.312843 -0.110819 -0.142921 -0.415921 0.176850 0.311274 0.058559 -0.039779 0.032744 0.033863 0.002453 -0.077976 -0.408880 0.766150 -0.374333 -0.085147 0.061862 0.310920 0.170125 -0.000149 -0.317189 -0.381444 0.158318 0.179073 0.037640 -0.104177 -0.117760 0.140654 0.357342 0.047774 -0.090995 0.207820 -0.005405 0.214256 -0.097413 0.596676 0.100628 0.011178 -0.248125 0.012392 0.167437 -0.405094 0.017673 -0.287607 -0.060336 0.219777 0.311980 -0.222805 0.187804 -0.330988 -0.161657 -0.160372 -0.245370 -0.286845 -0.254100 -0.013453 -0.092283 0.193956 0.134814 0.165070 0.137095 -0.135464 -0.485545 -0.038595 -0.042947 -0.102063 -0.001715 -0.093652 -0.120346 -0.101617 0.019267 0.047149 -0.089239 0.038155 0.130624 0.015617 0.016314 -0.328843 -0.314177 -0.058849 -0.099710 -0.044277 -0.103833 0.137645 -0.032068 0.081703 -0.160399 -0.089660 0.156009 -0.135318 0.046684 0.135446 0.097411 0.068421 -0.304773 -0.059324 -0.000715 -0.058323 0.135455 0.252106 -0.074960 -0.109781 -0.393160 -0.102410 -0.020123 0.039831 -0.392117 -0.179360 0.273299 -0.031193 -0.170996 0.019450 0.431431 -0.295351 -0.276611 0.203177 0.021055 0.210656 0.026587 -0.076143 0.159691 -0.094163 -0.186013 -0.137705 -0.142768 -0.048420 -0.019101 0.032474 0.016265 0.171721 0.116632 0.064467 -0.147665 -0.138829 -0.033048 -0.319560 0.165935 0.399945 0.182417 0.274024 0.257129 0.336008 -0.129362 0.172520 0.049182 -0.068719 0.163513 0.223423 0.201921 0.261200 0.436020 0.200068 0.066821 0.123899 -0.047428 -0.089510 0.018550 0.003807 -0.051439 0.000030 0.043140 0.067362 0.229035 -0.064475 -0.144204 
rin 0.562737 0.364476 -0.110347 0.149729 0.059947 0.000129 0.149506 -0.012204 0.182278 -0.194008 -0.099530 -0.090116 -0.164716 0.307766 0.215887 0.152556 0.183072 0.546562 -0.249912 0.061808 -0.243491 0.447824 0.085989 0.259975 -0.186474 -0.219062 -0.271123 -0.239846 0.080912 -0.035884 0.288165 -0.199801 0.118303 0.244936 -0.099223 -0.091963 0.100626 0.245703 0.081925 0.385437 0.228179 0.048533 0.262813 0.004398 0.062957 -0.096314 -0.237214 -0.273376 0.834051 -0.216124 -0.065094 -0.156540 0.300469 -0.018504 0.071122 -0.280234 -0.297320 0.367209 0.100996 -0.281601 -0.210498 -0.184872 -0.065525 0.409976 -0.019038 -0.028194 0.166844 -0.124810 -0.025328 -0.159480 0.397047 0.497836 -0.053367 -0.148279 0.157790 0.183684 -0.164570 -0.348213 -0.083896 -0.042289 0.396157 0.087940 -0.237745 0.189377 -0.235178 0.043313 0.510894 0.132318 0.216537 -0.506490 0.136097 -0.155225 0.006075 0.071245 0.042268 0.060099 0.603384 -0.250412 0.125227 -0.151727 -0.001862 0.043987 0.086134 -0.048555 -0.144660 0.373208 0.008037 0.042387 -0.101098 0.382681 -0.107712 0.275384 -0.252999 0.048978 -0.038648 0.193715 -0.220471 0.032181 0.475666 0.122033 0.287110 -0.111983 -0.022637 -0.217430 -0.166546 -0.021040 0.214679 0.031885 -0.243023 0.082411 -0.030130 0.200879 -0.144555 -0.063127 0.041640 -0.055627 -0.133521 -0.486047 0.070969 0.254200 -0.270454 -0.159381 0.053169 0.295258 -0.222809 0.113518 -0.161054 0.123143 -0.250815 -0.371788 -0.480278 -0.050233 -0.224456 -0.144684 -0.066290 0.000151 -0.269213 -0.335469 -0.041708 0.063197 0.404773 -0.163101 0.156599 -0.073698 0.203664 0.434822 0.212990 -0.095171 0.023175 0.127303 -0.189805 -0.022573 0.344129 0.001208 -0.187195 0.170189 0.131092 0.034212 0.327691 -0.155473 -0.200417 -0.113969 0.300079 -0.089251 -0.159067 0.243316 0.305208 -0.100776 0.252439 0.121223 -0.239219 -0.226238 -0.367291 0.447112 -0.250851 -0.243459 -0.156857 0.464924 -0.198368 -0.099038 
ke -0.614412 -0.638990 0.031062 -0.506454 -0.348623 -0.037055 -0.692982 -0.069741 0.078068 0.542084 -0.289753 0.225182 0.239414 0.375222 -0.134825 -0.620425 0.408292 0.935189 -0.325374 0.344549 -0.616703 -0.410477 -0.073955 -0.321677 -0.134803 -0.021491 0.225773 0.380862 0.183906 0.258929 -0.247097 0.548613 0.065378 -0.548440 0.229359 0.161000 -0.385461 -0.480988 -0.524517 0.570289 0.313887 -0.022946 -0.321164 0.010430 0.093928 0.075038 -0.397172 -0.064395 0.704403 0.203483 0.168690 0.088499 0.084127 0.336018 -0.235067 -0.150889 -0.035696 -0.465043 0.262003 0.181551 0.597496 -0.208729 -0.407328 -0.281010 -0.009607 0.475313 -0.058256 -0.458757 -0.368337 0.566697 -0.150802 -0.218562 -0.234294 0.631198 0.498231 -0.821714 0.213456 -0.923054 0.410927 0.241376 0.338783 0.415922 -0.533118 0.431580 -0.193245 -0.808568 -0.189097 -0.802641 -0.092387 -0.097035 -0.170125 0.194110 0.098072 -0.684797 -0.884360 -0.052061 -0.337772 0.429653 0.049820 0.299255 0.330413 0.399381 -0.558092 -0.144003 -0.486160 -0.201421 0.142706 -0.048172 0.023188 0.252438 0.403138 -0.199845 0.116118 -0.305075 -0.012733 -0.049743 0.294814 -0.390971 0.591092 0.095045 0.458591 -0.336832 -0.306119 -0.030295 -0.178038 -0.144092 -0.234455 -0.599120 0.333568 0.257688 -0.201651 0.156266 -0.285890 0.061498 -0.150660 0.312794 0.062362 -0.194027 -0.000165 -0.398576 0.302383 -0.083989 -0.908335 0.189767 -0.241152 -0.034044 0.166452 0.061273 -0.227482 0.131138 -0.028344 -0.640019 0.295457 0.119449 -0.430565 0.086793 0.155510 -0.195129 0.012184 0.330265 -0.340787 -0.486160 0.365271 -0.292877 -0.032544 0.363348 -0.210049 -0.476101 -0.719920 -0.326782 0.594844 0.326667 -0.418549 -0.173160 0.228263 0.260339 0.658397 -0.340561 -0.178122 -0.243476 0.341981 0.342130 -0.132995 0.428574 0.107901 0.021223 -0.519543 0.027081 -0.627224 0.628260 0.509716 0.109815 0.159399 -0.093121 0.451288 0.043567 -0.429705 0.523026 0.106739 -0.029448 
den -0.127825 -0.017608 -0.080129 -0.089605 0.191733 -0.099795 -0.357556 -0.099314 -0.228455 -0.093433 -0.182084 0.016002 -0.092500 0.131328 -0.136474 -0.181095 0.567566 0.645417 -0.192361 0.099538 -0.499301 0.333053 0.012283 0.152379 -0.360445 0.122776 0.320546 0.217663 0.031980 -0.052898 0.083423 0.600373 0.246598 0.286904 -0.120427 -0.111091 -0.075691 -0.108676 -0.519342 0.314142 0.213167 0.191842 -0.258322 -0.094383 -0.379611 -0.025113 -0.171746 -0.013369 0.995363 -0.110821 0.120934 -0.103226 0.133448 -0.041282 0.022864 -0.159284 -0.478622 0.034723 0.242757 -0.112504 0.032201 -0.541109 -0.087435 0.399668 -0.141352 0.001871 0.250770 -0.398249 -0.190984 0.174582 -0.237905 0.300098 -0.323759 -0.012788 0.081429 0.013201 0.155076 -0.350251 0.039544 0.312550 0.549066 0.162114 -0.309296 0.249409 -0.012711 -0.384274 0.014430 -0.151592 0.106991 -0.425746 -0.148614 -0.117760 -0.021059 -0.058335 -0.003013 0.184604 -0.261612 -0.099907 -0.034125 -0.076964 -0.096137 0.061426 -0.237821 0.258541 -0.076869 0.094071 -0.021004 0.352845 0.313808 0.227169 -0.159480 0.240684 0.074716 -0.226965 0.083655 0.363819 0.052653 -0.290784 0.232266 0.199154 0.203802 -0.199777 -0.022151 -0.227858 0.036404 -0.016726 0.117599 -0.307372 -0.091500 -0.004476 -0.229508 -0.157407 -0.268483 0.362073 0.026092 0.154627 0.011276 -0.476496 0.347394 -0.332494 -0.031162 -0.083667 -0.516142 0.088069 0.082794 -0.016003 0.187236 0.393510 -0.215072 -0.075409 -0.039441 -0.050120 0.236237 0.279866 -0.181263 0.063728 -0.121468 -0.141515 -0.080407 -0.143794 0.109939 -0.093378 0.153786 -0.339752 -0.075451 0.477648 -0.197470 -0.150762 -0.302411 -0.054844 0.213768 0.133948 -0.017471 0.123396 -0.281567 0.302217 0.480809 -0.137055 -0.172807 -0.315120 -0.187025 0.103755 0.252774 0.117055 -0.045035 0.333572 -0.135953 0.092860 -0.421650 0.414408 -0.185724 -0.204046 0.051002 0.023473 0.217200 0.165035 -0.130997 0.087443 0.312584 -0.389130 
ol 0.295172 -0.018130 -0.082300 -0.280075 0.299961 0.104628 -0.392937 -0.439647 0.419463 -0.360369 -0.492115 -0.419274 0.319001 0.260281 -0.062652 -0.079183 0.170355 0.335619 -0.056244 -0.509997 -0.206146 -0.176209 -0.219572 -0.037882 -0.330081 0.066206 0.326368 0.063379 -0.430007 0.036674 0.328774 -0.238227 -0.200930 -0.181339 0.176267 -0.196356 -0.191730 -0.693672 0.043582 0.438045 0.139218 -0.075549 -0.034073 -0.081083 -0.027709 -0.043579 -0.099041 0.942809 -0.489792 0.052760 0.193201 -0.369848 -0.105589 0.206898 -0.116350 0.205237 -0.216360 0.355036 0.215796 -0.055154 -0.159939 0.057039 -0.109294 0.050061 -0.222608 -0.032222 0.244730 -0.037872 -0.002417 0.284761 0.588449 -0.232786 -0.125033 -0.064129 -0.117566 0.190641 0.183402 0.199955 0.145842 -0.168060 0.009442 0.238462 -0.366612 0.117151 -0.187748 -0.435437 -0.254977 -0.588155 -0.528050 -0.552469 -0.005936 0.129499 0.108586 -0.288247 -0.210971 -0.363080 0.465358 -0.346136 -0.271028 0.192331 -0.033523 -0.095121 -0.122553 -0.322010 -0.329126 -0.110018 0.242178 -0.071684 0.063643 0.050416 -0.188421 0.074242 -0.128812 0.064439 0.132127 0.237107 -0.119279 -0.056389 0.207994 -0.090800 0.509662 0.275034 -0.445980 0.321026 0.036831 0.161733 -0.115369 0.247171 -0.053784 -0.422412 0.187484 -0.273433 0.112379 0.071985 0.558051 -0.234966 -0.092331 -0.217892 -0.151745 0.291153 0.026463 -0.173038 -0.443590 0.358877 -0.062257 0.176794 -0.165839 0.615227 0.246244 -0.082360 0.427936 -0.091133 0.538446 -0.252202 0.109913 0.302367 0.215569 0.030666 0.223184 -0.259624 -0.133004 -0.272183 0.076404 -0.293968 0.047500 -0.059440 -0.262124 -0.255434 -0.199125 0.072997 -0.172841 0.012858 0.179742 0.028591 0.357681 -0.148313 0.044582 -0.544631 -0.185212 0.081748 -0.619365 -0.190054 -0.049659 0.322594 -0.081281 0.570503 -0.142631 -0.024270 0.175146 -0.087746 0.132320 0.297582 0.355289 -0.094035 0.084468 0.466296 0.535344 0.233769 -0.029287 -0.096806 
te 0.010302 -0.188305 0.006857 0.335380 0.081894 -0.318583 0.332913 0.547533 -0.063982 0.265498 0.116231 0.321318 -0.002580 0.241684 -0.124380 0.141726 -0.268900 -0.006291 -0.135652 0.173168 -0.046531 0.256726 -0.169054 0.094783 0.062787 -0.013415 -0.265872 0.110077 0.624820 -0.090735 0.176742 0.267770 0.392436 0.283835 -0.066755 -0.141117 0.084811 0.395784 -0.287529 0.121995 0.103756 0.396191 0.065342 0.275523 0.556271 -0.116574 -0.067638 -0.483415 -0.130094 -0.127079 -0.136169 0.090718 0.212489 0.189487 -0.318444 -0.501697 0.019719 0.034794 0.066544 0.069804 0.226432 0.180201 0.171190 0.412865 -0.136753 -0.068992 0.182908 0.062063 -0.225776 -0.082038 0.170121 -0.183526 0.010966 -0.204337 0.084792 -0.369641 -0.599846 -0.302429 -0.325212 0.018695 0.295901 -0.367177 0.282760 0.041490 -0.199689 -0.342209 0.638847 0.304117 0.249139 -0.032148 0.133711 -0.101687 -0.083201 0.268031 -0.166901 0.351418 -0.419070 0.051146 0.117360 -0.251999 0.094269 -0.006889 0.067840 0.207293 0.072729 0.248157 -0.314515 -0.341309 -0.021410 -0.224087 0.588426 0.060435 0.258861 -0.176913 -0.450771 -0.134765 -0.209583 0.130411 0.204964 -0.264922 -0.371087 -0.133223 -0.228041 0.150727 -0.482867 -0.173704 0.136379 -0.316680 0.068349 0.728689 -0.350205 0.360778 -0.169123 0.006665 -0.381380 -0.098208 -0.154626 -0.267795 0.266072 -0.569303 -0.213387 0.317436 0.403039 0.055236 0.079920 -0.063350 -0.016876 -0.031670 -0.567872 -0.000995 -0.609334 -0.495667 0.067856 0.363213 -0.373886 -0.268247 -0.221037 -0.374404 -0.255304 -0.150750 0.004457 -0.298592 0.214758 0.164019 0.145127 0.255987 0.274030 0.212640 0.110673 0.044537 -0.063539 -0.074227 0.012617 0.348067 -0.208156 0.363768 0.148105 0.376783 -0.445196 0.046003 0.260210 0.263203 -0.087974 0.024555 -0.365442 -0.024059 0.163680 0.131446 -0.169343 0.573537 -0.042864 -0.144544 -0.300238 0.008115 0.001126 -0.557905 -0.423284 0.107804 -0.123085 0.040702 
lu 0.146730 0.094864 -0.429584 -0.296861 -0.338667 0.025174 -0.033872 0.720875 0.778559 0.089061 -0.807988 -0.291433 0.039801 0.804227 0.237013 -0.433781 -0.267546 0.595164 -0.228488 0.874066 -0.649576 -0.154466 0.199831 -0.093863 -0.454416 -0.299155 -0.105251 0.887569 -0.278112 -0.243698 -0.183594 -0.008454 -0.174208 0.547290 0.397274 0.068305 0.134733 -0.479486 0.291259 0.611625 0.201802 -0.210329 0.178615 0.340621 0.493931 -0.720488 -0.092756 -0.140696 -0.823301 0.562290 0.459520 -0.270482 -0.502787 0.196664 -0.065557 -0.466199 0.614637 0.185074 0.392394 -0.471034 -0.251596 -0.737248 0.258569 0.308856 0.026661 0.032741 -0.139500 -0.084354 -0.117699 0.691945 -0.361283 0.600066 0.415694 0.381968 0.280940 0.209732 0.068912 -0.191236 0.470877 0.621592 0.194012 -0.465276 0.315159 0.001384 -0.073733 -0.537436 1.066835 0.176632 0.221166 -0.269379 0.013975 0.121204 -0.634462 -0.116176 -0.114577 0.087352 0.169856 0.319413 0.094251 0.164375 0.335399 -0.054485 -0.417602 -0.317433 -0.260327 0.188812 0.021421 0.096429 -0.493093 -0.152472 -0.201009 -0.100256 -0.397026 -0.497006 0.177925 -0.005934 0.098525 0.574840 0.603859 -0.640500 0.213100 0.585866 -0.495670 -0.513153 -0.486034 -0.066829 -0.465244 0.006870 -0.462389 -0.210443 0.104801 0.266497 0.092267 0.110964 -0.426094 -0.406612 -0.789949 0.376091 0.501388 -0.133654 -0.279382 0.471614 -0.134669 0.025598 -0.007092 0.959221 -0.319955 0.620152 0.088484 -0.190602 -0.437647 -0.159127 0.234516 0.071787 -0.188826 0.070217 0.147968 -0.327418 0.425540 -0.106583 0.355990 -0.512843 0.440564 -0.651542 -0.092006 0.414203 -0.031526 -0.022648 0.463017 -0.091367 -0.090573 -0.346213 -0.282298 -0.412715 0.035004 0.060493 0.133867 -0.018603 -0.439443 -0.285519 -0.563969 -0.748956 0.298979 0.166408 -0.702063 0.408839 -0.503730 -0.194009 -0.346132 0.565391 -0.199692 -0.257759 -0.211423 -0.167107 0.267750 -0.282284 0.319524 0.587573 -0.248042 -0.183609 
ni 0.208857 0.359600 0.009417 0.440482 0.195052 -0.324549 0.409549 0.120715 -0.170908 -0.205654 0.038938 -0.108992 0.124789 0.123765 -0.121883 0.069764 0.078505 0.231424 -0.247672 0.025667 0.063063 0.317410 -0.083734 0.140017 -0.137456 0.010139 -0.055595 -0.242045 0.101885 -0.233594 0.170438 0.524237 0.159972 0.146303 0.080792 0.320389 -0.329320 0.375594 -0.537762 -0.014797 0.202511 0.259034 -0.140585 -0.011996 0.483101 -0.050504 -0.105437 -0.176898 -1.132191 0.022383 -0.118688 0.152686 0.159404 0.166870 -0.001146 -0.628652 -0.092114 0.371828 0.098640 -0.244470 0.069342 -0.140648 0.058141 0.176624 -0.114409 -0.447927 0.036876 -0.130428 -0.035515 0.076593 -0.267952 0.109461 -0.151139 0.005230 0.363067 -0.098779 -0.117806 -0.219586 0.139339 0.030750 0.296038 -0.319046 -0.071539 0.039300 -0.168346 -0.296666 0.377957 0.038882 0.117570 -0.336389 -0.038832 -0.272268 -0.061838 0.073770 0.031369 -0.001990 -0.214333 -0.220506 0.131121 -0.187058 0.051335 0.100871 -0.121232 0.298871 -0.193816 0.117742 -0.373802 -0.063039 0.197797 -0.131590 0.259436 -0.047997 -0.002597 0.146314 -0.213269 -0.168679 0.163900 0.142221 0.174735 -0.347267 -0.082972 0.012084 -0.099837 0.143249 -0.258053 -0.006725 0.028581 -0.133672 0.166695 0.175757 -0.022520 0.571576 -0.034226 -0.019189 -0.302818 -0.045907 -0.006681 -0.097332 0.108401 -0.296302 -0.196226 0.079593 0.204773 -0.160796 -0.136764 -0.022110 -0.201175 -0.078817 -0.382140 -0.274432 -0.330188 -0.022254 0.018429 0.303259 -0.232926 -0.077606 -0.122112 -0.167442 0.101494 -0.099970 0.000701 -0.427575 0.287785 0.035800 0.137353 0.165123 0.095724 0.128926 0.257728 0.270094 0.089764 -0.007354 -0.034273 0.066739 -0.248918 0.360521 0.068253 0.481383 -0.101315 0.071216 0.342293 0.225123 0.204086 0.195474 -0.278491 0.151200 0.008112 -0.147620 0.023990 0.683213 0.296374 -0.087641 -0.418222 -0.034859 -0.205709 -0.765495 -0.287238 0.196710 -0.094484 -0.306918 
rın -0.043354 0.093715 0.086290 -0.065587 0.616042 0.029758 0.049033 -0.105981 -0.139661 -0.276258 0.154052 0.175232 0.083832 -0.225342 0.225180 0.184069 0.067635 0.019088 -0.016918 -0.519638 -0.042800 0.142167 -0.400358 0.230368 -0.452930 -0.102181 -0.105706 -0.066501 0.355150 -0.120358 0.448565 -0.259643 0.104965 0.178118 -0.027369 -0.412334 -0.030210 0.204559 0.105601 -0.393107 0.057071 0.046048 0.210601 -0.421513 -0.063937 0.340102 -0.479530 -0.031966 -0.729023 -0.285054 -0.278514 -0.054276 0.177217 -0.341442 0.258427 0.073309 -0.253197 0.366774 0.032793 0.067300 -0.006860 0.098066 -0.327998 0.359271 0.214658 -0.033048 0.227795 -0.387369 0.152792 -0.248802 0.475088 0.288462 0.031748 -0.474399 -0.138187 0.218493 -0.207787 -0.344919 -0.066283 -0.257507 0.108751 0.147792 -0.024342 -0.069709 -0.278398 0.198335 -0.282516 -0.236916 -0.307252 -0.019773 0.064780 -0.015990 0.213751 0.171544 0.165852 0.164721 0.397246 -0.123564 -0.024429 -0.326633 -0.263022 -0.095403 0.217856 0.096753 0.230326 -0.088408 -0.200886 0.447723 0.081365 0.145521 -0.696431 0.018909 -0.113691 -0.003626 0.032006 0.670652 0.049831 -0.358597 -0.059186 0.027825 0.171116 -0.097975 -0.201266 -0.179790 0.281337 -0.068240 0.127806 0.162434 -0.251443 -0.307068 0.016060 -0.206092 -0.482527 -0.030616 0.360971 0.113490 0.276261 -0.298860 0.256600 0.333561 -0.195546 -0.019297 -0.210521 0.109021 -0.001318 0.046806 0.344561 0.157528 -0.321745 -0.123536 0.140867 0.161650 -0.505925 -0.137831 0.342528 0.226247 -0.204146 -0.160952 -0.038473 -0.007417 0.183647 0.090070 -0.144643 -0.237667 0.102327 -0.014370 0.166428 -0.147222 0.032797 0.293785 -0.054613 0.162241 0.163966 -0.371638 -0.260907 -0.018064 -0.142514 -0.189474 0.378670 -0.191500 -0.390388 -0.001791 0.414749 -0.053419 0.378569 0.259129 0.396176 0.175676 0.217993 -0.130136 -0.412343 -0.167350 0.087081 -0.198049 -0.276339 0.067830 0.253362 -0.039274 0.106807 0.385363 
nı 0.097111 0.098828 0.022608 -0.535123 0.044480 -0.170090 0.161713 -0.031843 0.423738 -0.077764 -0.288995 -0.408722 -0.091430 0.182261 -0.147490 0.067018 -0.146124 -0.063508 0.114132 -0.139110 0.150488 -0.284233 -0.479138 -0.177882 -0.460719 0.173154 -0.204105 0.050533 0.007043 0.194288 0.080143 -0.142359 -0.178303 -0.560316 0.189262 -0.026805 -0.329831 -0.155051 0.201507 -0.091260 0.145630 -0.024110 -0.032582 -0.183365 0.754412 0.103937 -0.051334 0.343083 -1.308206 0.251565 0.080680 -0.125977 0.028445 0.221615 -0.413387 0.116577 0.224648 0.122790 0.002458 -0.017723 -0.017771 0.305991 -0.159918 -0.210218 -0.046973 -0.196913 -0.106276 0.215468 -0.170062 -0.003183 0.294226 -0.322921 0.077113 -0.165786 0.172103 -0.183138 -0.525798 0.111841 0.098566 -0.256319 -0.321739 -0.136267 -0.255647 -0.089707 -0.097197 -0.370598 -0.333848 -0.381193 -0.380944 0.118535 0.254236 0.160403 0.333029 -0.078100 -0.248826 -0.382610 0.372030 0.047621 -0.042202 -0.007723 -0.144729 -0.108350 -0.021301 -0.125503 -0.171506 -0.237912 0.035972 -0.639419 -0.200376 -0.195844 0.276574 -0.063365 0.101439 0.159488 -0.099976 0.043958 0.068629 0.147604 0.082235 -0.277367 0.174925 0.283707 -0.664644 0.514094 -0.288558 -0.004484 -0.114128 0.265605 0.046510 0.001245 0.213161 0.119382 0.216084 -0.139851 0.171885 -0.297839 -0.057229 0.055381 -0.042249 0.097294 -0.033948 0.183523 -0.181283 0.230054 -0.188467 0.124924 0.000270 0.003820 -0.133360 -0.279873 0.163365 -0.143845 0.137213 0.163647 -0.094008 -0.326395 0.418348 0.141576 0.311760 0.050170 -0.164123 -0.406880 0.073611 -0.008782 0.078303 -0.279518 0.030527 0.063122 -0.075122 0.311748 -0.004826 -0.181418 -0.065210 -0.123031 0.468668 -0.023116 -0.140040 -0.150363 -0.796237 0.392192 -0.288394 -0.050781 -0.182486 0.213443 0.075647 0.222630 -0.146604 -0.074794 0.250869 0.086111 0.435187 0.287201 0.090280 -0.130440 -0.104380 0.045425 -0.122309 0.201417 -0.269106 0.249139 
ğı 0.077797 -0.213890 -0.083430 -0.271861 -0.184854 0.174984 -0.240102 0.043243 -0.031672 0.075648 -0.522774 0.340182 -0.878882 -0.261924 0.497053 -0.204268 0.185688 0.688059 -0.150650 0.387083 -0.496608 0.446864 0.153834 0.096532 -0.645999 -0.156353 -0.033154 0.135237 0.164178 0.309890 0.668930 0.168770 0.338397 0.233553 0.089456 -0.752979 0.141180 0.296858 -0.164318 -0.023749 0.242146 0.198650 -0.231164 -0.057527 -0.163869 0.073610 0.037904 -0.703818 0.752993 -0.413661 0.420322 -0.208912 0.418422 -0.031524 -0.290058 0.038196 -0.561401 0.314509 0.068369 -0.158887 -0.081877 -0.552483 0.302395 0.295302 0.014288 -0.058710 0.093734 0.199323 0.046203 -0.245520 -0.046963 0.307552 0.249194 -0.313922 0.295939 0.238846 -0.197797 -0.543410 -0.220398 0.390834 0.658163 0.147124 0.013547 -0.152076 0.121485 0.294575 -0.084245 0.194489 -0.091872 -0.159906 -0.383587 -0.334551 0.753912 0.252716 0.178674 0.511510 -0.203314 0.061826 -0.177538 0.312345 0.207238 -0.260053 -0.127935 -0.005781 -0.219550 0.534205 0.187763 0.063442 -0.110223 0.323831 -0.206869 -0.147978 -0.258601 -0.188834 0.211391 0.281571 0.288848 -0.037871 0.232282 0.014589 0.070344 -0.138612 -0.046744 -0.102347 -0.185398 0.194808 0.342115 0.022603 -0.323352 -0.352633 -0.053571 0.179544 -0.294595 0.084418 -0.109089 0.210980 -0.368128 -0.337878 0.510693 -0.219160 -0.006560 -0.070148 -0.022871 0.037660 0.289302 -0.224795 0.097645 0.458749 -0.239984 -0.910554 -0.177946 -0.038500 0.129847 0.357145 -0.320877 0.094206 -0.408447 0.391015 -0.390235 0.107301 0.524222 0.115434 -0.040599 -0.271586 0.329042 0.577130 0.123797 0.100476 -0.019764 0.281998 -0.336105 -0.094566 -0.064501 -0.088601 0.299662 0.628866 0.487471 -0.466651 0.245734 -0.213640 -0.468729 -0.131888 0.369450 -0.019425 -0.025217 0.369457 0.008233 -0.261635 -0.224597 -0.356523 -0.478642 0.156181 -0.008999 0.416153 0.363481 -0.012609 -0.084571 0.175011 -0.058810 -0.221429 
bir -0.270003 0.275382 -0.065195 -0.300374 -0.061283 -0.057133 -0.128717 -0.036993 -0.016693 0.069639 -0.197761 -0.161923 -0.029544 0.006241 -0.175024 -0.200076 0.228203 0.432649 0.011752 -0.075133 -0.082739 0.008760 -0.026723 0.012359 0.114038 -0.009774 0.007087 -0.075473 0.103806 0.151289 -0.008740 -0.055456 -0.224186 -0.183040 0.205094 0.120181 -0.194755 0.038069 0.109027 0.000825 0.132120 0.206075 -0.003062 -0.249780 0.274900 0.119875 -0.059802 -0.021521 -0.623509 -0.048770 -0.108659 -0.065101 0.154495 0.191873 0.077768 -0.132686 0.014427 0.042774 0.157339 -0.164667 0.267808 -0.101463 -0.192066 -0.098171 0.070614 0.123856 0.159484 -0.212187 -0.020577 0.330723 -0.416275 0.053307 -0.051435 0.000414 0.240384 0.069282 -0.105090 -0.355266 0.174681 -0.366464 0.002715 -0.058331 -0.155571 -0.085425 -0.138402 -0.237845 -0.310024 -0.342932 -0.219781 -0.131014 -0.075174 0.005709 0.091153 -0.397336 -0.105936 -0.092984 0.547575 -0.097490 -0.072725 0.254498 -0.170377 0.092114 -0.218267 -0.030616 -0.212941 0.226941 0.074593 0.122737 -0.197823 0.143678 0.145239 0.018012 -0.021982 0.022242 0.239249 0.020159 0.250807 -0.104046 0.002439 0.145026 0.430024 -0.097299 -0.045035 -0.221814 0.017004 -0.061363 0.085214 0.208183 0.031765 -0.259718 0.213850 -0.010689 -0.344250 0.058393 -0.024556 0.260639 0.324009 -0.076335 -0.054450 0.129137 0.089754 -0.134115 -0.547913 0.121940 -0.198699 0.183061 0.013403 -0.181103 -0.286154 -0.056276 0.075228 -0.232923 -0.247741 0.145894 0.070125 0.037192 -0.135358 -0.157457 0.273087 0.246323 -0.183093 -0.155183 0.137629 -0.163556 -0.023286 -0.172431 -0.069810 -0.248289 -0.351700 0.021451 0.210696 0.146540 0.085471 -0.222071 -0.141073 0.146908 -0.156539 -0.259604 0.125745 -0.227051 0.074994 0.208086 0.206773 0.141720 0.083462 -0.042035 0.130602 -0.131129 0.098400 0.392476 0.390990 -0.169863 -0.177107 -0.360762 -0.161067 -0.194583 -0.138836 0.158682 0.092867 0.056781 
do 0.689529 -0.321758 -0.088054 0.576152 0.216193 0.095318 0.044120 -0.009483 0.214381 0.003690 0.211766 -0.099463 0.333195 0.573017 0.141376 -0.097612 0.338351 0.328414 -0.691410 -0.055540 -0.320068 -0.229262 0.238693 0.021893 -0.421155 -0.291675 0.427333 0.634006 0.010498 -0.326531 0.259327 0.624131 0.721603 1.070759 -0.397693 -0.175557 0.343112 -0.602633 -0.584129 0.530597 -0.221709 0.073508 -0.348062 0.293432 -0.794870 -0.100461 -0.366169 0.242072 0.220583 -0.227777 0.328920 0.067672 0.049598 0.048020 0.382000 -0.241578 -0.651696 0.720342 0.191817 -0.218028 -0.512854 -0.281509 0.339210 0.661763 -0.304682 -0.125099 0.551256 -0.161384 -0.453575 -0.108316 0.177502 0.304178 -0.105555 -0.086423 -0.549899 -0.283329 0.529274 -0.536689 -0.441586 0.698046 0.812340 -0.161714 0.109688 0.397795 -0.153338 -0.521731 0.899170 0.347344 0.209327 -0.739844 0.036205 -0.050423 0.134439 0.248627 -0.101471 0.716079 -1.169256 0.005545 -0.200264 -0.707407 0.067285 -0.437061 -0.133304 0.179947 -0.244063 0.037340 -0.027355 0.084659 0.412208 0.155153 -0.128033 0.235801 0.221732 -0.330779 -0.085514 0.441220 -0.570490 0.171339 0.555228 -0.249716 0.288249 0.219009 -0.384712 -0.070588 -0.335070 0.072175 0.208790 -0.714526 -0.194900 0.082739 -0.520276 0.527963 0.026969 0.058724 0.032955 -0.094885 -0.309475 -0.392587 0.701985 -0.626641 -0.411550 0.245420 0.091060 0.241587 0.620207 0.170882 -0.106405 1.248240 -0.220893 -0.543811 -0.394730 -0.209853 0.534578 0.064552 -0.225176 0.353800 -0.389818 -0.344340 -0.270598 -0.563612 0.460267 -0.050463 0.528886 -0.290561 0.200950 0.615047 0.016762 -0.123435 0.222223 0.418882 -0.321602 -0.190951 -0.068409 0.360497 -0.281052 0.327503 0.196816 0.125859 -0.499432 -0.126266 -0.536634 -0.556195 0.147240 -0.410315 -0.487395 0.565634 -0.072124 0.440038 -0.580006 0.389979 -0.401466 -0.035830 0.095373 0.484377 0.296702 0.185626 0.210480 0.076572 0.290537 -0.631736 
yı -0.037384 0.111360 -0.086576 -0.207540 0.016183 0.019947 -0.110105 -0.313266 -0.038569 0.091411 -0.307214 -0.161748 0.187177 -0.331267 -0.383137 -0.051602 0.310920 -0.142996 0.068202 -0.346061 -0.235170 0.190962 -0.080110 0.337917 -0.028603 0.095412 -0.036095 -0.259401 0.516678 0.015532 0.403779 -0.315576 -0.131560 -0.188575 -0.193009 -0.290215 0.023696 0.161965 0.402709 0.068534 0.085371 0.545349 -0.080998 -0.150727 -0.123122 0.496150 -0.172449 0.094252 -0.287897 -0.196855 0.058925 -0.405761 -0.111391 0.211155 -0.012922 0.520818 -0.170306 0.029350 -0.082445 0.152105 0.217969 0.089501 -0.287534 -0.187041 -0.129314 0.192056 0.078740 -0.156497 -0.186010 0.080815 0.066911 -0.386609 0.082467 -0.226448 -0.090568 -0.317893 0.103190 -0.364987 0.069850 -0.815979 0.146315 -0.227862 -0.223712 -0.279204 0.095183 0.082178 -0.321330 -0.163424 -0.019895 -0.329282 0.005516 0.305863 0.154412 -0.547699 -0.472330 -0.256585 0.619147 -0.045350 -0.100554 0.228175 -0.128148 -0.063600 0.107881 0.178947 -0.404386 0.228653 0.102088 -0.330484 -0.324893 0.424417 -0.007049 0.259297 0.322450 0.517400 0.137179 0.385453 0.036633 -0.411361 -0.296058 0.317165 0.481421 -0.204322 -0.105864 -0.009971 0.305560 0.101539 0.401863 -0.165015 0.077189 0.028831 0.196973 -0.222019 -0.424292 -0.139655 0.208845 0.281323 0.553008 -0.209995 -0.062070 0.111258 0.168762 0.194617 -0.262496 0.135654 -0.048899 -0.124440 0.301936 -0.147544 -0.225919 -0.081594 -0.035579 -0.265420 -0.055858 -0.027366 -0.089243 -0.192401 -0.231719 -0.082301 0.356200 0.142575 -0.143934 -0.011166 0.089194 0.162777 0.141910 -0.170791 -0.256981 -0.104132 -0.494344 0.147289 0.095621 0.058978 -0.106950 0.011767 -0.062955 -0.090984 -0.160034 -0.409737 -0.054756 -0.263663 -0.012100 0.464337 0.143057 -0.003846 0.085335 -0.147288 0.456573 -0.171292 0.074626 0.238930 0.313352 -0.200438 0.040550 -0.232398 -0.190741 0.192695 -0.210946 -0.277071 0.160294 0.380149 
tı 0.006550 -0.126140 0.036755 -0.488641 0.067608 0.104598 -0.096147 0.072796 0.339934 0.035555 -0.188388 0.219805 -0.182057 0.059983 -0.110698 0.084320 -0.118409 0.054411 -0.031456 -0.036832 -0.599370 0.003463 -0.095761 -0.041538 -0.477447 0.079841 -0.205322 0.239562 0.212472 0.074071 0.157335 -0.491615 -0.131415 0.058376 -0.023250 -0.771372 0.132039 0.091552 0.608971 0.076256 0.171756 -0.018088 0.192318 0.034461 0.224467 0.184847 -0.169626 -0.063324 -0.503663 -0.223810 -0.017426 -0.558494 0.021166 -0.118714 -0.247126 0.059822 0.016971 -0.060811 0.209994 -0.141127 0.086078 0.025514 -0.159161 0.379001 0.048491 0.228182 -0.017581 -0.094608 -0.194140 -0.230672 0.571467 0.097076 0.381781 -0.364834 -0.284502 -0.064623 -0.257641 -0.148102 -0.317764 -0.471058 -0.017552 -0.120849 0.149750 0.075849 0.085157 -0.056993 0.044437 -0.021660 -0.088003 0.035709 0.343291 0.189194 0.163842 0.108626 0.104576 0.256189 0.627427 0.246043 -0.150992 -0.176947 -0.070420 -0.070558 -0.190342 -0.193585 0.231462 0.487414 0.201555 0.002245 -0.729238 0.343802 0.005032 0.261965 -0.101379 0.123947 0.232823 0.477066 0.063830 -0.203561 0.317029 0.005640 0.070042 -0.078718 -0.316427 -0.312226 -0.157702 0.057599 0.162031 0.050386 -0.549571 -0.155969 -0.077669 -0.518352 -0.552384 0.035588 0.598018 -0.050111 0.100700 -0.452077 0.302375 0.163029 -0.103076 0.092783 -0.105228 0.255083 0.272491 0.107072 0.206789 0.238284 -0.355061 -0.037056 -0.179113 -0.285884 -0.417736 0.164579 0.051787 -0.199059 -0.190983 -0.293619 -0.054214 0.074731 0.142684 0.061621 -0.140404 -0.037081 -0.015920 -0.030968 0.297157 0.145457 -0.114256 -0.086726 0.020449 -0.240042 0.107363 -0.273415 0.263701 0.122976 0.043882 -0.403985 -0.312319 -0.280410 -0.486778 0.059103 0.195874 -0.118905 0.049512 -0.051670 0.143588 0.170710 0.036524 -0.249530 -0.394411 -0.268639 0.236048 0.120741 -0.205908 0.045718 -0.053061 0.053253 -0.230405 0.256934 
ti 0.114120 0.294058 0.295839 -0.108947 0.242484 0.094562 -0.234628 -0.073112 -0.153739 -0.309471 -0.127823 0.292605 0.098557 0.047317 -0.022779 0.154919 -0.384732 0.353595 0.130176 -0.397784 0.025535 0.242849 -0.293190 0.040417 -0.001655 0.057024 -0.336958 -0.518223 -0.050318 0.192445 0.460223 -0.345739 0.092357 -0.347116 0.383829 -0.420870 -0.415392 -0.087469 -0.161961 0.474613 0.287001 0.129812 0.357731 -0.221956 0.359025 0.101006 -0.181239 0.383715 -0.367188 -0.278343 -0.323963 -0.192752 0.549770 0.223934 -0.030613 -0.327187 -0.274182 0.156259 0.188481 -0.028574 -0.104386 0.335919 -0.115115 0.366582 -0.094881 0.061607 0.379453 0.012143 0.257339 0.163192 0.757825 -0.112132 -0.055271 -0.305307 0.090813 0.274997 -0.662543 0.109501 -0.203598 -0.198978 0.047725 0.346925 -0.295813 0.219407 -0.493384 -0.083510 -0.023929 -0.463567 -0.519175 -0.076847 0.053631 -0.058387 0.240127 -0.063055 0.150005 0.089702 0.814385 -0.449835 -0.177892 -0.016893 -0.260119 0.207858 -0.159703 -0.479388 -0.030158 0.186058 0.062187 -0.048246 -0.033599 0.013467 0.169172 0.052013 -0.257233 -0.096139 -0.139668 0.199430 -0.104782 -0.171970 0.349643 0.062012 0.065909 -0.291608 0.017081 0.490022 0.023707 -0.181240 -0.135342 0.642760 -0.214136 -0.004224 -0.068286 -0.318745 -0.169215 0.151684 0.462027 0.051950 0.064767 -0.657165 -0.241220 0.295022 -0.057040 -0.526159 -0.302105 0.487253 -0.318713 -0.473284 -0.064266 0.123304 -0.401424 -0.131129 0.242582 -0.184436 -0.213610 -0.038995 -0.053575 0.035515 -0.011479 -0.220689 -0.170188 -0.116189 -0.126740 -0.247537 0.009264 0.010067 0.167536 0.059635 0.551838 -0.145788 -0.074567 -0.215209 -0.060914 0.150732 0.590168 0.210081 -0.046212 0.168140 0.192304 0.090721 0.083568 0.025154 -0.065789 0.070264 0.132235 0.119298 -0.020993 -0.046343 0.111185 0.022660 0.513341 -0.256844 0.276808 0.107613 0.116432 0.098726 -0.169397 -0.000742 -0.010801 0.552798 -0.293818 0.012701 
