953 200
</s> 0.002001 0.002210 -0.001915 -0.001639 0.000683 0.001511 0.000470 0.000106 -0.001802 0.001109 -0.002178 0.000625 -0.000376 -0.000479 -0.001658 -0.000941 0.001290 0.001513 0.001485 0.000799 0.000772 -0.001901 -0.002048 0.002485 0.001901 0.001545 -0.000302 0.002008 -0.000247 0.000367 -0.000075 -0.001492 0.000656 -0.000669 -0.001913 0.002377 0.002190 -0.000548 -0.000113 0.000255 -0.001819 -0.002004 0.002277 0.000032 -0.001291 -0.001521 -0.001538 0.000848 0.000101 0.000666 -0.002107 -0.001904 -0.000065 0.000572 0.001275 -0.001585 0.002040 0.000463 0.000560 -0.000304 0.001493 -0.001144 -0.001049 0.001079 -0.000377 0.000515 0.000902 -0.002044 -0.000992 0.001457 0.002116 0.001966 -0.001523 -0.001054 -0.000455 0.001001 -0.001894 0.001499 0.001394 -0.000799 -0.000776 -0.001119 0.002114 0.001956 -0.000590 0.002107 0.002410 0.000908 0.002491 -0.001556 -0.000766 -0.001054 -0.001454 0.001407 0.000790 0.000212 -0.001097 0.000762 0.001530 0.000097 0.001140 -0.002476 0.002157 0.000240 -0.000916 -0.001042 -0.000374 -0.001468 -0.002185 -0.001419 0.002139 -0.000885 -0.001340 0.001159 -0.000852 0.002378 -0.000802 -0.002294 0.001358 -0.000037 -0.001744 0.000488 0.000721 -0.000241 0.000912 -0.001979 0.000441 0.000908 -0.001505 0.000071 -0.000030 -0.001200 -0.001416 -0.002347 0.000011 0.000076 0.000005 -0.001967 -0.002481 -0.002373 -0.002163 -0.000274 0.000696 0.000592 -0.001591 0.002499 -0.001006 -0.000637 -0.000702 0.002366 -0.001882 0.000581 -0.000668 0.001594 0.000020 0.002135 -0.001410 -0.001303 -0.002096 -0.001833 -0.001600 -0.001557 0.001222 -0.000933 0.001340 0.001845 0.000678 0.001475 0.001238 0.001170 -0.001775 -0.001717 -0.001828 -0.000066 0.002065 -0.001368 -0.001530 -0.002098 0.001653 -0.002089 -0.000290 0.001089 -0.002309 -0.002239 0.000721 0.001762 0.002132 0.001073 0.001581 -0.001564 -0.001820 0.001987 -0.001382 0.000877 0.000287 0.000895 -0.000591 0.000099 -0.000843 -0.000563 
la -0.206219 0.063488 0.226957 -0.139718 0.364138 -0.309889 0.196684 0.025948 0.238478 -0.009512 -0.226218 0.048109 -0.365555 0.270957 0.340417 -0.131948 0.046122 0.317400 0.272887 0.071410 -0.142200 0.262204 -0.234574 0.528143 -0.532407 0.072942 -0.143705 0.189043 -0.106663 0.283144 0.440105 -0.166284 0.030565 -0.217901 -0.051600 -0.439812 -0.050111 0.017451 -0.019653 -0.175930 0.168632 -0.155766 0.178235 -0.004657 0.508049 0.058972 -0.210917 0.179062 -0.095926 0.631758 -0.068415 0.005936 0.339275 -0.037458 -0.197686 -0.232402 0.053358 0.166076 0.213615 -0.456570 -0.210648 -0.440828 0.040508 0.241884 -0.094247 -0.557643 0.464265 -0.038256 0.035865 -0.222205 0.029414 0.117076 -0.139024 -0.472148 0.387162 0.212614 -0.659703 -0.142864 -0.421804 -0.079721 0.157920 -0.165092 0.080790 -0.650215 0.000500 0.176149 0.316537 -0.069690 -0.508101 -0.403141 0.310868 -0.013759 0.249118 0.420657 0.304727 0.061538 0.200370 -0.284197 -0.098268 -0.209633 -0.117808 -0.007446 -0.292985 0.084872 0.417869 0.026930 -0.010233 0.233580 0.048469 0.126060 0.112632 0.023267 -0.372569 -0.188503 -0.154362 0.404501 0.410423 0.025816 -0.106627 -0.019331 0.129655 0.050288 -0.266107 0.251589 0.215929 -0.039918 -0.273083 0.356899 -0.071342 0.029516 0.312855 -0.226477 -0.199800 -0.003298 0.021428 -0.431229 -0.164738 -0.438243 0.441774 -0.255881 -0.058997 -0.049252 -0.136077 -0.013239 0.162991 0.119192 -0.098835 0.219595 0.044635 -0.192750 -0.159492 -0.098552 -0.016977 -0.011600 -0.095218 0.100820 0.220369 0.218584 0.292298 0.088770 0.030081 -0.048578 0.448447 -0.185095 0.094798 -0.088445 0.017057 0.217228 -0.106950 0.461466 -0.457303 -0.414131 -0.160561 -0.167943 0.197602 0.095336 -0.038888 -0.219753 -0.026307 -0.105763 -0.511874 -0.050944 0.547869 0.505874 0.059437 0.428310 0.309127 -0.222235 -0.346957 -0.067971 -0.290820 -0.102079 -0.253202 -0.121856 -0.201670 -0.131120 -0.003231 0.226502 -0.051798 0.216709 
le -0.209380 -0.379226 -0.405442 0.104542 0.052465 -0.046295 0.288198 0.516870 0.276199 0.254625 -0.048980 0.688154 -0.346422 0.140976 -0.546365 0.342370 -0.169926 0.837953 0.062615 -0.156204 -0.096497 -0.002626 -0.198768 0.122681 -0.211016 -0.132554 -0.266842 0.344319 0.424207 0.088515 0.140244 -0.367470 -0.072009 -0.715313 -0.276476 -0.591292 0.035407 0.461896 0.039081 0.715904 0.215336 0.656799 0.714246 0.219329 -0.040097 0.036965 0.198918 -0.145849 0.320587 -1.286512 -0.371698 -0.242760 0.088710 -0.133453 -0.310019 -0.330372 -0.113447 -0.453210 0.046808 -0.075543 -0.098080 -0.217836 -0.091118 0.375263 0.110119 0.175735 0.371078 -0.223100 -0.104979 0.178189 -0.333427 0.046311 -0.013371 -0.338191 -0.524002 -0.005211 -0.175413 0.242344 -0.193549 0.239490 0.087301 -0.128664 0.145923 0.417639 -0.059509 0.001914 0.922942 0.281446 0.279088 -0.564945 0.010698 -0.155643 -0.280219 -0.039164 -0.076688 0.202030 0.216177 -0.093576 -0.246789 -0.448643 -0.080079 -0.058325 -0.388884 -0.368383 0.178407 0.140815 0.164184 -0.366922 -0.066701 0.009360 0.126051 0.228505 -0.105625 -0.180389 -0.117670 -0.202305 -0.167951 -0.352488 0.287169 0.164465 -0.084328 -0.387419 0.354858 -0.090351 0.229460 -0.265437 -0.004833 0.091263 -0.144894 0.204338 -0.524310 0.159278 -0.047412 0.187123 0.427567 -0.221218 0.147803 -0.194665 0.292443 -0.111136 0.025376 -0.462163 -0.011921 0.044100 0.035667 -0.242123 0.080058 0.008900 -0.309717 0.252058 -0.631745 -0.358741 -0.112444 0.141187 -0.389132 -0.342935 0.231700 0.010022 -0.074982 0.039027 -0.067461 -0.289499 0.007962 0.171562 -0.235336 0.406507 0.124096 0.210639 -0.345886 -0.053302 0.252411 0.243549 0.261813 0.161630 -0.086402 -0.107543 0.500716 0.194525 -0.599978 -0.301575 0.436190 0.654948 0.241033 0.068040 -0.534435 -0.369454 0.016782 0.170156 0.026283 0.445282 -0.009538 -0.259230 -0.037441 -0.082406 0.372250 -0.290046 -0.295768 0.271822 -0.034988 -0.112206 
da 0.520306 0.500955 0.172979 -0.529857 0.283345 -0.045140 -0.602166 -0.429406 0.119016 -0.177412 -0.030481 -0.512556 0.100935 -0.059140 0.204539 -0.343669 0.194269 -0.031752 -0.262280 -0.000489 -0.553347 -0.012162 -0.001325 -0.171832 0.169683 -0.526105 0.199395 0.063715 -0.183859 -0.138521 0.161304 0.296485 -0.077346 0.889133 0.054209 -0.129305 -0.154096 -0.264853 -0.170524 -0.323318 0.263878 0.152415 -0.631052 -0.241886 0.267200 0.248830 -0.269390 -0.271554 -0.695813 0.225581 0.393735 -0.001070 0.128313 0.300384 0.096724 0.004264 -0.381650 0.551368 0.134380 -0.154039 0.028435 -0.272045 0.047231 -0.213509 -0.037009 -0.398809 -0.106761 -0.273242 -0.039945 -0.121300 -0.031186 0.241659 0.283376 -0.306746 0.263959 -0.101195 0.375503 -0.367918 0.253845 -0.399625 0.232133 -0.215467 -0.240067 -0.190442 -0.001477 0.013249 -0.323506 -0.228592 0.123822 0.225968 -0.066375 0.162099 0.596014 -0.270900 -0.339425 -0.106282 0.544843 -0.271387 0.080891 0.278349 0.258284 -0.071165 0.034045 0.038231 -0.772733 0.391965 -0.165988 -0.751260 -0.254255 0.624461 0.067997 -0.212894 -0.193359 0.412850 0.380621 -0.115831 0.109906 0.128318 0.043301 -0.192782 0.672352 0.009052 -0.583200 0.244127 -0.486893 0.172484 0.305005 0.139867 0.135855 -0.076973 0.286479 0.461203 -0.945494 -0.191657 -0.148643 0.078111 -0.104747 -0.004757 -0.088210 0.032437 -0.007384 0.181700 -0.234950 -0.066478 0.278210 0.040120 0.049874 0.631050 -0.036254 -1.098285 0.233898 -0.153467 -0.035876 0.170722 0.310287 0.167070 -0.561909 -0.112129 0.268434 0.044407 -0.077064 -0.377480 0.352114 -0.079630 0.425569 -0.099669 -0.067180 -0.053806 0.125484 0.249933 -0.522404 -0.079363 0.022764 -0.300297 0.544741 0.493909 -0.128870 -0.242864 0.323061 0.024841 -0.009988 0.268984 0.070184 -0.125447 0.166962 0.735735 0.304609 -0.398823 0.444508 0.052217 0.237235 0.071101 -0.220178 -0.033917 -0.099082 -0.362326 -0.323439 -0.016366 -0.061260 0.248753 
de 0.177431 -0.198632 0.300386 0.245927 0.145535 0.048616 -0.668895 -0.126696 0.160008 0.046003 0.055506 -0.297116 -0.241133 0.194922 0.073878 -0.046442 0.213601 0.829670 -0.072649 -0.076987 -0.187673 -0.140547 -0.001509 0.093240 -0.609611 -0.627396 -0.134497 0.055845 -0.107296 0.040237 0.223316 -0.138426 0.213901 0.133862 0.261880 -0.060232 0.142619 -0.311321 -0.289135 0.526093 0.238261 -0.313508 0.182757 -0.072930 0.149472 -0.094500 0.062261 0.176613 0.039460 0.640001 0.229734 0.057003 0.143358 -0.122674 -0.270332 -0.146910 -0.095145 0.288514 0.423230 -0.332860 -0.134858 -0.056079 0.067282 0.240999 -0.033908 0.274861 0.104427 -0.247965 -0.221071 -0.089241 0.033822 0.147951 -0.167144 -0.155848 -0.067721 0.045452 -0.216599 -0.002903 0.207142 0.072937 0.041183 0.220769 -0.369321 0.430885 -0.276721 -0.221704 0.205391 -0.296245 -0.107439 0.263198 0.183719 0.112871 -0.039595 -0.152226 -0.173058 0.212173 0.181099 -0.440775 0.023725 0.039416 0.177701 0.138862 0.094666 -0.411397 -0.090304 -0.039015 -0.049814 0.430660 0.384897 0.181192 -0.010096 0.011235 -0.344263 -0.530970 0.016473 -0.134779 -0.381252 -0.210588 0.367962 0.101184 0.440453 0.054840 -0.304017 -0.279540 -0.199399 -0.139546 0.009488 -0.075947 0.141067 0.010532 -0.115317 0.303300 0.160227 0.104741 0.047340 -0.269696 -0.136729 -0.571902 -0.420323 0.389509 -0.335572 -0.279898 -0.635982 0.363970 -0.146566 0.115238 -0.162004 0.279324 -0.125276 -0.407914 -0.106271 -0.354023 0.083481 -0.275163 -0.099118 0.213949 0.196035 -0.537730 0.053315 0.038856 0.022673 -0.131320 0.203410 -0.418657 -0.157423 0.498750 0.010517 -0.303342 -0.285792 0.114369 -0.171469 0.326663 0.408833 0.165461 -0.018330 -0.061743 -0.013750 -0.207235 -0.197910 0.191847 -0.227509 0.207764 -0.010525 0.217403 0.185401 0.439427 0.127362 0.006926 0.008420 0.200631 -0.103383 -0.096709 -0.246563 0.176012 0.164696 0.251896 -0.217386 0.358454 -0.247711 0.131469 
ya -0.283161 0.114496 0.070674 -0.496905 0.548974 -0.570294 0.126149 0.133423 -0.065280 -0.074531 -0.044646 -0.217636 0.035704 0.258843 -0.134355 -0.171515 0.098661 0.374712 -0.307844 0.047196 -0.349106 0.160896 -0.544310 -0.067772 -0.311112 0.386471 0.291389 0.483685 0.177367 -0.206255 -0.029257 0.717701 -0.155993 0.550557 -0.288526 -0.012575 -0.311811 0.113909 -0.121929 -0.537568 0.099153 0.184709 -0.341087 -0.192213 0.059590 0.072101 -0.378969 0.191162 -0.274921 -0.724925 -0.017027 0.097709 0.020696 -0.226091 0.227889 -0.204994 -0.413260 -0.019057 -0.084014 -0.007106 -0.038594 -0.277235 -0.367199 0.154188 -0.118656 -0.451260 0.198204 -0.411957 -0.112300 -0.004034 -0.091645 0.205613 0.053645 -0.270915 -0.079454 0.126777 -0.114440 -0.388190 -0.144311 -0.114648 0.103584 0.025493 -0.013542 0.090057 0.054217 -0.303471 -0.081546 -0.035096 0.093798 0.433708 -0.078009 -0.097152 0.021002 0.301168 0.029240 -0.062300 0.039393 0.069622 0.022531 -0.202409 -0.288863 0.064931 -0.063424 0.453840 0.193875 0.033072 -0.216613 0.209607 0.125247 -0.022345 -0.051713 0.179584 0.342970 -0.058349 0.179685 0.414600 0.215710 -0.066758 0.118549 0.067782 0.250493 -0.015770 -0.042276 -0.068897 -0.066288 -0.110635 0.070855 -0.083286 -0.122264 0.244967 0.079728 -0.307237 -0.740855 0.096182 -0.015837 0.009466 0.020832 -0.293790 0.823180 -0.471673 0.129865 0.378266 -0.368696 -0.252347 0.293479 0.113204 0.080217 0.239494 -0.023134 -0.165641 -0.099319 0.057422 -0.228143 0.219806 -0.136385 -0.166763 0.397088 -0.015250 0.153953 0.115471 -0.161929 -0.199019 0.142432 -0.111345 -0.170764 -0.040510 -0.261791 -0.008739 -0.232545 0.292339 0.205970 -0.406722 -0.389030 -0.557132 -0.281902 0.263727 -0.011145 0.095390 -0.507847 -0.536259 -0.248769 0.079246 0.405797 -0.154635 -0.037834 0.171178 -0.232381 0.016292 -0.216558 0.193489 -0.328350 -0.097067 0.243261 -0.186552 0.209498 -0.110901 -0.138316 -0.143569 0.092898 0.185895 
a 0.011299 -0.302874 0.064819 -0.128042 0.394845 0.099382 -0.370833 -0.115084 0.315009 -0.091210 -0.324840 -0.147403 -0.097378 -0.071194 0.033293 -0.187113 0.454419 1.069282 0.089873 -0.042124 -0.601529 0.291064 0.157063 0.261443 -0.340511 -0.270251 0.041044 0.277035 -0.139022 -0.185483 0.083874 0.327029 0.013489 0.912464 -0.062574 -0.352527 0.148857 -0.117508 -0.089934 0.166871 0.381460 -0.087446 0.035141 0.037747 -0.173596 -0.052401 0.051593 -0.027525 -0.166918 -0.453900 0.183841 -0.134618 -0.339030 -0.048398 0.005924 0.105714 -0.135501 0.553167 0.119737 -0.218880 -0.047617 -0.635023 0.207239 0.340220 0.001972 -0.018124 0.079094 -0.289157 -0.071140 -0.227318 0.262407 0.270245 0.239463 -0.311086 -0.197388 -0.006043 0.099593 -0.025082 -0.066214 -0.170696 0.271562 -0.128722 0.150307 -0.003871 0.262834 -0.323564 0.063061 0.024716 0.090699 0.952217 -0.076855 -0.081064 0.066422 0.090870 -0.074308 -0.001206 0.164556 -0.260718 -0.055056 -0.006288 0.255573 -0.251229 -0.090476 0.153080 -0.093633 0.345353 -0.112988 0.370970 0.140685 0.211294 -0.103871 0.199513 -0.030351 -0.229041 0.267191 0.184247 -0.055594 -0.322460 -0.039245 -0.038252 0.277572 0.007582 -0.107225 -0.383511 -0.109512 0.030995 -0.059691 -0.448500 0.209600 -0.027336 -0.012579 0.049101 -0.262902 0.143990 -0.042702 -0.088330 -0.332686 0.060920 0.116900 -0.263513 -0.403310 -0.076400 -0.066999 -0.290933 0.147355 0.255042 0.216482 0.313689 0.127597 -0.324950 -0.030351 -0.111842 0.380903 0.087148 -0.017593 0.204858 -0.025938 -0.220791 0.097816 -0.324402 0.015905 -0.067165 0.050419 -0.145039 -0.011220 0.205212 -0.405020 -0.162055 0.073513 0.071596 -0.195437 -0.062958 0.049155 -0.179687 0.163123 -0.119629 0.220144 -0.428087 -0.468292 0.090917 -0.326469 0.387083 0.212708 0.201103 0.097078 0.543837 0.282328 0.023754 -0.166613 0.080818 -0.463218 -0.271277 0.007540 -0.305161 0.099604 -0.068286 0.171144 -0.248233 -0.026468 -0.090712 
ma -0.222957 -0.145063 0.136454 -0.286961 0.303451 -0.179805 0.276290 -0.090767 0.220657 0.111214 0.103091 0.048150 0.046846 0.297527 0.034202 -0.084934 0.043434 0.622281 0.051837 -0.215406 -0.062559 0.097937 -0.449516 0.222058 -0.444506 0.241627 0.061456 -0.107672 -0.002947 0.066424 -0.049697 0.050503 0.075281 -0.079982 -0.092106 -0.660413 -0.133401 -0.003038 -0.008756 -0.207635 0.305129 -0.234525 -0.088202 -0.014465 0.307402 0.206032 -0.276004 0.366632 -0.052684 0.928047 -0.034261 -0.023692 0.345689 -0.248835 -0.372037 -0.167038 0.061061 -0.125397 -0.025637 -0.403435 0.001082 0.173732 -0.120432 0.129772 -0.093835 -0.186426 -0.039544 -0.001966 0.032499 -0.223338 -0.154855 -0.002103 -0.370765 -0.385876 0.006905 0.042858 -0.227039 0.150543 -0.277535 -0.230349 -0.102607 -0.005940 -0.020893 0.030217 0.042165 0.019703 0.162459 -0.024345 -0.472941 0.220488 0.341603 -0.274615 0.487225 0.302051 0.352237 0.017151 0.373473 0.065487 -0.169048 -0.369696 -0.369992 0.024475 -0.207979 -0.063312 0.636476 0.122454 0.112323 0.085171 -0.024307 -0.164491 0.014077 0.177940 -0.157342 0.078956 0.076522 0.266022 0.149715 -0.181847 -0.121484 0.136122 0.040195 -0.107308 -0.242627 0.132170 0.238678 -0.004956 0.035656 0.269981 -0.184876 -0.121556 -0.251237 -0.300115 -0.511228 0.016839 0.507910 -0.311994 0.383632 0.099514 0.231162 0.129212 0.122650 0.093299 -0.145359 0.138104 0.418931 -0.160701 0.136427 0.216089 -0.088679 0.035250 -0.206854 -0.136205 -0.260640 0.198537 0.384030 0.087044 0.358864 -0.138160 0.101978 0.247865 0.146618 0.063570 0.172072 0.025564 -0.239311 -0.285735 0.131468 -0.035018 -0.047619 0.217648 0.238519 -0.290878 0.015347 -0.162281 0.026754 0.042663 -0.179014 -0.005564 -0.149951 -0.115742 -0.332842 -0.201039 0.257702 -0.032438 -0.054767 0.029835 -0.101102 -0.009157 0.138552 0.003295 -0.139894 -0.100673 -0.098041 -0.024372 -0.114919 -0.049351 0.046794 -0.034725 -0.027728 0.313183 
ve -0.239621 0.109914 0.369643 -0.477184 0.141583 -0.199184 0.121709 0.196258 -0.022356 -0.081178 -0.013494 -0.069778 -0.244506 0.310264 -0.002481 -0.129852 -0.122125 0.418580 0.184310 0.369815 0.084572 0.270078 -0.347438 0.132151 -0.354320 0.128543 0.085620 0.115165 -0.042363 0.089030 0.182301 0.455825 0.327011 0.450942 -0.125613 -0.331627 0.002043 0.022859 -0.418601 -0.257304 0.205357 -0.056894 -0.420594 -0.280244 0.308761 -0.027969 -0.182253 0.490864 0.053699 -1.511075 0.161131 0.193723 0.393102 0.073045 -0.199151 -0.390563 -0.396376 0.161839 -0.009155 -0.164708 -0.039210 0.129272 0.069741 -0.052216 -0.278853 -0.601111 0.353597 -0.064840 -0.199624 -0.156139 -0.329936 0.021486 -0.130948 -0.359149 0.040049 -0.076121 -0.486805 -0.274200 -0.398997 -0.089821 0.170376 0.184784 -0.221565 -0.149350 -0.028323 0.011266 0.077617 0.125293 -0.094833 0.416958 0.175227 -0.039720 0.220543 0.287704 0.242913 0.325259 0.012593 -0.250830 -0.005566 -0.151693 -0.234586 0.037426 0.051905 0.467886 0.217971 0.109745 0.137649 -0.077995 0.005867 -0.057616 0.347441 0.031573 0.111396 -0.060589 -0.064135 -0.087767 -0.103582 0.125197 0.074238 0.318978 0.095951 -0.101544 -0.232398 0.216464 -0.329318 -0.172479 0.105847 0.026187 0.145084 0.095032 0.153461 -0.058305 0.117412 0.030757 -0.102464 -0.097079 -0.156157 -0.566778 0.423146 -0.310228 0.148873 0.307435 -0.114006 -0.048137 0.183438 -0.013177 -0.184493 0.283960 -0.007593 -0.249430 -0.104939 -0.182432 0.107816 0.215544 -0.192463 -0.106613 0.324548 -0.122678 0.164980 -0.177868 0.057684 -0.163384 0.344807 0.109559 0.190103 -0.015425 -0.038535 -0.102994 -0.040143 0.414874 -0.184622 -0.293022 -0.164489 0.143418 -0.043572 0.387577 0.098985 0.114223 -0.356124 -0.144306 -0.262350 -0.046788 0.182920 -0.011447 -0.111051 0.367455 0.015002 -0.212255 -0.190935 -0.075287 -0.139820 0.093250 -0.266421 -0.054779 -0.086229 -0.094201 -0.345055 -0.044120 0.213992 0.201033 
ri -0.062801 -0.025277 -0.047495 -0.132994 -0.097704 0.142826 -0.091129 0.354096 0.082177 -0.258613 -0.327534 0.233853 -0.645808 -0.049093 0.103671 0.064200 -0.055132 1.011020 0.230760 0.308734 -0.128119 0.500911 0.045048 0.167220 -0.289877 -0.404747 -0.145080 0.201010 -0.044161 0.218949 0.180017 -0.082537 0.209573 0.220836 0.021841 -0.416294 -0.044294 0.307060 -0.350625 0.092058 0.269727 0.350563 0.135530 0.064377 0.122525 -0.106922 0.364910 0.014506 -0.019562 -0.722086 0.160515 -0.289413 0.247710 -0.020271 -0.300444 -0.393503 -0.012534 0.282910 0.249883 -0.332024 -0.002592 -0.592001 0.480839 0.071012 0.221634 -0.229202 0.212900 0.056416 0.004507 -0.154736 -0.260514 0.231850 0.233040 -0.476919 -0.097721 0.233219 -0.295918 0.244988 -0.325209 -0.008643 0.318714 -0.237819 0.308977 -0.180076 0.057113 0.198978 0.318014 0.580761 0.062705 -0.126647 0.099456 -0.451968 0.308961 0.235448 0.357222 0.265784 -0.086694 -0.092875 0.032816 -0.050022 0.255334 -0.315376 -0.398883 0.018291 0.171064 0.370335 0.156124 0.135831 -0.206840 0.053979 0.259823 0.046998 -0.372171 -0.306404 0.266821 -0.394029 -0.023362 -0.043257 0.032300 -0.005845 -0.218273 -0.108741 -0.062624 -0.015090 -0.100317 -0.187293 0.086682 0.304904 -0.027267 -0.402433 -0.046185 0.163302 0.361168 0.238422 0.003263 -0.147071 -0.441264 -0.198573 0.115520 -0.266353 -0.221773 -0.383790 0.057442 -0.262225 0.003823 -0.113880 0.051953 0.091346 -0.335605 -0.368208 -0.248873 -0.091398 0.167314 0.319861 -0.293448 0.020314 -0.027122 0.233992 0.112046 -0.272888 0.195298 -0.139187 0.096288 -0.055544 0.009185 0.389481 0.118435 0.215841 0.179570 0.074190 -0.334567 0.025224 0.099468 0.115404 0.374372 0.089241 0.379427 -0.096868 -0.404388 0.023306 0.299504 0.320511 0.465868 0.442748 -0.182310 0.277643 0.299774 -0.332497 0.000561 0.144515 -0.151844 -0.061503 -0.446456 -0.064596 0.089614 -0.492483 -0.088539 0.055872 -0.146245 -0.267692 
ra 0.375602 -0.027070 0.098900 -0.151790 0.133096 0.141892 -0.002520 -0.174669 0.110298 -0.272952 0.071479 -0.487933 0.116525 -0.002473 -0.112855 0.073454 -0.062452 -0.042836 -0.012557 -0.264153 -0.173131 -0.047637 0.157089 -0.109667 -0.234559 -0.007356 -0.209612 0.058714 -0.184307 -0.062677 0.061169 0.048962 0.238519 0.915044 -0.027037 -0.243341 0.171956 -0.478309 0.058737 0.252258 -0.060949 -0.125507 -0.049681 -0.193743 0.127692 -0.012755 -0.044230 0.201533 -0.123517 -0.628512 0.063986 -0.110880 -0.049050 0.035148 -0.035494 0.445139 -0.178504 0.501579 -0.030677 -0.058818 -0.308972 0.094651 0.188628 -0.047576 -0.164115 -0.030544 0.011283 -0.031238 0.010250 0.039027 0.334445 -0.047774 0.033420 -0.183408 -0.325768 -0.046610 -0.015195 0.122410 0.019884 -0.099415 -0.020777 -0.046862 0.056858 0.253930 -0.234697 -0.192255 0.050271 -0.117836 0.013737 -0.374341 0.178966 0.067476 0.263259 0.003964 -0.117277 0.155533 0.204373 -0.079877 -0.216351 -0.107348 -0.058674 -0.000957 0.006073 -0.244744 -0.139349 0.109326 0.037805 -0.187877 0.153498 0.171413 -0.010788 -0.004290 0.058337 -0.030172 0.063522 0.223864 -0.342036 0.218873 0.121291 0.098454 0.463649 0.388892 -0.433026 0.343907 -0.020905 0.060445 -0.104884 -0.036890 -0.053129 0.265124 -0.116334 0.138329 -0.151191 -0.067864 0.196730 -0.240612 0.097196 0.059791 0.064455 -0.044710 -0.487137 0.241438 -0.158317 0.250306 0.206413 0.274146 0.056678 0.332519 0.131620 -0.503284 0.033959 -0.021152 0.185281 -0.005427 0.070560 0.111251 -0.010775 -0.368699 0.071023 -0.324830 -0.123840 0.028204 0.246595 -0.169694 0.221203 -0.021105 -0.183212 -0.013922 0.168046 0.282728 -0.084580 -0.137059 0.275346 0.187436 0.002384 -0.132837 -0.241411 0.009770 -0.187134 0.114181 -0.536352 -0.037950 0.046055 -0.158995 -0.207044 0.302778 0.147043 -0.017063 0.143164 -0.060074 0.094287 0.054290 0.031927 0.193696 0.006006 0.215192 0.258696 -0.008837 -0.089164 0.129891 
ler -0.415067 -0.371275 0.333378 -0.216333 -0.033486 0.158494 -0.447653 0.055545 0.244831 0.212969 -0.051073 0.067665 -0.420019 0.320727 -0.350422 0.073236 -0.158430 0.822690 0.164387 0.111355 0.075639 -0.366682 -0.038245 0.205138 -0.500585 0.143406 0.559178 0.453617 -0.211401 0.278752 0.094454 -0.117477 0.126984 -0.263134 -0.111998 -0.394812 0.083095 -0.290006 -0.197925 0.629425 0.210458 -0.150693 0.104145 -0.193459 -0.271831 -0.003518 -0.019593 0.186860 0.551899 -2.214992 0.079871 -0.147403 0.275233 0.181302 -0.694184 -0.292302 -0.724116 0.374914 0.251869 -0.127939 0.060975 -0.135265 -0.099845 0.314068 -0.527430 -0.046964 0.247772 -0.260896 -0.381421 -0.127801 -0.308726 -0.046463 -0.099455 -0.424285 -0.389056 0.057215 -0.399841 -0.089320 0.079112 0.077606 -0.050438 0.337868 -0.709181 0.265628 0.365284 -0.153709 -0.192676 -0.393755 -0.052780 0.236611 0.209103 0.416576 -0.075082 -0.048310 -0.173199 0.570866 -0.164171 -0.538219 -0.172525 0.125705 -0.108333 0.070408 -0.110223 -0.084327 -0.260055 0.279547 0.136396 -0.075647 -0.058135 0.390047 0.292295 0.385925 0.184972 -0.352915 -0.165988 -0.044743 -0.479657 -0.335852 0.379740 0.583069 0.152692 -0.092201 0.253682 0.025279 -0.369931 -0.034296 0.040639 -0.393759 0.395766 -0.211581 -0.324341 -0.146502 0.159508 0.416120 0.341536 -0.265869 -0.220008 -0.674463 0.191762 0.111012 0.339018 -0.112792 -0.554532 0.018767 -0.079850 -0.046199 -0.389219 0.317942 0.038829 -0.165629 -0.082237 -0.434533 0.322581 0.134213 -0.781178 -0.282851 0.582526 -0.256514 0.157174 -0.183220 -0.383510 -0.149112 0.264081 -0.241447 -0.175656 0.397518 -0.028435 0.079382 -0.810393 0.046728 -0.455720 0.121291 0.225191 0.425683 0.074321 0.008339 0.674585 -0.323569 -0.510969 -0.054840 -0.165111 0.326767 -0.068379 -0.166703 0.216961 0.202683 -0.057253 0.067799 -0.514200 -0.458957 -0.292695 0.345611 0.318634 0.002262 0.453646 0.287028 -0.581737 0.210697 0.114691 -0.049383 
o -0.296169 -0.003032 0.204541 -0.307397 -0.015383 -0.129671 -0.126785 0.106501 -0.009779 0.244787 -0.007993 -0.121548 -0.475159 -0.080768 -0.357188 0.200965 -0.035680 0.080361 0.519478 0.181806 0.265365 0.211586 -0.069254 0.295572 -0.227822 0.650885 -0.294922 0.156235 0.318001 0.112779 0.249141 -0.111321 0.234904 -0.236603 -0.448622 -0.077570 0.211977 -0.047832 0.469685 0.118391 -0.197287 -0.063722 0.175578 0.126068 0.192290 0.331634 0.101062 0.265744 0.355117 -0.869812 -0.203219 0.101645 0.051776 0.171922 -0.197889 0.289560 -0.255971 -0.001290 -0.068033 -0.305887 -0.320280 0.147229 -0.207078 0.389525 -0.287491 -0.114773 0.275658 0.193115 -0.310290 -0.139449 0.205130 -0.155559 -0.252059 -0.312526 -0.186265 -0.170409 -0.623317 -0.233012 -0.409296 0.029367 0.005421 -0.019278 0.132584 -0.095084 -0.238880 0.056158 -0.058289 -0.123386 0.113108 -0.309577 0.551673 0.326480 -0.035772 0.486330 0.145719 0.350675 0.302085 0.063337 -0.109562 -0.359339 -0.355533 -0.029574 0.182426 -0.034886 0.328763 -0.257871 -0.062563 -0.434391 0.155061 0.027391 0.161345 0.090377 0.470532 -0.236152 -0.492086 0.301028 -0.089762 0.344773 -0.032243 0.364043 0.004450 0.213442 -0.434644 0.346703 -0.080796 0.053568 0.207638 -0.254137 -0.346470 0.751726 0.139387 -0.223767 0.211459 0.068566 0.107876 -0.429851 0.441855 -0.443344 0.268433 -0.168840 -0.292254 0.690048 -0.402838 0.291178 0.052578 0.398118 0.057241 0.095764 0.031487 -0.309333 -0.118709 -0.093959 0.043030 0.380012 -0.102138 -0.599895 0.306615 -0.203913 -0.069921 0.006006 0.196326 0.081081 0.001310 -0.196240 0.142696 -0.197485 0.230258 0.156450 -0.092601 0.725575 0.128964 0.384348 0.164758 0.633504 -0.446000 -0.197963 -0.287674 0.025557 -0.096678 0.010694 -0.636544 -0.604935 0.344808 -0.221564 0.155039 0.150701 -0.076384 0.147086 -0.241577 -0.158087 -0.280165 -0.186768 -0.005567 -0.024755 0.118483 0.514363 -0.262039 0.003221 0.135840 0.304856 
ta -0.186657 0.112922 0.136755 -0.191234 -0.105422 -0.353820 0.284370 0.051553 0.284995 0.089345 -0.354610 -0.005215 -0.355675 0.488033 0.346871 -0.168680 -0.354181 1.073051 -0.219068 0.425952 -0.058087 0.119111 -0.163909 0.149585 -0.676686 -0.118902 0.197729 0.181340 -0.252413 0.198948 0.221358 -0.190045 -0.081789 0.949416 -0.053852 -0.519139 0.151282 -0.071329 -0.094267 0.346490 0.293449 -0.166664 0.261972 -0.299578 0.268497 -0.117245 -0.238508 0.122651 -0.267025 -0.027691 0.268486 -0.075698 0.432736 -0.309776 -0.265932 -0.465994 -0.192990 0.034642 -0.015311 -0.488837 -0.178930 -0.196961 -0.063839 0.024985 -0.174831 -0.360888 0.082323 -0.088567 0.007188 -0.267749 -0.167904 0.321887 0.037111 -0.077667 0.255436 0.297869 -0.260126 -0.347826 -0.040232 -0.159683 -0.004896 0.214476 -0.201649 -0.134949 -0.079179 0.211627 0.615454 0.031615 -0.272057 -0.025801 0.095514 -0.090068 0.213556 -0.051716 0.120694 0.123138 0.481274 0.112966 -0.114117 -0.019731 -0.013493 0.128704 -0.242300 -0.251894 0.110424 0.289495 0.165009 0.366495 -0.093717 0.156216 0.177657 0.059075 -0.420116 -0.182118 0.368641 0.074407 0.124432 0.099326 0.553830 0.064507 -0.106370 0.288409 0.152643 -0.053376 0.059864 -0.010096 -0.114733 0.380584 -0.131091 0.141320 0.123905 -0.123016 -0.270821 -0.172934 0.155324 -0.213053 -0.283634 -0.412467 0.279423 0.344000 0.324005 -0.068869 -0.338206 0.117747 0.039787 -0.025864 -0.160592 0.303827 -0.003346 -0.320517 -0.286255 -0.329751 -0.373697 -0.109715 -0.280202 0.134022 0.402895 0.067172 0.315442 0.323578 0.255667 -0.078240 0.320220 -0.252951 -0.087418 0.262924 0.132973 -0.039878 -0.278995 0.144981 -0.371549 -0.632134 0.021909 -0.155496 0.122481 0.077649 0.045663 0.083559 0.018063 -0.249203 -0.156932 -0.031211 0.355562 0.105908 -0.251424 0.093074 -0.104057 -0.372719 -0.016574 -0.178984 -0.062819 -0.025446 -0.134133 0.414955 -0.015978 -0.180010 -0.050314 0.424024 -0.176178 0.091234 
li 0.524654 0.226693 0.315798 0.226306 0.120417 -0.017045 -0.180177 0.125880 -0.419598 -0.570821 0.189654 -0.251197 -0.197313 -0.035189 0.240410 0.068697 -0.134908 -0.144321 -0.274568 0.182860 -0.000593 0.414181 -0.183689 -0.164464 -0.069552 -0.483160 -0.147860 -0.157344 0.144506 0.008555 0.292808 0.076895 0.356763 0.378793 0.421548 0.181473 -0.370112 -0.053407 -0.827496 0.096002 0.049412 -0.109641 -0.069944 -0.357327 0.450688 -0.422842 -0.040277 0.558998 -0.092060 -0.406550 0.185969 0.004513 0.244887 -0.035972 0.027612 -0.122586 -0.289919 -0.026576 0.204432 0.185060 -0.079009 0.200388 0.021138 -0.089194 0.220362 0.041551 0.417249 -0.177859 -0.196166 0.168955 -0.195871 0.078837 -0.051155 -0.206587 0.221273 0.082313 -0.355257 -0.163148 0.018075 0.134487 0.240032 0.247469 -0.382913 0.434323 -0.595355 0.149686 0.147340 -0.005958 -0.051940 -0.116427 0.201097 0.034818 -0.085657 -0.018158 0.018664 0.233519 -0.002188 -0.359180 0.181395 0.007231 0.200734 0.351503 0.203358 -0.186977 -0.016904 -0.047740 0.167615 0.140585 0.291968 0.128551 -0.068903 -0.080819 -0.107270 0.054257 0.091466 -0.149621 -0.464073 0.152853 0.474645 0.172660 0.379814 -0.081221 -0.090366 0.086507 -0.217157 -0.502518 0.056676 0.427463 -0.121674 0.315131 0.115248 0.376940 0.274234 0.054129 -0.247773 0.169001 -0.267786 -0.825503 -0.159961 -0.017728 -0.453082 -0.086686 -0.427561 0.417399 -0.099989 -0.123129 -0.216353 -0.069912 -0.167543 -0.549156 -0.187282 -0.241079 -0.038882 -0.298102 -0.188381 0.087916 0.080478 -0.560203 -0.069211 -0.029726 0.274786 -0.047431 0.144003 -0.239709 0.114630 0.469563 0.126601 -0.337732 -0.027134 0.097089 -0.054840 0.238502 0.276108 0.133089 -0.155460 0.310211 -0.210159 0.328712 -0.175156 -0.152899 0.013596 0.109385 -0.147422 0.268520 -0.451123 0.445337 0.242359 -0.479879 0.201543 0.305370 0.119509 -0.087877 -0.426934 0.358921 -0.010254 0.025480 -0.362413 0.427925 -0.215562 0.190372 
na 0.007774 -0.108993 0.509722 -0.043761 -0.096724 -0.042436 0.201425 -0.038238 0.119486 0.198226 0.005613 -0.131136 0.195896 0.364843 -0.100285 -0.278445 -0.405813 -0.255849 0.104484 0.130091 -0.031819 -0.217288 -0.085262 0.223685 -0.361629 0.014299 0.047476 0.115401 0.145147 0.011601 0.138746 -0.433595 0.119507 0.293931 0.044631 -0.341365 0.354462 -0.564045 0.380665 0.096180 -0.115109 -0.129956 -0.061531 -0.320726 0.155940 0.197348 -0.392763 0.165948 0.024956 -0.149104 0.187266 -0.182221 0.239083 -0.035602 -0.182267 0.170468 -0.047783 -0.091215 -0.082881 -0.001457 0.140193 0.493526 -0.069223 -0.195546 -0.264723 0.043544 0.177895 0.055385 -0.381665 0.172412 -0.106272 -0.255042 0.005479 0.004827 -0.110292 0.153348 -0.191988 -0.360070 -0.156059 -0.055382 0.004158 0.253091 -0.193701 -0.311990 0.231093 0.254683 0.288291 0.013149 -0.221718 0.093818 0.457647 0.442634 0.040218 -0.231221 -0.110003 0.257959 0.427968 -0.135384 -0.168333 0.104769 -0.320109 0.188377 0.223396 -0.126054 -0.043302 0.025537 0.119494 -0.146719 0.030133 0.444729 -0.032974 -0.016695 0.233527 0.040158 0.156202 0.168072 -0.271319 0.020305 0.173892 0.280455 0.289309 0.053737 -0.215698 0.198514 0.285436 -0.109781 0.041248 0.115955 0.135813 0.289935 -0.016167 -0.032838 -0.065001 -0.162557 0.142661 0.079501 0.143775 -0.328676 0.207940 0.394221 0.120642 0.507026 -0.348427 0.430039 0.109541 0.065344 -0.204031 0.212811 -0.112666 -0.229364 -0.292764 -0.542217 -0.248106 -0.290458 -0.108125 -0.187656 0.230638 -0.417473 0.310380 -0.035171 -0.029063 0.186093 0.540222 -0.166410 0.016858 -0.124696 0.145340 -0.131758 -0.215991 0.459443 -0.020899 -0.103191 -0.082003 0.085717 -0.229035 -0.003414 -0.135381 -0.114648 0.185017 -0.358819 -0.561567 -0.396644 0.060575 -0.287332 -0.291507 0.092634 0.185328 -0.289455 -0.205576 0.121599 -0.054762 0.114913 -0.133138 0.298243 0.031335 0.361034 -0.297993 0.103524 0.179031 0.446596 
rı -0.395870 0.114446 0.157835 -0.511971 0.310621 -0.213419 -0.197232 -0.107388 -0.153748 0.115127 -0.150101 0.173154 -0.477131 -0.242161 -0.109688 0.147098 0.054504 1.120849 0.012296 0.269640 -0.214985 0.371911 -0.306246 0.274372 -0.064023 0.342117 0.118163 -0.047999 0.222949 0.011557 0.205094 0.119010 0.136356 -0.022743 -0.214125 -0.460621 -0.037674 0.376682 -0.233886 -0.044763 0.316970 0.110095 -0.008355 0.105560 -0.080811 0.383977 -0.252298 -0.013028 -0.041733 -0.955329 -0.019741 -0.135072 0.056804 0.078137 -0.139305 -0.300142 -0.472549 0.236856 -0.157782 -0.130746 -0.078858 -0.520816 -0.093185 0.281315 -0.111156 -0.283781 0.110446 -0.205206 -0.015281 -0.295559 -0.056846 0.053743 -0.039144 -0.442038 0.031299 0.023990 -0.293384 -0.290291 -0.225525 -0.378099 0.148741 -0.110804 -0.076075 -0.274842 0.165147 0.320266 -0.070549 -0.127831 -0.021458 -0.058981 0.144516 0.115730 0.226150 0.159447 0.064623 0.100425 0.161634 0.020489 0.094789 -0.149146 -0.274551 0.016954 -0.284123 0.270777 0.206400 0.239964 -0.078503 -0.285079 -0.163325 0.316212 0.117455 0.227304 0.251594 0.059328 0.002990 0.304674 0.383608 -0.239331 -0.001241 0.352167 -0.100240 -0.323343 0.029183 0.145057 0.064885 -0.211024 0.093508 -0.137886 -0.132590 0.082527 -0.120528 -0.185587 -0.483607 0.065330 0.055654 -0.002193 0.232425 -0.204947 0.338949 -0.187729 0.333688 -0.055748 -0.122015 -0.163683 0.304667 -0.234237 0.244193 0.018228 -0.032551 -0.331936 -0.072385 -0.212127 -0.079459 0.360395 -0.267420 -0.346659 0.124879 -0.035011 0.128748 0.015497 -0.072122 -0.223800 -0.093203 0.038558 0.129830 0.027982 0.001205 0.113650 -0.221679 0.106623 -0.167584 -0.141041 -0.030914 -0.072299 -0.006647 0.082768 0.343275 -0.166987 -0.148235 -0.280340 0.058992 0.309711 0.263130 -0.125060 0.046115 0.058404 0.212297 -0.138576 -0.152101 -0.095382 -0.338263 -0.428794 -0.115705 -0.273265 -0.010097 -0.237376 -0.405177 -0.144001 -0.130888 0.272828 
sı -0.028176 -0.178140 0.158790 -0.258865 0.425871 0.030979 -0.214175 -0.387562 0.388842 0.169120 0.141745 -0.166057 -0.142083 -0.017270 0.103162 0.085777 0.213512 0.443457 0.165725 -0.424912 -0.145658 -0.012720 -0.013238 0.321514 -0.624194 0.263152 0.021321 0.054571 -0.116008 0.124213 0.281652 -0.130702 0.081937 0.476911 -0.302031 -0.536268 0.082797 -0.170725 0.269409 0.153503 0.163922 -0.228384 0.172828 0.070506 0.027462 0.480202 -0.031291 -0.108280 -0.231753 0.688357 -0.097858 0.042406 0.250332 -0.247872 -0.155225 0.309382 -0.020676 0.325698 -0.002815 -0.557687 -0.374702 -0.184680 -0.043871 0.289696 -0.098442 -0.075169 -0.093478 0.001575 0.142610 -0.339065 0.432484 0.124317 -0.248883 -0.351636 -0.178470 -0.004754 -0.072658 0.160619 -0.319850 -0.188855 -0.065105 -0.174732 0.291334 -0.187170 -0.226034 -0.045948 -0.040520 -0.348924 -0.320361 0.155474 0.271723 -0.217788 0.449488 0.420582 0.155774 0.168491 0.483100 0.011765 -0.322471 -0.575908 -0.271535 -0.296415 -0.197875 -0.250122 0.315022 0.032945 -0.069616 0.203531 0.143499 0.025755 -0.085761 0.089968 -0.188337 -0.231495 -0.023321 0.499843 0.128695 -0.081104 -0.135757 -0.022859 0.132011 0.225796 -0.339200 0.156634 0.214623 0.203023 -0.005659 -0.048136 -0.140362 -0.079015 -0.208532 0.010175 -0.498328 -0.047740 0.565225 -0.592546 0.394167 0.109879 0.219441 0.088240 -0.428073 0.157853 -0.321212 0.139452 0.213422 0.226991 0.197513 0.435479 -0.079403 -0.517581 0.063780 0.054940 -0.046153 0.215700 0.263858 0.138411 0.058921 -0.048677 -0.019358 0.049998 0.089712 0.123520 0.069478 -0.222431 0.049366 -0.099669 0.078341 0.078210 0.119682 0.453218 -0.033453 -0.127558 0.211692 -0.008336 0.168335 -0.326384 -0.375979 -0.211232 0.053894 0.213114 -0.616368 -0.207957 0.503801 0.044720 0.345944 0.304844 0.096689 0.193277 0.043693 -0.208173 -0.237739 -0.142504 0.131644 0.053026 -0.125529 0.272440 0.221808 -0.047317 -0.113176 0.171545 
ki 0.464665 -0.247831 -0.472336 -0.014678 0.430540 0.094727 -0.215042 -0.002964 0.226006 -0.340895 -0.118490 0.008649 0.108847 0.108615 -0.703265 0.248016 -0.142960 0.292734 -0.182712 -0.418263 -0.426130 0.084176 0.247370 -0.098873 -0.538590 0.441872 0.219592 0.370859 -0.140282 0.056229 0.092957 -0.045831 -0.262843 0.294647 -0.424450 -0.480090 -0.115592 -0.133207 0.234761 0.630162 -0.227110 0.545290 0.414877 0.347456 -0.401736 0.172894 0.443821 -0.075456 0.127714 -1.671149 -0.029556 -0.522084 -0.180314 -0.155959 -0.129480 0.388023 -0.305342 0.454039 0.373003 -0.026085 -0.666996 -0.445172 0.052025 0.385390 -0.099729 0.059974 -0.052441 -0.077709 0.179953 -0.082654 0.235367 0.173948 -0.014004 -0.123060 -0.715581 0.070639 0.280531 0.539325 -0.118638 0.069869 0.062934 -0.472292 0.476219 0.247891 -0.037895 -0.485428 0.396787 0.054593 0.273761 -1.118364 -0.141202 -0.324763 -0.203805 0.280466 -0.305171 0.267065 0.202684 0.045163 -0.580289 -0.308651 0.002481 -0.400336 -0.305964 -0.386646 -0.131388 0.196164 -0.103793 0.093373 -0.025403 -0.065936 -0.082908 0.343745 -0.086686 -0.262787 0.061998 0.336798 -0.243669 0.067291 0.400653 -0.043642 -0.069268 0.179745 -0.134880 0.265051 0.108386 0.029692 0.096174 0.016975 -0.167779 0.111933 -0.559850 -0.062226 -0.368735 0.482852 0.496791 -0.456723 -0.040485 -0.228322 0.262885 -0.241589 -0.648575 -0.082512 -0.030436 -0.035416 0.127721 0.103895 0.027972 0.481253 0.004335 -0.014152 0.100897 0.166613 0.565921 0.308406 -0.323121 0.128324 0.064726 0.157192 -0.360459 -0.428262 -0.318358 -0.133876 -0.253322 -0.269844 -0.003341 0.327922 -0.215911 0.514271 0.088063 0.120910 0.030954 0.067227 0.082213 0.285490 0.098224 -0.354483 0.176636 -0.084711 -0.585901 -0.016246 -0.286781 0.314067 0.463171 0.158131 -0.280857 0.136841 -0.170453 0.366788 -0.109271 0.147308 -0.171643 -0.024962 0.442795 0.306699 0.467259 0.110579 0.351650 0.096508 -0.122686 -0.405542 
ge 0.128592 0.153858 0.129203 0.161825 -0.184710 -0.181308 -0.249571 0.386859 0.066314 0.112257 -0.214748 -0.397619 0.303247 0.393751 -0.355958 -0.487064 0.202070 0.631617 -0.205572 0.065726 -0.307427 -0.202721 -0.146423 -0.090347 -0.296821 -0.972063 0.082845 0.048341 -0.038352 -0.198631 -0.276566 0.430801 -0.115846 -0.164276 0.382517 0.246720 -0.344070 -0.391042 -0.492611 0.318365 0.425934 -0.065301 -0.269135 -0.304986 0.640754 -0.449250 -0.173876 0.333007 -0.281123 -0.101869 0.144435 0.226498 0.188358 0.424948 -0.146828 -0.810496 0.019642 -0.094702 0.680286 -0.510652 0.319699 0.228930 -0.001032 0.033881 -0.051134 -0.068354 0.121545 -0.419958 -0.508464 0.358719 -0.361876 0.312902 -0.063650 -0.011530 0.217503 -0.219876 -0.032518 -0.443467 0.624078 0.098328 0.094037 0.125216 -0.419842 0.960723 -0.228029 -0.424831 0.690330 -0.117428 0.050784 0.525690 0.157191 0.125034 -0.222407 -0.452416 -0.071899 -0.078682 0.241678 -0.532841 -0.163690 0.215634 0.275728 0.334042 -0.258897 -0.222263 -0.442516 0.331910 0.038447 -0.130985 -0.014100 -0.219449 0.280506 -0.122561 -0.336223 -0.264674 0.268124 -0.643894 -0.349956 -0.072182 0.548050 -0.033222 0.682488 -0.059704 -0.396370 -0.372921 -0.680993 -0.329142 0.000458 0.081316 0.284223 0.060384 0.143618 0.357247 0.072789 -0.001929 -0.099851 -0.154651 -0.163085 0.135353 -0.374047 0.019691 0.024064 -0.109059 -0.539108 0.118039 -0.129182 0.160876 -0.510805 0.159849 -0.085643 -0.201412 -0.284199 -0.501438 -0.219370 -0.452467 0.054793 0.162941 0.192796 -0.684772 0.125703 0.318712 -0.081373 -0.436191 0.555744 -0.233561 -0.280773 0.253762 0.054103 -0.481288 -0.275208 -0.051491 0.401702 0.567653 0.139756 -0.092143 -0.161027 0.498622 0.032871 0.425883 -0.512076 -0.176162 0.398453 0.295129 -0.349212 0.447040 -0.213621 0.289524 -0.402086 -0.231183 0.220121 0.781236 0.507109 0.180961 -0.211912 0.144658 0.014340 -0.533529 -0.397375 0.433804 0.108635 -0.268646 
i -0.078541 -0.556236 -0.471551 -0.028084 -0.056629 -0.060168 -0.157344 0.558409 0.435363 0.334346 -0.085470 0.298690 -0.345342 0.041183 -0.151695 0.319164 -0.000106 0.531319 0.172816 -0.011747 -0.553587 0.008853 -0.256561 0.166502 0.121649 -0.651199 -0.694356 0.423376 0.554198 0.002088 -0.179508 -0.366623 -0.048619 -0.723647 -0.266895 -0.383417 0.182724 0.090673 0.155875 0.221975 0.337468 0.291288 0.377525 0.316923 0.459297 -0.159628 0.074694 -0.370253 0.278494 0.104294 0.003642 -0.001120 -0.151839 0.016711 -0.394702 -0.215558 0.254408 0.003789 0.159693 -0.259864 0.129015 -0.267514 0.196968 0.306294 0.217463 0.117696 -0.069833 -0.268878 -0.047720 -0.175923 -0.242189 0.090677 0.142373 -0.447666 -0.349030 -0.212493 -0.367770 0.010225 0.175807 0.036103 0.054728 -0.271052 0.350723 0.423677 -0.283330 -0.421759 0.741154 0.403468 0.509919 -0.524667 0.148501 0.013347 0.194843 -0.031820 -0.467020 -0.200264 0.224755 0.035898 0.206970 -0.097908 0.331646 -0.321544 -0.340371 -0.288463 0.226310 0.074030 -0.206678 -0.158372 -0.144738 -0.056307 0.014237 0.026646 -0.196736 -0.391839 -0.130044 -0.361372 -0.228954 -0.112729 0.267222 -0.154551 0.072548 -0.353746 -0.522561 -0.194504 -0.332741 -0.120327 0.141737 -0.016784 0.021313 0.351151 -0.281116 0.454087 -0.319144 0.062560 -0.016796 -0.235263 -0.103509 -0.118959 -0.101526 0.093637 -0.378274 -0.169262 0.009321 -0.181748 -0.048855 0.207502 0.358087 0.024131 -0.289611 -0.008555 -0.573343 -0.305071 0.039239 0.043990 0.145805 0.023112 -0.020178 -0.071720 -0.127618 -0.058766 0.070227 -0.577756 -0.041167 -0.095033 -0.061752 0.322987 -0.017368 0.157326 0.038084 -0.095655 0.108943 0.471800 0.087821 -0.044995 -0.034994 -0.188927 0.393977 -0.161135 -0.261967 0.170663 0.452699 0.539788 -0.051809 0.242630 0.005995 -0.001415 -0.005309 0.184947 0.305790 0.486266 -0.198316 -0.140245 -0.529228 -0.308607 0.249352 -0.518988 -0.165578 0.180516 -0.289865 -0.012025 
ka 0.083989 0.365980 0.145176 0.018395 0.181161 -0.300561 0.663637 0.387936 -0.007958 -0.087986 -0.107546 -0.317337 0.358883 0.072438 0.051497 -0.350224 -0.055488 0.217723 -0.097023 -0.090737 -0.272824 -0.241330 -0.045638 -0.213056 -0.194596 -0.284614 -0.369599 0.257100 0.034960 -0.334821 0.144355 -0.008712 -0.102779 0.914662 0.238150 -0.043918 0.203833 -0.197200 0.431479 -0.303723 -0.050864 0.355211 -0.110050 -0.392976 0.429621 -0.035628 -0.463066 -0.023330 -0.820440 0.655582 -0.030836 -0.137745 0.068464 0.069499 0.459336 0.007332 0.254866 -0.245357 0.038064 -0.392012 0.128919 0.046459 0.081072 -0.114536 0.219355 -0.170982 0.231648 -0.181925 0.012691 0.452657 0.262009 0.155843 0.428254 -0.119035 0.048183 0.350769 -0.057498 -0.246265 -0.152983 -0.075883 0.013373 -0.300778 0.482330 -0.018042 -0.034469 0.134476 0.545004 0.173407 -0.116077 -0.134491 0.255224 0.172268 0.184663 -0.276403 0.095015 -0.171649 0.372199 -0.026801 -0.348958 -0.182833 -0.219953 0.213970 -0.213475 -0.127055 0.015055 0.081108 -0.082885 -0.009012 -0.093357 0.215139 -0.140219 -0.203514 0.040033 0.059472 0.623491 0.287957 0.200303 0.219141 -0.020999 -0.318863 0.577837 0.454144 -0.332214 0.095988 0.254431 -0.097246 -0.063528 0.339047 -0.260151 0.232150 0.260242 -0.106976 -0.299667 -0.432388 -0.051058 0.097051 0.141023 0.439516 0.413842 -0.196181 -0.108731 0.533856 -0.117033 0.206506 0.399140 0.265169 0.007503 0.282818 -0.323277 -0.292892 -0.310483 -0.175175 -0.567952 -0.012263 0.478170 0.073242 -0.101599 -0.247915 0.348028 0.118651 -0.076094 0.226220 0.532063 -0.156898 -0.081455 -0.401194 0.110369 -0.124669 0.171577 0.366940 0.098522 -0.163750 0.050882 -0.508209 -0.331510 0.135774 -0.586706 0.161398 -0.041564 -0.680222 -0.244896 -0.239907 0.457567 -0.112221 -0.605353 -0.011283 0.313415 -0.363184 0.177007 0.519008 0.250646 -0.050598 -0.047042 0.111633 -0.117158 -0.355487 0.170328 -0.114882 0.178521 0.396731 
ne 0.283572 0.201808 0.307873 0.101447 0.364249 -0.358112 0.206524 0.068210 -0.151114 -0.194284 0.193831 -0.293961 0.006147 0.325681 -0.146337 -0.204315 -0.083326 0.368417 -0.181715 -0.004093 -0.254537 0.213748 0.035803 0.122674 -0.455090 0.232958 -0.306799 0.118455 0.075749 -0.251358 0.244193 0.199953 0.098225 0.152052 -0.453193 0.074431 0.010111 0.228003 0.136138 -0.146142 -0.121470 0.181304 -0.097443 -0.168967 -0.062030 0.127117 -0.218069 0.271538 -0.142009 -1.172568 -0.003674 0.149939 0.152375 -0.351545 0.362357 -0.219170 -0.178229 -0.086667 -0.033682 -0.283330 -0.374213 0.054747 -0.345715 0.209279 -0.387348 -0.276567 0.224272 -0.200175 -0.262021 -0.112106 -0.069247 0.436054 -0.203612 0.016827 -0.201482 0.098722 -0.074183 -0.306916 -0.164270 0.076222 0.113569 0.028244 -0.036512 0.091112 0.143769 0.081179 0.525427 0.245603 0.247091 0.265245 0.122420 0.067158 -0.324978 0.354840 0.126803 0.136750 0.633027 -0.259194 -0.199278 -0.509059 -0.308444 0.166339 0.126849 0.314968 0.152761 0.179390 -0.128631 0.027599 0.098787 0.174095 -0.051532 0.266126 0.299511 -0.008180 0.025828 0.201673 -0.278348 0.115492 0.280843 0.226613 0.192526 -0.013085 -0.030548 -0.191950 0.036018 -0.121601 0.197938 -0.107011 -0.119392 0.449442 -0.001129 -0.086312 -0.139282 -0.106968 -0.060501 -0.358765 0.198144 -0.464488 0.613683 -0.057698 -0.250241 0.194245 -0.079194 0.088671 0.182548 0.178990 -0.198960 0.179586 0.075765 -0.047769 -0.385402 -0.197679 -0.374862 -0.177877 -0.052355 -0.175210 0.041571 -0.247739 0.034878 0.041911 -0.014264 0.076711 0.204138 0.027801 -0.013355 0.107505 0.062111 -0.014105 -0.137391 0.516676 0.090328 -0.272233 0.001497 0.005286 -0.560260 0.116245 -0.325659 0.202704 -0.387388 -0.439514 -0.283361 -0.003178 0.417857 -0.362859 -0.037716 0.074597 0.062516 0.089247 -0.104029 0.225552 -0.234441 -0.006200 -0.006985 0.405205 -0.204688 0.015654 -0.132207 -0.109156 0.193026 0.116510 
me 0.046985 -0.217618 -0.043426 -0.109995 0.248946 -0.019090 0.019769 0.122028 -0.028825 -0.136880 -0.393887 0.607799 -0.129123 -0.195763 -0.257930 -0.069885 -0.125410 1.116974 -0.028425 -0.145193 -0.288920 0.651178 -0.113778 0.108074 -0.154614 0.419508 0.254630 -0.146598 0.275587 0.187834 0.079595 -0.275065 -0.262673 -0.085258 -0.003767 -0.628111 -0.285339 0.494194 0.280441 0.374608 0.232534 0.093830 0.810806 0.053158 0.069327 -0.268160 -0.226085 0.112087 0.101371 -0.290417 -0.279457 -0.377675 -0.181386 0.037555 -0.032512 -0.165391 -0.154916 -0.595744 0.061887 -0.317037 0.040511 -0.191139 -0.498916 0.306838 -0.269202 0.270342 0.585266 -0.282646 -0.061263 0.053872 -0.129419 -0.082003 -0.351507 -0.312759 -0.036275 -0.267324 -0.282001 -0.190709 0.053388 -0.117652 0.053951 0.026074 -0.175607 0.107235 0.030724 0.105426 0.477841 -0.324982 -0.134231 -0.787682 0.056776 -0.046326 -0.147949 0.047526 -0.333566 -0.029553 0.790718 -0.363470 -0.299886 -0.020506 -0.034360 0.329204 -0.203145 -0.292200 0.243279 0.387111 0.302038 -0.152199 -0.074908 -0.003527 0.181318 0.361310 0.138297 0.182146 -0.104460 0.563447 0.310758 -0.468994 0.404874 0.106316 0.004169 -0.351893 0.329207 -0.043124 0.512356 -0.154061 -0.179092 0.138833 -0.538010 0.249768 -0.003980 -0.425548 -0.506451 0.021648 0.478469 -0.129444 0.297333 -0.022260 0.335853 -0.087380 0.127108 -0.368231 -0.007554 0.200701 -0.164290 -0.165866 0.162886 0.092389 0.326794 0.248970 -0.150748 -0.425328 -0.234753 -0.092294 -0.210225 -0.299637 0.267379 0.075799 -0.149936 0.345472 0.132284 -0.226196 -0.064323 0.215292 -0.047722 0.112851 0.352814 0.093650 -0.364736 -0.411152 0.111427 -0.027419 0.226135 0.051668 -0.156207 0.158721 0.491165 -0.176639 -0.273213 -0.565475 -0.084236 0.488210 0.045875 0.210378 -0.507747 -0.258426 -0.152832 0.179200 0.139725 -0.018436 -0.101261 -0.224482 0.462100 -0.055335 0.004749 -0.012819 -0.246700 0.426551 -0.025305 0.330501 
re -0.554163 -0.837987 -0.023027 0.228528 -0.257137 0.092229 -0.024978 0.490598 -0.000111 0.681382 0.246920 0.378375 -0.312851 -0.246841 -0.421319 0.312337 -0.089261 0.290341 0.151103 -0.015669 -0.144088 -0.270670 -0.294907 0.142176 -0.589154 -0.487409 -0.096149 0.387571 0.638329 0.003313 -0.004316 -0.326120 0.223593 0.186840 -0.156854 -0.437643 0.429426 -0.128738 -0.017269 0.618375 0.161276 0.271397 0.436189 0.075235 -0.133219 0.233051 -0.017951 -0.189939 0.125855 -1.274440 -0.178242 -0.168115 0.272096 -0.159264 -0.500951 -0.109469 -0.137610 -0.165036 0.211317 -0.318036 0.424157 0.063022 0.040189 0.523251 0.137862 0.573327 0.188110 -0.247536 -0.384592 0.034807 -0.240205 -0.127666 0.159021 -0.565980 -0.732840 -0.037525 -0.237066 -0.119248 -0.274953 0.229552 0.112216 0.107959 0.270691 0.603522 -0.139455 -0.182032 0.458300 -0.021311 0.132049 0.617776 0.386752 0.131910 0.086969 -0.172325 -0.163822 0.438854 -0.118874 0.109075 -0.199355 -0.266763 -0.098184 -0.128982 -0.259788 -0.550825 0.313329 0.048685 0.024430 0.660011 0.152356 -0.077751 -0.098838 0.069950 0.322531 -0.443245 0.188906 -0.063193 -0.450770 -0.404646 0.503134 0.172215 -0.003917 -0.115905 0.094372 -0.255286 -0.031987 -0.349758 0.349229 -0.248234 -0.085823 -0.412931 -0.631538 0.140345 0.007410 0.180252 0.326275 0.004827 0.157357 0.196435 0.069303 0.203511 -0.075337 0.281387 -0.590344 0.109472 0.009079 -0.016007 0.171197 -0.062695 -0.588014 -0.229288 -0.569461 -0.672605 -0.289101 0.187467 -0.167305 -0.155543 0.307548 -0.417878 -0.317034 -0.161269 -0.022462 0.014364 -0.067370 -0.362167 -0.368039 0.468450 0.242709 -0.225707 -0.347081 0.026799 0.406097 0.861013 0.333815 0.193523 -0.617542 -0.372462 0.323641 0.181840 -0.471742 -0.177380 0.134855 0.258757 -0.044589 -0.250536 -0.379074 -0.178283 -0.110303 0.150988 -0.158085 0.432201 -0.239506 -0.120752 -0.070096 -0.141368 0.505505 -0.000059 -0.393582 0.200068 -0.016367 0.115056 
nü -0.310206 0.824390 0.182226 -0.373454 0.185448 -0.636226 -0.932167 -0.595974 -0.567552 -0.071917 -0.743856 -0.885607 0.043325 -0.429969 -0.616570 -0.286884 0.791559 1.468700 0.022151 0.444201 0.377983 -0.011837 0.114788 -0.177474 -0.394724 0.371976 0.934099 -0.409148 -0.571635 -0.007336 0.240422 0.812362 0.126244 0.009353 0.656066 0.517295 -0.374138 -0.499973 -0.949820 0.311037 0.231159 -0.060092 -0.567523 0.379800 0.308992 0.255702 -0.002537 0.308241 -0.441084 -1.194743 0.318459 0.108756 -0.353372 1.273147 -0.093413 -0.471151 -0.613757 1.145022 0.438486 -0.163354 0.104193 -0.657588 0.223112 0.076090 -0.359611 -0.584770 0.004594 0.124571 0.130579 0.420852 0.483949 -0.240260 -0.268033 -0.077757 0.657705 -0.100734 -0.182636 -0.277085 0.213918 -0.742990 0.089323 -0.370415 -0.136497 -0.223632 0.054402 -0.236642 -1.019655 -0.806471 -0.578645 -0.301683 0.134237 0.384864 -0.001135 -0.487026 0.264934 -0.050650 -0.796067 -0.325635 0.017513 0.983690 -0.042265 0.286114 -0.193271 0.384644 -0.931407 0.195595 -0.259853 -0.646809 0.029169 -0.148825 0.606764 -0.049230 0.234595 -0.278568 0.017086 -0.146786 0.686549 0.099144 -0.456780 0.016646 0.407463 0.423088 -0.489960 0.505895 -0.578654 0.157350 -0.050747 -0.328133 0.401151 -0.235178 0.500210 -0.373605 0.544202 0.218122 -0.194535 -0.076084 0.128977 0.227479 -0.601247 -0.682991 0.816545 0.227381 -0.478801 -0.183226 0.103069 0.080839 -0.502930 0.060301 0.153356 -0.775654 0.760971 0.343753 0.676326 0.360517 -0.444690 -0.249850 0.045100 -0.121667 0.354132 -0.068948 -0.592174 -0.197788 0.235042 -0.283851 0.235647 -0.415720 -0.690719 -0.220605 -0.248738 0.143516 -0.381680 0.332143 -0.160806 0.380115 0.269440 0.423856 -0.304955 -0.011065 -0.425487 -0.034504 0.035412 -0.002752 -0.066714 0.785100 0.234070 0.839516 -0.022525 -0.574086 -0.214124 0.454380 0.694993 -0.553314 0.124696 -0.656210 0.041681 -0.163260 0.048779 -0.207207 0.241180 -0.262631 
lar -0.236738 0.196420 0.349719 -0.095683 0.252485 -0.067490 0.065565 -0.140613 -0.103502 -0.141029 -0.099350 0.139274 -0.368463 -0.023001 -0.100433 0.131495 0.038493 0.709499 0.229988 0.096711 -0.113906 0.267164 0.154175 0.421059 -0.078773 0.286617 -0.190895 -0.004520 0.143371 0.036616 0.331706 -0.251620 0.091007 -0.246258 -0.224257 -0.433140 0.169866 0.396320 0.161640 -0.174887 0.172958 0.330441 0.149130 -0.009427 -0.114446 0.355921 -0.027782 0.096236 0.001915 -0.430954 -0.050957 -0.241730 0.005946 -0.149553 -0.026592 -0.182970 -0.199722 -0.007496 -0.200544 0.016744 -0.125542 -0.371371 -0.092013 0.168353 -0.029912 -0.093070 0.234469 0.001342 -0.046832 -0.209641 0.011898 0.105387 0.048042 -0.240977 -0.209584 0.192859 -0.308875 0.023160 -0.392096 -0.338594 0.066111 -0.047524 -0.053158 -0.357389 0.565721 0.464464 -0.183844 0.217776 -0.039515 -0.189337 0.182642 0.101737 -0.066120 0.137454 0.275477 0.136570 0.400117 -0.183861 0.049047 -0.117823 -0.279264 0.028967 -0.078257 0.428453 0.090297 0.357384 -0.070024 -0.551489 -0.141765 0.615315 0.051242 0.372047 0.175802 0.155103 0.088357 0.105393 0.272625 -0.255776 -0.154593 0.400010 -0.099128 -0.253400 0.268002 0.078189 0.364729 -0.217404 0.051869 -0.033539 0.012107 0.115611 -0.100121 -0.270278 -0.179719 0.004598 0.287621 -0.152115 0.266467 -0.357290 0.458146 0.034031 0.234728 -0.164525 0.060168 -0.136835 0.107495 -0.250879 0.132645 -0.118070 -0.193376 -0.104826 -0.193152 -0.099346 -0.200871 0.177595 -0.285343 -0.427411 -0.080981 -0.008385 0.368101 -0.002878 -0.111245 0.140567 0.063280 0.198824 0.137370 -0.147617 0.032090 0.309594 -0.366473 0.233963 -0.400235 -0.457998 0.108775 0.020699 -0.028455 -0.035285 0.195147 -0.408673 0.040993 -0.350205 -0.014163 0.332272 0.411799 -0.214563 0.151869 -0.071945 0.644830 -0.163235 -0.200392 -0.195335 -0.333129 -0.324960 -0.024222 -0.204619 -0.197650 -0.006526 -0.385780 -0.393518 -0.000261 0.260449 
lan -0.395562 -0.141836 0.004675 -0.366056 0.410165 -0.067563 -0.308350 -0.098229 0.285552 0.021361 -0.250466 0.002655 0.041903 -0.201292 -0.150109 -0.051952 0.491704 1.325293 0.150104 -0.207574 -0.461242 0.019154 -0.226765 -0.001493 -0.048119 0.062751 -0.063817 0.148427 0.118495 -0.026966 -0.032043 0.240380 0.051241 0.543807 0.108310 -0.364426 0.024269 -0.073085 -0.014215 -0.120541 0.309861 -0.088576 0.020823 0.096168 0.216198 0.122019 -0.314245 -0.051963 -0.069057 0.480524 0.018288 -0.065415 -0.368214 0.183136 0.138074 0.061992 -0.093053 0.198121 -0.077370 -0.189606 0.075440 -0.482848 0.011344 0.080269 0.055110 0.046808 0.063512 -0.309790 0.075332 0.016144 0.260787 -0.053313 -0.007306 -0.344721 -0.146453 -0.225054 -0.267534 -0.015387 -0.029344 -0.427253 -0.034559 -0.136013 0.164332 0.024166 -0.083739 -0.313534 -0.280973 -0.348348 -0.146107 -0.051243 0.113728 0.070908 0.280422 -0.118276 -0.236240 -0.173963 0.088856 -0.082469 0.050214 -0.024189 -0.089393 0.007346 -0.322978 0.186161 0.032048 0.054093 -0.140310 -0.285128 -0.029772 -0.009835 0.128455 0.162865 0.143184 -0.230398 0.214441 0.291403 0.471607 -0.336954 -0.256032 0.056430 0.468930 -0.044394 -0.304226 0.070835 0.049540 0.073560 -0.199370 -0.207623 -0.000965 0.017715 -0.025733 -0.172067 -0.334738 0.088321 0.282625 -0.033860 0.198275 0.201340 0.242719 -0.335970 -0.034440 -0.033535 -0.139848 -0.092119 0.203228 0.247498 0.416415 0.242848 0.056950 -0.196187 0.216184 0.031907 0.094514 0.124622 0.119824 -0.081531 0.121284 -0.191531 0.313752 -0.126578 -0.252892 -0.152862 0.019330 0.101140 0.035725 -0.213258 -0.389208 -0.155693 -0.041690 -0.111474 0.052909 -0.156264 0.012159 -0.412464 0.142366 -0.056950 0.148484 -0.465645 -0.198874 -0.113284 -0.231819 0.286652 0.144950 0.099424 0.067766 0.046501 0.218303 0.117249 0.009732 0.178974 -0.120356 -0.474882 0.043341 -0.572765 -0.009003 -0.024237 -0.036683 -0.245126 -0.035669 0.264945 
bu -0.019176 -0.023527 0.057057 -0.057233 0.221174 -0.123498 -0.211842 0.030239 -0.055001 0.091272 0.020968 0.134064 -0.126277 -0.334525 -0.077943 0.285787 0.029387 -0.197202 0.033925 -0.130879 -0.091070 -0.072335 -0.181877 -0.090338 0.066093 -0.207095 -0.189850 0.063987 0.359996 0.029865 0.261384 -0.245022 -0.015108 -0.219853 0.038139 -0.133204 -0.025281 -0.088751 0.031472 0.093800 0.045970 0.280417 0.253832 0.092935 0.398095 0.211885 -0.057314 -0.239460 -0.262138 0.549973 -0.197110 -0.097251 0.023772 0.124622 0.032206 0.133408 -0.193244 -0.084095 0.050840 -0.079477 -0.011053 -0.024646 -0.030373 -0.019803 0.308904 0.226722 0.260973 -0.208278 0.087631 0.188031 0.166990 -0.163039 0.069542 -0.328968 0.008839 -0.009637 -0.233390 -0.098674 -0.078973 -0.129771 -0.022051 -0.288833 0.143528 0.017740 -0.427418 0.085836 -0.024944 -0.312516 -0.010438 -0.629892 0.194839 0.162059 0.193278 -0.241900 -0.342026 0.080098 0.113157 -0.025230 -0.001531 -0.058672 -0.075474 0.059200 -0.083837 -0.338214 -0.028625 -0.124002 -0.104651 -0.360174 -0.002411 0.179726 -0.005523 -0.101028 0.025099 -0.037013 -0.014206 0.014673 0.199738 -0.001989 0.053230 -0.067228 0.283556 -0.054017 -0.180342 0.346295 0.178090 -0.257512 0.075857 0.194038 -0.184914 0.244549 -0.072244 0.287298 -0.429627 -0.089781 0.116578 0.085836 0.332281 0.045319 -0.095988 0.051148 -0.110516 0.026372 -0.326449 0.188220 -0.002582 -0.025024 0.157045 0.065407 -0.301701 -0.442314 -0.051829 -0.239684 -0.138299 0.128876 0.105174 -0.142460 -0.089778 -0.115727 0.030256 0.038134 -0.172267 -0.172908 0.010136 -0.095190 0.114382 -0.053096 0.041158 0.017800 -0.087872 0.161290 -0.077272 0.300121 0.229814 -0.103941 0.036668 0.010865 -0.185878 -0.073419 0.091344 -0.086310 0.123460 0.203028 0.109121 0.105299 -0.080784 0.067726 0.367321 -0.087807 0.298470 0.300180 0.172406 -0.285783 -0.157879 -0.243571 0.030350 -0.050983 -0.169632 0.223234 -0.158958 0.452913 
ha -0.097811 -0.247970 -0.401775 -0.002326 0.015946 -0.073480 0.355470 0.601348 0.794851 0.030788 -0.357439 0.266587 -0.262500 0.526738 -0.499525 -0.193236 0.052236 0.513490 0.412081 0.244818 -0.683788 0.193857 0.029053 0.236769 -0.669169 0.002959 -0.346015 0.614196 0.002753 0.123407 -0.374658 -0.254644 -0.413458 -0.147261 -0.149036 -0.619100 0.055664 -0.065605 0.682335 0.351587 -0.033853 -0.112699 0.461730 0.303420 0.605022 -0.494615 0.112899 0.201790 0.263189 0.119459 -0.095183 -0.290898 -0.138337 0.206758 -0.101255 -0.110674 0.524640 -0.165761 0.361903 -0.650761 -0.120044 -0.487582 0.090399 0.510550 0.246482 -0.062621 0.363810 -0.162297 -0.164697 0.144516 0.036102 0.456149 -0.031714 -0.137307 -0.431181 -0.142908 -0.245609 0.115412 -0.157418 0.107918 0.137564 -0.368072 0.609195 0.288252 0.242017 -0.413705 1.118801 0.208376 0.217869 -0.214064 0.525675 -0.246910 -0.178671 0.402272 0.164427 0.060856 0.493449 -0.038396 -0.515268 -0.364948 0.044321 -0.048193 -0.729018 -0.286045 0.730756 0.223553 0.214758 0.168012 -0.383203 -0.282252 0.114992 0.265900 -0.454489 -0.231503 0.159111 0.334595 0.002036 0.086296 0.338587 -0.002904 0.125802 -0.005849 -0.293533 -0.166939 0.004754 -0.000613 -0.161391 0.173491 -0.576869 0.259901 0.091790 -0.240981 -0.465627 0.377628 0.421273 -0.681810 -0.125133 -0.087367 0.464391 -0.406251 -0.581499 -0.108173 0.127936 -0.104227 0.111743 0.774315 -0.025616 0.287503 0.075064 0.514029 -0.475045 -0.168984 -0.060175 -0.066132 0.318343 -0.000655 0.255784 -0.064850 -0.031626 0.185683 0.221044 -0.169629 0.093810 -0.043000 -0.313782 0.092218 0.082286 0.193941 -0.002005 -0.086138 0.396165 -0.096132 -0.009101 -0.207529 -0.014943 -0.078386 0.401442 -0.042722 -0.638305 -0.331382 -0.413012 -0.097849 0.397261 0.512469 -0.510497 -0.135525 -0.278677 0.181932 -0.026835 0.434294 -0.217777 -0.312790 -0.099407 -0.051094 0.036142 -0.195129 0.204058 0.198287 0.075960 -0.285470 
si -0.284134 -0.338249 -0.063455 -0.094003 0.460032 -0.092128 -0.149397 0.059033 0.028029 0.152193 -0.208049 0.279013 -0.110571 -0.243965 -0.082344 -0.219190 0.243130 1.376817 -0.076437 -0.162361 -0.350113 0.166157 -0.121419 0.068377 -0.578364 0.014812 0.240796 0.176107 -0.022240 -0.066934 0.189193 0.127127 -0.106554 1.140401 0.033858 -0.395268 0.042601 0.137224 0.055073 0.320754 0.206155 0.003502 0.363520 0.108171 -0.402183 0.002004 -0.162302 -0.111950 -0.254366 -0.255160 -0.103792 -0.126890 -0.060227 -0.129792 0.209082 -0.090659 -0.232035 -0.047432 0.131616 -0.415900 -0.127289 -0.535160 -0.092053 0.475879 -0.104312 0.171811 0.421399 -0.460654 0.067848 -0.015218 0.186157 0.238092 -0.047103 -0.261792 -0.235114 0.081463 -0.076780 -0.111329 -0.161643 -0.079714 0.144544 -0.073399 0.244001 0.000179 0.044505 -0.198868 0.315782 -0.251600 -0.214024 0.579330 -0.031696 -0.167218 -0.012517 0.037212 -0.160737 0.055256 0.065641 -0.281800 -0.313366 -0.190077 -0.078423 0.020989 -0.364988 -0.172277 0.288936 0.141779 0.038881 0.719405 0.132284 -0.060098 -0.092607 0.204103 0.014568 -0.251363 0.305846 0.603471 0.181509 -0.435155 0.197326 -0.038484 0.194480 -0.130218 0.206144 -0.373607 0.286993 -0.135847 -0.025498 -0.150895 -0.268946 -0.222600 -0.146175 -0.258512 -0.327547 0.149908 0.137296 -0.006700 -0.085927 0.052880 0.363623 -0.288908 -0.044288 -0.218367 -0.198166 -0.086703 0.038765 0.049159 0.130381 0.336308 0.047589 -0.008501 0.013644 -0.267347 0.041013 0.039269 -0.050276 0.237801 0.201177 0.043245 -0.062341 -0.009502 -0.081421 -0.089104 -0.039350 -0.128459 -0.185506 0.207777 -0.089911 -0.226136 -0.152301 -0.225969 0.065162 -0.032662 0.073341 -0.274113 -0.124590 -0.063905 0.279709 -0.291345 -0.466133 -0.390735 -0.190727 0.403561 0.273401 0.170683 -0.232556 0.061192 0.015868 0.186101 -0.185697 0.073033 -0.291581 -0.292154 0.401868 -0.208236 0.181167 -0.115348 0.053583 0.085174 0.034395 0.090658 
e -0.206758 0.370592 0.819545 -0.102433 0.227073 -0.136951 -0.492774 -0.153483 -0.653705 -0.336650 0.090905 -0.170493 -0.769520 -0.233376 0.057223 0.203471 0.314336 0.070879 0.181653 0.176658 0.403766 0.507176 0.062790 0.238546 -0.182451 0.004001 -0.113920 -0.289919 0.280375 0.191518 0.367968 0.169842 0.409234 -1.088591 -0.059427 0.200595 -0.393264 0.439233 -0.732765 -0.502010 0.205326 0.138814 -0.197057 -0.048071 0.186556 0.358287 0.363595 0.444601 0.118182 0.101920 -0.103704 0.036555 0.461043 -0.108998 -0.282614 -0.409217 -0.268069 -0.024294 0.277938 -0.059963 -0.049820 -0.095851 -0.046772 -0.024068 0.089280 -0.209140 0.327896 0.245598 -0.315811 -0.336536 -0.251730 -0.114844 -0.252362 -0.289118 0.195802 0.060012 -0.431150 0.009639 -0.533992 -0.078998 0.237047 0.164210 -0.318294 -0.060375 -0.123749 0.389880 -0.745132 0.144402 -0.177069 0.214108 0.290823 -0.103391 0.073478 0.380220 0.639680 0.401048 -0.104816 -0.325326 0.303568 -0.111405 -0.116532 -0.005231 0.165718 0.415939 0.205247 0.010433 -0.085969 0.151967 0.409863 0.241746 0.143579 0.131036 0.075851 -0.260794 -0.269091 -0.556048 0.013063 0.006035 -0.126034 0.462860 -0.234371 -0.164832 0.004774 0.049970 -0.003311 -0.382419 0.259213 0.090918 0.107927 -0.064488 0.126526 0.092541 0.450435 0.227947 -0.126804 -0.102870 0.295921 -0.733569 -0.185649 -0.038361 -0.047361 -0.094032 -0.532346 -0.070856 -0.163335 -0.360805 -0.135328 -0.346698 -0.444953 -0.526978 -0.061924 0.031920 -0.071554 0.332952 -0.448130 -0.446902 0.087471 -0.136275 0.070763 0.035617 0.043748 0.051637 0.045017 -0.142556 -0.013659 0.040347 0.280931 0.173608 -0.326114 0.612266 -0.197552 0.423886 0.299552 0.434697 -0.119835 0.196772 -0.166192 -0.030714 -0.232674 0.052447 0.244591 0.039005 0.396474 0.154865 0.554728 0.426109 0.405183 -0.357610 -0.227076 0.037385 -0.111993 -0.040889 -0.468843 -0.074393 -0.070151 0.113812 -0.680844 -0.115275 -0.037946 0.098232 
sa 0.357942 0.374997 0.272017 0.031418 0.430141 -0.180786 -0.543113 -0.225543 -0.069490 -0.451774 -0.371359 -0.323106 0.181661 -0.032306 -0.334086 -0.156962 0.249521 0.303388 -0.004628 -0.309246 -0.207138 0.242841 0.236784 -0.016060 -0.161491 0.111024 0.258461 -0.136508 -0.049831 0.007385 0.034147 -0.057559 -0.254386 -0.456459 0.228340 0.061444 -0.458395 -0.225047 0.035406 0.127781 0.102356 0.108130 0.087862 -0.022138 0.534409 -0.140643 0.014405 0.364373 -0.213880 0.978198 -0.051435 -0.338794 -0.230594 0.380322 0.157724 0.017924 -0.084167 -0.052863 0.504550 -0.182297 -0.038550 -0.081976 -0.345044 -0.029786 0.103996 0.201655 0.292250 -0.161775 -0.103832 0.246617 0.222831 -0.053379 -0.198987 -0.033974 0.185469 -0.029371 -0.111154 0.055146 0.266469 -0.294290 -0.014485 -0.162515 -0.160543 0.183475 -0.144094 -0.230267 -0.189990 -0.446650 -0.176119 -0.804046 0.223406 0.158687 -0.269660 -0.224524 -0.227414 -0.125018 0.588396 -0.470554 -0.247840 0.288365 0.095577 0.354257 -0.076239 -0.166829 -0.344098 0.206123 -0.040024 -0.354527 0.030908 0.198593 0.122682 0.218380 -0.065583 -0.052787 0.141305 0.022522 0.115619 -0.049730 0.137906 -0.013202 0.435532 0.077505 -0.182053 0.258595 0.163248 -0.148938 -0.156718 0.167095 -0.024673 0.317040 0.232237 -0.074179 -0.225188 0.185462 0.271495 -0.224357 0.308010 -0.192009 -0.270425 -0.128293 -0.244978 -0.108055 -0.499622 0.372930 -0.200382 0.228868 -0.146007 0.206156 0.015014 -0.163634 0.141379 -0.065726 0.091867 -0.116171 -0.060449 -0.162914 0.062079 -0.333664 0.182688 0.148603 -0.154729 -0.135178 0.177041 -0.133044 -0.034274 -0.198822 -0.039067 -0.026481 -0.359610 0.100832 0.003643 0.224808 0.309766 0.081738 0.147561 0.196575 -0.196870 -0.143497 -0.224921 -0.319087 -0.101772 0.191729 0.026308 0.554060 0.015715 0.276018 0.214080 -0.147308 0.205640 0.434556 0.300063 -0.153888 0.190541 0.050390 -0.102544 0.146355 -0.062577 0.256656 0.041261 0.150078 
ye 0.294640 0.222234 -0.202987 0.009518 0.282515 -0.121250 -0.268675 0.144539 0.017415 -0.225479 -0.380185 -0.011251 0.421004 0.168592 -0.710965 -0.144034 -0.026893 0.788756 0.012248 -0.305694 -0.043608 -0.052185 0.133198 -0.180053 -0.072832 0.455577 -0.116099 0.109445 -0.168294 -0.002739 0.234736 0.118480 -0.092658 -0.321171 0.023031 0.012504 -0.376547 0.028835 0.190210 0.297058 -0.039639 0.505084 0.168554 0.251116 0.172080 0.065051 0.138437 0.057667 0.060672 -1.237118 -0.059313 -0.151444 -0.366820 0.418936 0.166583 -0.175913 -0.131282 0.082156 0.278804 -0.093607 -0.256321 -0.163499 -0.177053 0.084127 -0.248704 -0.263641 0.045915 -0.083536 0.064222 0.324229 0.114116 0.069757 -0.148301 -0.169739 -0.156775 -0.213005 -0.118967 0.218189 0.099654 -0.158615 -0.016749 -0.487053 0.192814 0.117984 -0.172000 -0.263588 0.267689 0.026351 0.184902 -1.352852 -0.003095 0.044119 -0.328682 -0.022808 -0.210352 -0.109893 0.221686 -0.367558 -0.282698 -0.055354 0.009840 0.046398 -0.170147 0.025360 -0.437921 0.109669 -0.265218 -1.150948 -0.307782 -0.056153 0.371377 0.024792 -0.053578 -0.240969 -0.205666 -0.063750 0.151099 0.086758 -0.053477 -0.164493 0.318792 0.067393 -0.273796 0.329144 -0.179321 0.115363 -0.125683 -0.095859 0.097961 0.179200 0.008016 -0.095866 0.291949 0.050056 0.290862 -0.445254 0.229287 -0.042654 0.190577 -0.415111 -0.083157 -0.232419 0.141464 0.020338 -0.049212 0.053167 -0.110328 0.325837 0.016912 0.052447 0.115747 0.202184 0.319055 -0.018885 -0.272490 -0.360908 0.045779 0.026797 0.093090 -0.135087 -0.328426 -0.313895 0.136026 0.147066 0.100108 -0.075333 -0.095105 0.322941 0.055592 0.088059 0.037354 0.054482 -0.076609 0.211546 0.107794 0.200037 0.129734 -0.084963 -0.503287 -0.210736 0.118659 0.316604 0.303654 0.313654 -0.145849 0.029777 -0.108332 0.207161 0.047355 0.357854 0.244685 -0.051031 0.349730 -0.120058 0.026585 -0.185834 0.025946 -0.001860 0.059012 -0.149651 
lı 0.060497 0.190710 0.019503 -0.588629 -0.185922 0.111773 0.040115 0.050152 0.498933 -0.106201 -0.313995 -0.072267 -0.289456 0.308147 0.247415 -0.163655 -0.251765 -0.210354 0.123081 0.217680 0.011699 0.171521 -0.033178 0.051041 -0.113979 -0.151075 0.202057 0.185045 -0.218113 0.326419 -0.014823 -0.195223 -0.134804 0.349492 -0.021462 -0.550852 -0.103628 -0.226303 0.135455 -0.169492 0.026762 -0.039170 -0.114837 -0.190651 0.568745 -0.074478 0.136924 0.039208 -0.088546 0.305804 0.230789 -0.191358 0.426599 0.219447 -0.533431 0.058164 -0.000559 0.211706 0.128356 -0.260578 0.017255 -0.002585 0.161516 -0.321047 -0.051126 -0.455829 -0.080600 0.344256 -0.024288 -0.220024 -0.212476 -0.132215 0.070238 -0.341213 0.217785 -0.044834 -0.126023 0.019801 -0.182329 -0.176844 0.073936 -0.135450 -0.035479 -0.351971 -0.078497 0.046440 -0.006930 0.083450 -0.194073 -0.638910 0.145345 -0.176544 0.714493 0.112175 0.096976 0.059250 0.358861 0.061432 -0.115525 0.185144 0.228842 -0.234992 -0.134538 -0.292889 -0.088405 0.240128 0.175045 -0.363443 -0.274961 0.187108 0.261893 -0.164013 -0.407465 0.153417 -0.007436 -0.087311 0.101985 0.360794 -0.024653 -0.155464 -0.016005 0.296896 -0.542488 0.530035 -0.178289 0.288382 0.030087 0.488749 -0.095855 -0.054174 0.345279 0.060271 -0.401785 -0.031644 0.197557 -0.284096 -0.176992 -0.115821 0.046647 -0.013725 -0.052514 0.204895 -0.034248 0.048606 0.134604 0.091661 -0.009930 0.451428 -0.036769 -0.530907 0.066252 -0.096429 0.149986 0.334946 0.122540 0.064561 0.023317 0.294845 0.186771 0.095164 0.234901 -0.193480 0.377566 -0.106788 0.249953 -0.170477 0.258351 0.331679 0.153516 0.316435 -0.458945 -0.213780 0.012898 0.181411 0.674371 0.208574 -0.026444 -0.105169 0.164643 0.172731 -0.271402 -0.354641 0.330341 0.285306 -0.076060 0.314260 -0.032706 -0.432410 0.244943 -0.346357 0.165070 0.309984 -0.284348 0.163170 0.067262 -0.149482 -0.055941 0.248498 -0.083366 0.078382 
nın -0.122478 -0.099350 0.396787 -0.160400 0.209710 -0.172329 -0.080065 0.016650 0.285110 -0.107358 -0.302677 0.000987 0.010636 0.407896 -0.032650 -0.275321 -0.138344 -0.199646 -0.035857 0.007864 -0.129477 0.074062 -0.203090 0.082320 -0.850969 0.251977 0.453674 0.265088 -0.091942 0.174472 0.003424 -0.104395 -0.174308 0.223139 0.233147 -0.356020 -0.283317 -0.578682 0.046918 0.189540 -0.055688 -0.275732 0.138302 -0.189800 0.486498 -0.198609 -0.175162 0.392495 -0.112525 0.820906 0.051535 -0.300003 0.169033 -0.064690 -0.134428 0.037134 -0.021891 -0.163555 0.362674 -0.305568 -0.045049 0.107936 -0.222491 -0.051914 -0.061409 0.062826 0.303630 -0.061849 -0.247176 0.183850 -0.049213 -0.118545 -0.131088 -0.034359 0.102465 0.094644 -0.297413 -0.046702 -0.088008 0.048626 -0.104311 0.062326 -0.049099 0.011182 -0.210827 -0.250115 0.204011 -0.404628 -0.590726 -0.210052 0.347898 -0.046517 0.044951 0.076463 0.036567 0.227683 0.378058 -0.056301 -0.416540 -0.063572 -0.188928 0.220378 -0.080997 -0.469741 0.267752 -0.058103 0.228633 0.610800 0.150863 -0.168714 0.057793 0.166397 -0.198764 -0.230594 0.148667 0.396525 0.039314 0.111864 0.387174 0.001445 0.136996 0.324789 -0.151241 0.269346 0.332446 -0.105793 -0.294977 0.408303 -0.293577 0.258353 0.082651 -0.267807 -0.388913 0.356973 0.410753 -0.207246 0.039096 -0.332125 0.292629 0.008547 -0.189867 0.259149 -0.655555 0.407391 -0.038252 0.259742 -0.165425 0.472629 -0.004137 -0.077494 0.036790 -0.285565 -0.127859 -0.091963 -0.180045 0.093858 0.630456 -0.196258 0.122903 0.168004 0.057281 0.066766 0.326034 -0.336449 -0.300075 0.005226 0.033163 -0.140678 -0.255556 0.182727 0.250869 -0.205114 -0.057982 -0.147869 -0.012747 0.078397 -0.279977 0.080598 -0.310446 -0.328523 -0.724552 -0.498815 0.304112 0.342128 -0.325153 0.145079 -0.254496 -0.094641 -0.154041 0.178162 0.082687 0.002177 0.168474 0.281904 0.130882 0.463597 0.186606 0.578812 0.132751 0.165730 
bi -0.251046 -0.115910 0.141113 -0.036908 0.368521 0.046194 -0.172509 -0.198614 0.232133 -0.027939 0.204771 0.135146 -0.349682 0.169792 0.165915 0.004597 0.075191 1.117792 0.053282 -0.012034 0.279959 -0.151244 -0.137864 0.029066 -0.403154 0.192817 0.318375 0.102606 -0.365864 0.266319 0.305713 0.074528 0.164692 -0.053448 0.297052 -0.341743 0.066617 -0.059609 -0.326071 0.046194 0.156976 -0.388794 -0.016072 0.015394 -0.264493 0.042849 -0.036894 0.226089 0.135340 -0.114746 0.055250 0.052049 0.190526 -0.002752 -0.159935 -0.239269 -0.248164 0.179884 0.032359 -0.111200 -0.217275 -0.056495 0.149051 0.175603 0.001714 -0.182064 0.130824 -0.059717 0.278899 -0.240509 0.032758 0.026411 -0.175351 -0.133928 -0.114943 0.217817 -0.290915 0.200896 -0.386224 0.023056 0.010689 0.275347 -0.214351 -0.038731 -0.010482 0.052900 -0.216732 -0.246421 -0.448534 0.402657 0.110977 -0.112297 0.119990 0.241214 0.326143 0.315480 -0.354073 -0.306833 -0.078467 -0.130587 -0.223147 -0.051357 -0.122267 0.044243 0.215556 -0.146524 0.221302 0.422912 0.108223 -0.007601 0.091125 0.139213 -0.291330 -0.250033 0.078182 0.089568 0.157259 -0.158335 -0.111259 0.250637 -0.098660 0.010665 0.061594 0.054714 -0.012785 -0.072145 -0.019734 -0.038635 0.113575 -0.399284 -0.045814 -0.139288 0.285180 0.332536 0.209300 -0.102063 -0.029784 -0.799710 -0.046400 -0.122898 0.049851 -0.213579 -0.106785 0.014079 0.082029 -0.099639 -0.122439 0.368205 -0.057988 -0.050745 0.264426 0.179083 0.325287 0.170752 -0.103845 0.120204 0.318589 0.023330 -0.048781 -0.025120 -0.002894 0.185063 -0.053407 0.029305 -0.073265 -0.010922 -0.031660 -0.165844 -0.121351 0.110274 -0.266920 -0.140545 0.152830 0.067386 0.291740 0.003575 0.201793 -0.324605 -0.132846 0.034208 -0.249112 -0.067928 0.308272 0.094866 0.132595 0.267385 0.160534 0.000059 -0.220695 -0.257457 -0.183312 -0.083779 0.051109 -0.113243 0.136206 0.222019 -0.052906 0.028586 0.009369 -0.021261 
rin 0.543642 0.120928 0.142340 0.253077 0.091905 0.103115 -0.131834 -0.163624 0.080948 -0.205702 0.229106 -0.127788 -0.387040 0.141155 0.286590 0.072012 -0.177768 0.887926 -0.154236 0.048522 -0.136042 0.161740 0.206939 0.196641 -0.260160 -0.373338 -0.198081 -0.071274 -0.199001 0.081883 0.441402 -0.308184 0.103230 0.401961 -0.056619 -0.188783 0.159689 0.087349 -0.074221 0.370525 0.061967 -0.115222 0.277736 -0.194114 -0.082144 -0.024158 0.052341 -0.006715 -0.190269 -0.156257 0.018376 -0.031765 0.338262 -0.306902 -0.023899 -0.078909 -0.208614 0.046093 0.123924 -0.302404 -0.481481 -0.009235 0.009335 0.168267 -0.038726 -0.065143 0.203544 -0.159850 -0.086884 -0.228642 0.024143 0.455879 -0.001666 -0.079307 -0.014269 0.175409 0.099055 -0.159825 -0.103803 0.188519 0.227686 0.166250 -0.294134 0.125190 -0.193415 0.415406 0.590187 0.052625 0.139369 0.136343 0.063716 0.016443 -0.061902 0.093057 0.012527 0.310535 0.574834 -0.332005 -0.058412 -0.317001 0.117390 -0.024316 0.034536 -0.356514 -0.056727 0.185973 0.124994 0.098161 0.078156 0.448585 -0.101283 0.009967 -0.436818 0.004329 0.026232 -0.099383 -0.362191 0.133371 0.462319 0.124195 0.079842 0.035408 0.080566 -0.215473 0.002087 -0.187337 0.119253 0.234352 -0.146482 0.179805 0.016521 0.449570 -0.125461 -0.161633 -0.000435 -0.245481 -0.138166 -0.610245 -0.102115 0.333848 -0.429206 -0.341254 -0.187640 0.249145 -0.048541 0.002304 -0.224346 0.258470 -0.028394 -0.512390 -0.246374 -0.332632 -0.120682 -0.273574 -0.048651 0.125654 -0.172536 -0.244787 -0.042026 0.129512 0.301735 -0.061919 0.152919 -0.207996 0.156913 0.509198 0.329848 -0.053949 -0.049327 0.264583 -0.392152 0.015149 0.464552 0.202742 0.061423 0.013953 -0.022112 0.002787 0.149147 0.084728 -0.050765 0.152693 0.252426 -0.043662 -0.044742 0.331574 0.315250 -0.148916 0.159137 -0.146447 -0.108816 0.051411 -0.319932 0.581949 -0.105737 -0.038714 -0.221996 0.397706 -0.310723 -0.016266 
ke -0.487039 -0.086130 0.242989 -0.576710 0.105008 -0.190319 -1.391672 -0.029287 0.002770 0.533311 -0.282739 0.189326 -0.273355 -0.161282 -0.199680 -0.329760 0.299945 -0.329105 -0.105742 0.129076 -0.250430 -0.016299 -0.140435 -0.006925 -0.379645 -0.390947 0.615679 0.087301 0.469894 0.208110 -0.218507 0.187396 -0.070813 -0.028127 0.016819 -0.114249 -0.607582 -0.297458 -0.735260 0.352071 0.239612 -0.091851 -0.163159 0.123715 0.133610 0.167395 -0.066247 -0.353175 0.069929 -0.075307 0.116416 0.080512 0.354634 0.454173 -0.166832 -0.424012 -0.268429 0.274150 0.561306 -0.110084 0.421214 -0.442509 -0.068997 -0.167006 -0.022536 0.418180 0.096305 -0.334366 -0.433895 0.091888 -0.434319 -0.234566 -0.344547 -0.035387 0.284306 -0.539302 0.004145 -0.544767 0.580539 -0.093073 0.151631 0.060804 -0.324831 0.070312 -0.263867 -0.548065 -0.360627 -0.717815 -0.269985 0.540948 0.031391 0.206597 0.119215 -0.473267 -0.665274 0.223490 -0.068301 -0.248038 0.167283 0.367904 0.249772 0.199818 -0.359326 -0.151363 -0.495476 -0.060078 0.109834 0.182716 0.114548 -0.187237 0.512015 -0.042263 -0.097023 -0.462104 -0.125982 -0.172500 0.069310 -0.375578 0.298288 0.113836 0.197983 -0.457632 -0.108374 -0.031425 -0.185741 -0.201670 -0.039372 -0.255611 0.349742 -0.460664 -0.027572 0.577528 -0.218889 0.577638 -0.064836 0.021576 0.047215 0.056163 -0.330966 -0.273305 0.405424 -0.375436 -0.895234 -0.020921 -0.541279 0.052221 -0.162951 0.326338 -0.115388 -0.491233 0.326997 -0.425341 0.217649 -0.208784 -0.425314 -0.031234 0.136174 -0.011090 0.130671 0.061929 -0.380320 -0.670975 0.265110 -0.156945 0.104720 0.450935 -0.078570 -0.389747 -0.678563 -0.207313 0.193266 0.718213 0.003018 0.052936 0.546055 0.318686 0.420766 0.053260 -0.418547 0.000983 0.518864 0.624057 -0.318492 0.668270 0.375532 0.227528 -0.230988 -0.173835 -0.239695 0.681298 0.503590 -0.089337 -0.075285 -0.199817 0.230630 -0.169205 -0.527215 0.618767 0.229143 -0.079211 
den 0.038043 -0.009141 0.188086 -0.144476 0.433952 -0.214306 -0.481961 -0.125622 -0.273023 -0.179500 -0.023666 -0.289886 -0.407266 0.050293 -0.209913 -0.152859 0.316067 0.742811 -0.157589 0.191823 -0.254307 0.588219 0.085059 0.214341 -0.805279 0.228836 0.304083 0.152369 -0.048744 -0.168970 0.120387 0.569874 0.116793 1.059223 -0.325188 0.056799 -0.126857 0.159084 -0.398423 0.168310 0.013838 0.055731 -0.108469 0.025660 -0.660404 0.110115 0.160261 0.310239 -0.019898 -1.365660 0.107609 0.024821 0.113114 -0.355930 0.179938 -0.163047 -0.562528 0.396201 0.190103 -0.239288 -0.459745 -0.586605 -0.138462 0.536059 -0.263781 -0.008018 0.408643 -0.257889 -0.296303 -0.154740 -0.003566 0.487170 -0.316897 -0.059867 -0.319372 0.229475 0.066697 -0.161604 -0.133732 0.117413 0.337992 0.121345 -0.113417 0.100929 0.250859 -0.213069 0.038893 0.039685 0.095193 1.209867 -0.065700 -0.258166 -0.341107 0.480300 0.202027 0.367096 0.130531 -0.238897 -0.171511 -0.270040 -0.165149 -0.021012 -0.010066 0.247597 0.187603 0.165128 0.017345 0.898727 0.459819 -0.016984 -0.046108 0.424645 0.241368 -0.307721 0.212434 0.324470 -0.290987 -0.206588 0.298579 0.390474 -0.007058 -0.181033 0.234550 -0.502322 -0.010226 -0.227793 0.243491 -0.336679 -0.127922 0.039352 -0.134133 -0.195585 -0.097349 0.486520 -0.120124 -0.066806 -0.223199 -0.645749 0.452198 -0.360943 -0.333588 -0.104572 -0.498585 -0.124783 0.018490 0.080012 -0.140786 0.231943 0.184778 -0.191801 -0.029405 -0.085698 0.195886 0.111912 -0.443422 0.083276 0.209593 -0.131052 -0.093456 -0.118894 0.090326 -0.059315 -0.067480 -0.289250 -0.117182 0.573123 -0.226797 -0.187477 -0.282814 0.301006 0.148789 0.055738 -0.000075 0.168335 -0.359221 0.022418 0.083816 0.062162 -0.728140 -0.251104 -0.377335 0.145119 0.333780 0.003323 0.097785 0.383079 -0.117874 0.110549 -0.499615 0.159706 -0.508950 -0.262896 0.191759 0.204988 0.268772 0.256767 -0.131287 -0.069805 0.174233 -0.222312 
ol 0.133065 -0.214550 0.009829 0.063923 0.378520 0.199640 -0.312367 -0.451281 0.204286 -0.316916 -0.345876 -0.156623 0.389598 0.014792 -0.343152 -0.041523 0.229572 1.510759 0.038491 -0.623000 0.022961 -0.225820 0.048042 0.042818 -0.564823 0.213547 0.496254 -0.209760 -0.496579 0.183077 0.257739 -0.299103 -0.046078 0.292692 0.433575 -0.370286 -0.104903 -0.591792 0.056702 0.533788 0.002080 -0.141478 0.223075 0.021492 0.015659 0.064911 0.076374 0.183988 -0.116208 0.714529 -0.064748 -0.495359 -0.055712 0.159449 -0.181894 0.394832 -0.329627 0.311712 0.254433 -0.293381 -0.272157 -0.008306 -0.011141 0.026854 -0.099113 0.231429 0.251231 -0.071705 0.089604 0.231150 0.464358 -0.303210 -0.403991 -0.182342 -0.196716 0.234412 0.016183 0.483953 -0.050363 -0.213387 -0.150171 -0.145726 -0.242875 0.119508 0.025491 -0.188175 -0.301451 -0.776762 -0.650442 -0.916974 0.171518 -0.000822 0.121982 -0.288801 -0.295565 0.199330 -0.020631 -0.526822 -0.446413 0.172365 -0.248789 0.097771 -0.263352 -0.442493 -0.235668 0.099543 0.106379 0.129974 0.267900 0.034480 -0.036205 0.319167 -0.154450 -0.163805 0.293663 0.412452 0.060861 -0.231736 -0.013938 0.178389 0.441725 0.313407 0.000825 0.523830 0.471057 0.022014 -0.276612 0.171764 0.070192 -0.244179 -0.235134 -0.261511 -0.194046 0.301921 0.711854 -0.238684 0.234536 0.152037 -0.280920 0.110553 -0.163037 -0.341131 -0.447965 0.458895 -0.033464 0.038671 -0.255790 0.434280 0.158016 -0.225098 0.442091 -0.073561 0.539891 -0.001281 -0.053472 0.249636 0.366538 -0.193737 0.257226 -0.155139 -0.418591 0.111043 0.226626 -0.201846 -0.113397 -0.081570 -0.241891 -0.077460 -0.343090 -0.100032 -0.188231 0.020838 0.398309 0.100593 0.251408 -0.151067 -0.073390 -0.520677 -0.151829 -0.038301 -0.566756 -0.064820 0.166428 0.394679 -0.149189 0.267101 0.272964 -0.011498 0.044375 -0.028574 0.275761 -0.026242 0.384567 0.005178 0.129558 0.479023 0.276727 0.188607 -0.037587 0.122535 
te -0.340237 -0.200240 -0.069182 0.130015 0.077856 -0.402264 0.291135 0.707127 -0.036067 0.292112 0.138686 0.345269 -0.272197 0.013813 -0.131521 0.240500 -0.350917 -0.423643 0.150184 0.288560 0.018230 0.101103 -0.414580 0.164782 -0.107611 -0.180425 -0.273796 0.192201 0.454694 -0.107622 0.301421 -0.143085 0.251444 -0.781171 -0.149396 -0.320926 0.029219 0.270641 -0.274733 0.186215 0.190624 0.323266 0.075706 0.162409 0.609969 -0.174003 0.010486 0.093677 0.109000 -2.117166 -0.101760 0.137569 0.150997 0.223508 -0.321297 -0.487898 -0.062745 -0.021309 0.122997 0.032732 0.225956 0.123785 0.098026 0.299178 0.066431 -0.164075 0.220860 -0.052891 -0.041075 0.001275 -0.349497 -0.036128 0.094848 -0.458741 -0.074124 -0.195095 -0.629389 -0.205058 -0.344786 -0.001568 0.185644 -0.230111 0.299575 0.003431 -0.297148 -0.096603 0.709102 0.282731 0.196789 -0.276208 0.259754 0.129413 -0.074490 0.092023 0.003779 0.039533 -0.285247 -0.113199 0.019925 -0.285457 0.035014 0.076984 -0.036063 0.078794 0.399561 0.065492 -0.074706 -0.156038 -0.241886 -0.161337 0.216273 -0.097182 0.063347 -0.102202 -0.389241 -0.363733 -0.196137 0.100128 0.161789 -0.195658 -0.169783 -0.311933 -0.105917 0.191646 -0.381360 -0.310057 0.122289 -0.087697 0.107927 0.215313 -0.154069 0.171375 0.409642 -0.099550 -0.134800 -0.267572 -0.067237 -0.321021 0.097206 -0.190974 0.090252 0.172982 0.140708 -0.044389 0.133105 -0.125399 -0.046905 -0.000733 -0.509675 0.158413 -0.658427 -0.336739 0.029744 0.185544 -0.120488 -0.154703 0.121791 -0.160355 -0.230680 -0.318161 0.071481 -0.277937 0.031711 0.149237 0.063462 0.150972 0.080363 0.014599 -0.038447 0.137740 -0.055656 0.195281 -0.084204 0.280438 -0.227222 0.193505 0.131538 0.446206 -0.528098 -0.228005 0.408924 0.379912 0.004820 0.308114 -0.402443 0.071151 0.229874 -0.233010 0.016083 0.435309 0.008530 -0.159967 -0.380595 -0.285120 -0.054054 -0.501235 -0.203325 0.127879 0.069806 0.213573 
lu 0.469300 0.281702 -0.274383 0.159344 -0.260710 -0.370418 -0.174886 0.704731 0.666173 -0.154409 -0.815898 -0.509531 -0.164191 0.845374 0.136525 -0.657057 -0.164598 0.498515 -0.306720 0.957214 -0.883049 0.053170 0.122898 -0.118627 -1.069359 -0.558885 -0.160695 0.977027 -0.448423 -0.227441 -0.116354 0.188290 -0.385323 1.647853 0.343647 0.081297 -0.128115 -0.888602 0.053683 0.723211 -0.151898 -0.239859 0.054240 -0.043488 0.826860 -0.958739 0.055354 0.004426 -0.581247 -0.366634 0.682857 -0.208573 -0.148303 0.272897 0.216491 -0.216260 0.411385 0.706792 0.624945 -0.500649 -0.262271 -0.789039 0.502646 0.196729 0.262048 -0.284576 -0.033220 -0.246593 -0.292081 0.455205 0.156254 0.802877 0.582824 0.400357 0.288109 0.233102 -0.049597 -0.502834 0.472360 0.454071 0.319733 -0.387558 0.490412 0.244736 -0.285346 -0.661588 1.509113 0.209280 0.155639 -0.157156 0.192122 0.112429 -0.369917 -0.057256 -0.079854 -0.013486 0.347183 0.228913 -0.298627 0.115780 0.480019 0.109178 -0.344413 -0.652431 -0.217115 0.042983 0.012593 0.717947 -0.137060 -0.166138 0.071631 -0.276659 -0.822479 -0.612486 0.468364 0.150258 -0.218529 0.816082 0.937044 -0.726742 0.342715 0.960673 -0.717721 -0.360861 -0.569087 0.093389 -0.374262 0.305172 -0.425940 0.751997 0.604070 0.345449 -0.217852 0.292834 -0.464825 -0.534315 -1.141054 -0.392943 0.367206 -0.362996 -0.768528 0.299202 -0.414180 0.083273 -0.065113 1.090933 -0.343896 0.779373 0.026596 -0.454150 -0.296366 -0.211489 0.100087 -0.491214 -0.029556 0.453358 0.359857 -0.282925 0.177068 0.017062 0.424575 -0.374300 0.519214 -0.815977 -0.117900 0.804995 -0.229779 -0.278638 0.330528 -0.002366 0.091783 -0.229234 -0.383422 -0.428296 0.185172 0.152557 -0.213907 0.572499 -0.659115 -0.227477 -0.577733 -0.488042 0.438452 0.897498 -0.746605 0.613799 -0.487998 -0.448372 -0.143052 0.830486 0.097843 -0.210741 -0.321823 0.596543 0.258198 -0.319783 0.709062 0.816958 -0.041432 -0.547714 
ni 0.084534 0.014662 -0.005604 0.123133 0.286293 -0.502993 0.451015 0.675283 -0.183578 -0.020997 0.104880 -0.123637 0.167496 0.189632 -0.259945 -0.189341 0.019536 0.386794 -0.178680 0.152397 -0.425140 0.323165 -0.440433 -0.023025 -0.131240 -0.321201 -0.630197 0.099604 0.399224 -0.485904 0.068023 0.583232 0.238487 -0.162472 -0.095054 0.023276 -0.177355 0.309276 -0.363430 -0.225865 0.315771 0.279852 -0.323242 -0.034961 0.687878 -0.262595 -0.290193 0.266528 -0.296428 -1.903095 -0.049730 0.250079 -0.108042 0.159768 0.136158 -0.654150 0.134673 -0.098229 0.129699 -0.150716 0.196467 0.143818 -0.004562 0.286391 -0.018558 -0.496224 0.142095 -0.287996 -0.254584 0.169668 -0.344487 0.267849 0.055901 -0.413459 -0.060347 -0.323395 -0.252671 -0.429030 -0.125078 0.057217 0.345302 -0.204921 0.257833 0.558344 -0.244369 -0.233243 0.965666 0.478221 0.388443 0.326861 0.152478 0.011059 -0.125589 0.179153 0.191055 -0.250151 0.116696 -0.189593 -0.000095 -0.435493 0.009425 0.173437 -0.054030 0.358077 0.223259 0.227332 -0.256844 -0.242813 -0.031904 -0.183148 0.079030 -0.177302 0.184707 0.027236 -0.141973 -0.334389 -0.194245 0.108373 0.224362 -0.201060 0.245715 -0.139573 -0.380554 -0.210929 -0.518786 -0.282815 0.102566 -0.144511 0.054196 0.527858 0.106236 0.228803 0.097055 -0.276222 -0.300076 -0.239023 0.028448 -0.031526 0.421081 -0.474972 -0.224054 0.272852 0.202972 -0.213675 0.300251 0.141666 0.002571 -0.018826 -0.204256 -0.052217 -0.694559 -0.225369 -0.270409 -0.129404 0.188277 -0.180190 0.041926 -0.499954 -0.107296 -0.049641 0.146407 -0.364132 0.279778 0.144711 0.020714 0.119635 -0.012257 -0.205286 0.196257 0.274796 0.453733 0.143886 -0.191061 -0.137760 -0.534704 0.359465 -0.069076 0.612613 -0.788275 -0.424267 0.275907 0.315890 0.086849 0.111757 -0.550021 0.235585 -0.073174 -0.134692 0.197057 0.872860 0.014558 -0.130908 -0.433390 -0.150946 -0.161822 -0.832079 -0.206209 -0.117705 0.102657 0.053655 
rın -0.203071 -0.268533 0.162075 -0.008248 0.624585 -0.024280 -0.021758 -0.101246 0.137047 0.064790 0.151708 0.163394 -0.061588 -0.183935 0.123889 0.144445 0.285987 0.676876 0.070836 -0.413760 -0.451854 0.077658 -0.246742 0.284194 -0.319510 0.149528 -0.195920 0.117459 0.405278 -0.093566 0.309508 -0.137575 -0.031806 0.240563 -0.113170 -0.426914 0.150004 0.226425 0.332139 -0.255682 0.160331 0.040816 0.375766 0.043361 0.063153 0.383808 -0.242903 -0.056011 -0.310756 1.362790 -0.211621 -0.111691 -0.086468 -0.407698 0.171883 0.165525 0.013488 -0.244426 -0.039260 -0.284318 -0.125118 -0.218118 -0.264419 0.424565 0.288579 0.244142 0.186400 -0.340929 0.041505 -0.221288 0.349490 0.176063 -0.035023 -0.325956 -0.209864 0.118926 -0.294745 -0.059108 -0.427694 -0.179143 0.004804 -0.163257 0.209766 -0.043568 -0.069162 0.053567 0.005228 -0.342799 -0.175762 0.174403 0.138589 -0.037512 0.044345 0.254901 -0.043429 0.017811 0.568172 -0.009695 -0.205466 -0.536218 -0.343248 -0.093337 -0.078061 -0.023711 0.437055 -0.045771 -0.198556 0.229882 0.196846 0.151443 -0.286639 0.204857 0.105791 -0.148323 0.196661 0.714990 0.446354 -0.381156 -0.057075 0.066883 0.258716 -0.092066 -0.058893 -0.086310 0.414305 -0.312126 0.042015 0.004727 -0.313842 0.217995 -0.207959 -0.172574 -0.740485 -0.051281 0.362436 -0.075322 0.477714 -0.091715 0.458815 0.038625 -0.424469 0.079933 -0.307901 0.201312 0.249612 0.074127 0.479263 0.080206 -0.184273 -0.172235 -0.105531 -0.118131 -0.388409 0.047715 0.328999 -0.030283 0.068744 -0.298655 -0.016282 0.138040 0.022307 0.207861 -0.167093 -0.134757 -0.084728 -0.098742 0.008142 -0.083578 -0.066938 0.327280 0.108637 -0.021137 0.162891 -0.437482 -0.293672 -0.242731 -0.222752 -0.444100 0.101584 -0.256228 -0.499838 0.059209 0.474467 -0.124272 0.161189 -0.011163 0.375337 0.282099 -0.032129 0.117216 -0.560040 -0.507796 0.058299 -0.169580 -0.151263 0.224875 -0.040450 -0.136240 -0.204623 0.527443 
nı 0.102848 0.071145 0.007095 -0.250111 0.036526 -0.210753 -0.042950 0.190737 0.550479 -0.061774 -0.165141 -0.121945 0.115746 0.408039 -0.079723 -0.055469 -0.009538 -0.260038 0.241815 -0.021230 -0.317873 -0.146443 -0.289902 0.111562 0.109706 0.044877 -0.361541 0.232083 0.079201 0.093343 -0.099228 -0.132470 -0.050873 -0.846267 -0.014711 -0.272002 -0.381276 -0.399556 0.134637 -0.118821 0.096226 -0.137028 -0.237594 -0.042154 0.969736 -0.122212 -0.141040 0.143903 0.162305 0.910068 0.149094 -0.113384 0.114710 0.247791 -0.381164 0.227355 0.288916 0.173928 0.172784 -0.071750 0.015038 0.028086 0.124063 -0.235275 0.100002 -0.261802 -0.125256 0.108174 -0.152196 0.026621 -0.148734 -0.197992 -0.047945 -0.246841 0.246046 -0.237175 -0.415094 0.069660 0.087438 -0.107027 -0.132681 -0.273760 0.001922 -0.062433 -0.248902 -0.209315 0.049151 -0.074126 -0.169854 -1.248889 0.445248 0.178388 0.329202 0.082250 -0.128339 -0.201865 0.175093 -0.037240 0.068458 -0.091287 -0.042140 0.080780 -0.134027 -0.070446 0.068469 -0.153029 -0.010817 -0.707549 -0.202497 -0.005774 0.168468 -0.009999 -0.370977 0.091736 -0.271559 -0.011339 0.056409 0.255686 -0.112356 -0.200337 0.391845 0.170128 -0.747166 0.642104 -0.180187 0.263482 -0.227514 0.276927 0.053497 0.364054 0.110619 0.105039 -0.165262 0.069210 0.206572 -0.496948 -0.013285 -0.095750 0.080337 -0.077951 -0.149703 0.270016 -0.037289 0.189001 0.164208 0.241451 0.076176 0.356958 -0.108908 -0.156043 -0.075657 0.114176 0.117663 0.028208 0.232722 -0.112778 0.234254 -0.100372 0.255359 -0.040030 -0.037769 -0.273775 0.407998 -0.022942 0.051956 -0.256515 -0.022628 0.268418 0.128910 0.185557 -0.050442 -0.148640 -0.207383 -0.174189 0.430348 0.130041 -0.104435 -0.005738 0.102533 0.179063 -0.300337 -0.154947 0.064734 0.421800 -0.059556 0.285175 0.030916 -0.180268 0.171327 0.176297 0.242797 0.054462 -0.307080 -0.123335 -0.159352 -0.039380 0.018211 0.199445 -0.059169 0.220707 
ğı 0.188323 0.147371 0.101420 -0.435747 0.076482 0.121779 -0.661613 -0.247955 0.092144 -0.316449 -0.483925 -0.145413 -0.748290 -0.177620 0.613165 -0.078258 0.125339 0.999148 -0.096831 0.295639 -0.083987 0.605543 0.099831 0.216054 -0.171870 -0.205710 0.535375 0.078018 -0.277924 0.321999 0.336470 0.109284 -0.019305 0.844566 0.013480 -0.208227 -0.194109 0.136265 -0.521195 -0.103396 0.234277 -0.080563 -0.052190 -0.126565 -0.047254 0.020438 0.253975 -0.105693 -0.241459 -0.502906 0.400544 -0.107010 0.282859 0.078006 -0.419130 -0.120840 -0.532411 0.740829 0.202124 -0.221504 -0.113632 -0.749079 0.167695 0.039885 -0.169381 -0.446859 0.052499 0.156519 0.034059 -0.519884 -0.090076 0.199862 0.132909 -0.397140 0.487657 0.268192 -0.185284 -0.273417 -0.091270 -0.137349 0.285170 0.022577 -0.371502 -0.430634 0.149460 0.231175 -0.496409 -0.171239 -0.242713 0.005307 -0.217726 -0.144405 0.483639 0.221087 0.088810 0.185694 0.048672 -0.196226 0.088086 0.436126 0.409950 -0.303967 0.033112 0.031491 -0.465455 0.455988 0.072412 0.157056 0.093299 0.430974 0.117479 0.026301 -0.222864 -0.048474 0.173908 0.103653 0.190086 0.028205 0.079675 -0.000101 -0.046504 0.167502 -0.123621 0.121109 -0.354025 0.149660 0.125521 0.105697 0.164992 -0.285738 0.319714 0.097607 -0.317742 0.234758 -0.215952 -0.071893 -0.605741 -0.405127 -0.003150 -0.106817 -0.011000 -0.166895 -0.236573 -0.195736 -0.006810 -0.156222 -0.076636 0.183361 0.235709 -0.987637 0.336407 -0.038106 0.349391 0.294981 -0.358654 0.182740 -0.118435 0.397866 0.038931 0.026454 0.223351 -0.126969 0.085769 -0.369172 0.353177 0.360374 0.004856 0.113420 -0.005980 0.189851 -0.920602 -0.019027 0.091512 0.160723 0.711869 0.183929 0.125280 -0.396351 0.125548 0.230546 -0.111489 0.126412 0.244258 0.295009 0.382683 0.785769 0.134788 -0.409461 -0.114933 -0.536355 -0.288746 0.141307 -0.094691 0.126788 0.135292 -0.159324 -0.257611 0.198333 -0.195521 -0.143811 
bir -0.193283 0.302089 0.100465 -0.263630 0.383215 -0.265338 -0.193490 0.005225 -0.221486 -0.057276 -0.225188 -0.037230 -0.155819 -0.325703 -0.132576 0.032694 0.324340 0.306648 0.006581 -0.220194 -0.224697 0.200387 -0.119507 0.004501 0.141910 -0.114021 -0.044757 -0.103060 0.286739 -0.020538 0.090817 -0.014491 -0.151205 -0.310454 0.166137 -0.103378 -0.174183 0.247160 0.013459 -0.271217 0.227338 0.303617 0.078185 0.071593 0.369547 0.199048 -0.121452 -0.019904 -0.325850 1.101022 -0.157476 -0.078221 -0.071111 0.230214 0.155889 -0.272574 -0.132845 -0.198672 0.075339 -0.196590 0.147236 -0.329247 -0.238045 0.059969 0.119116 0.083795 0.358478 -0.200542 0.041350 0.125466 0.093850 -0.031781 -0.059454 -0.379948 0.206265 0.067289 -0.304286 -0.105502 -0.007590 -0.463268 -0.011144 -0.295759 0.030893 -0.038369 -0.004070 0.091080 -0.282184 -0.223243 -0.136423 -0.235010 0.143749 0.086660 0.211347 -0.223631 -0.015794 -0.215607 0.291077 -0.227581 -0.037807 0.139266 -0.073443 0.167228 -0.232076 0.038867 -0.029524 0.256472 -0.129994 -0.525301 -0.095177 0.176520 0.085741 0.098737 0.179477 0.038174 0.239131 0.109730 0.502493 -0.181127 -0.201625 0.047110 0.380417 -0.318666 -0.135439 0.155395 0.163883 -0.238906 0.033496 0.221464 -0.174141 0.115444 0.092230 -0.119669 -0.562157 -0.011478 0.133530 0.139183 0.418864 0.141577 0.017566 -0.160431 0.178770 -0.207617 -0.290228 0.009996 0.108693 -0.118100 0.141409 -0.095953 -0.153010 -0.254316 -0.064680 -0.141788 -0.292337 0.222932 0.122106 -0.217066 -0.158261 -0.073223 0.248290 0.224524 -0.209615 -0.143251 0.082426 0.067729 0.006754 -0.368536 0.026886 0.005229 -0.314051 0.079669 -0.070463 0.089110 0.232025 -0.215806 0.018058 0.290381 -0.172638 -0.258509 -0.071295 -0.403811 0.264708 0.309896 0.147019 0.108518 0.051878 -0.027655 0.387869 -0.204936 0.252656 0.361278 0.163607 -0.400808 -0.055758 -0.430624 -0.061807 -0.281192 -0.293669 -0.098882 -0.007714 0.376281 
do 0.370138 0.129926 0.221138 -0.054944 0.259793 -0.001296 -0.307494 -0.049800 0.317394 -0.015118 0.206288 -0.607982 0.212586 0.562541 -0.106029 -0.715605 0.044211 0.117501 -0.231656 0.284569 -0.252089 -0.400890 0.152984 -0.164053 -0.973402 -0.280721 0.166978 0.597738 -0.675761 -0.232585 0.306392 0.695698 0.257473 1.793347 -0.059046 0.036547 0.077431 -0.779981 -0.442140 0.392407 -0.184433 -0.067755 -0.561272 -0.292993 -0.343938 -0.070133 -0.139104 0.213333 -0.363374 -2.717069 0.413285 0.236093 0.327272 0.012770 0.385268 -0.161377 -0.542131 0.834619 0.226854 -0.326519 -0.484855 -0.198117 0.332766 0.182154 -0.356194 -0.537957 0.170014 -0.418940 -0.357138 0.105129 0.005024 0.563476 0.178609 0.004785 -0.467767 0.012255 0.388588 -0.218984 -0.080021 0.401814 0.337889 0.001713 -0.044090 0.238945 0.031508 -0.416374 0.578073 0.094996 0.083662 1.153401 -0.024624 0.083813 -0.081284 0.189126 0.055029 0.613868 0.006679 -0.550035 -0.358022 -0.354413 -0.038697 -0.145727 -0.116060 0.015280 -0.426660 0.031257 -0.006564 0.412601 0.127549 0.071923 0.136792 -0.039123 -0.207970 -0.222480 0.333779 0.078935 -0.642668 0.238930 0.326884 0.009137 0.580244 0.474776 -0.312335 -0.204369 -0.538393 0.073122 0.110385 -0.275427 0.234418 -0.224457 0.128342 0.346478 0.205562 0.249356 -0.203466 -0.381363 -0.504016 -0.434431 0.498076 -0.558208 -0.530319 0.302824 -0.206698 -0.033055 0.260162 0.484772 -0.500652 1.149034 0.015506 -0.654914 0.160105 -0.226484 0.427719 -0.098211 -0.160531 0.477118 0.038080 -0.339511 0.176793 -0.453632 -0.245438 -0.101107 0.608033 -0.198105 0.113148 0.490704 -0.303301 -0.416534 0.122102 0.561090 -0.202460 -0.239563 -0.065201 0.079486 0.073431 0.273440 -0.062254 0.188831 -0.739185 -0.049605 -0.594908 -0.084905 0.493986 -0.147599 -0.229763 0.750423 0.005971 -0.106568 -0.443184 0.219236 0.134100 0.271329 0.127441 0.385580 0.156510 -0.020916 0.162746 0.041863 0.375176 -0.354843 
yı 0.114926 0.129306 0.180979 -0.284539 0.497120 -0.012092 -0.616915 -0.480641 -0.012099 0.053331 -0.255633 -0.042454 0.380913 -0.319365 -0.487134 -0.139856 0.292000 0.225023 0.153412 -0.479688 -0.289246 -0.019026 0.124694 0.258572 0.257728 -0.020037 -0.067438 -0.302825 0.380760 -0.200977 0.262031 -0.444307 0.022038 -0.223501 -0.100885 -0.270114 -0.010767 -0.063359 0.390061 0.235975 0.117816 0.485564 0.026725 0.140093 -0.006328 0.555289 -0.134348 -0.320644 -0.045248 0.621685 -0.107242 -0.370708 -0.249294 0.267137 0.168742 0.425356 -0.225508 0.097320 -0.064030 0.052140 -0.010419 -0.188332 -0.321875 -0.172804 -0.098450 0.418011 0.167079 -0.124681 -0.217103 0.181260 0.261985 -0.392420 -0.228550 -0.165091 -0.137705 -0.203648 0.252726 0.034269 0.131541 -0.642223 0.045169 -0.287573 -0.110478 -0.387243 0.147010 0.028120 -0.333895 -0.376410 0.025034 -0.858886 0.113350 0.414152 0.064632 -0.586816 -0.800819 -0.196095 0.580754 -0.421874 0.038034 0.232351 -0.117529 0.189783 -0.013505 -0.011600 -0.504739 0.141304 -0.231375 -0.921120 -0.024628 0.575840 0.005323 0.149578 0.284378 0.178328 0.106906 0.180705 0.080852 -0.376455 -0.295550 0.168077 0.578959 -0.448381 0.032115 0.411843 0.587498 0.054788 0.020658 -0.184129 0.197567 0.165394 -0.163050 0.146690 -0.477846 -0.164831 0.273946 0.110114 0.563343 0.298502 -0.263636 0.114197 0.147433 -0.284667 -0.222910 0.293182 -0.049252 -0.133061 0.199900 0.163357 -0.068447 -0.283460 0.024413 -0.331152 0.180024 0.000216 -0.130428 -0.251917 -0.331597 -0.230620 0.464895 -0.134183 -0.476399 -0.248396 0.232237 0.214294 0.181387 -0.196133 -0.172563 0.099406 -0.415389 0.043078 -0.087804 0.158927 0.240711 0.049365 0.128403 0.004170 0.148946 -0.505913 0.121817 -0.198648 0.125771 0.595018 -0.005074 0.073876 0.082886 0.043115 0.727884 -0.107639 0.179433 0.393969 0.321183 -0.330233 0.040758 -0.399785 -0.055567 0.164945 -0.310747 -0.182734 0.061684 0.556719 
tı -0.215020 -0.279927 0.324533 -0.254231 0.194843 0.095028 -0.065256 -0.082822 0.522531 0.102292 0.108147 0.038976 -0.187492 0.189536 0.029901 0.159074 -0.200245 0.138525 0.043933 -0.080388 -0.568165 -0.199306 -0.208561 0.121084 -0.503613 0.258374 0.239754 0.444294 -0.067956 0.060844 0.030107 -0.231852 -0.064161 0.357819 0.028408 -0.891107 0.276493 -0.341698 0.399019 0.131062 0.090011 -0.300234 0.145900 -0.178085 0.274169 0.130516 -0.330616 0.078999 -0.098521 0.323940 0.098866 -0.269867 0.087712 -0.164752 -0.323410 0.150557 -0.163885 0.109927 0.057706 -0.219612 0.010923 -0.045114 -0.116898 0.328417 -0.028174 0.141615 -0.023675 -0.223009 -0.085132 -0.217247 0.074481 0.051835 0.293852 -0.429234 -0.275773 -0.025048 -0.359720 0.017476 -0.167921 -0.267878 -0.177656 0.051367 -0.081919 0.017602 0.068650 -0.071605 0.026712 -0.492801 -0.213472 -0.079145 0.381726 0.238228 0.351947 0.121273 0.039906 0.137266 0.550668 0.130430 -0.393126 -0.348790 -0.248609 0.075764 -0.112257 -0.363467 0.303734 0.211420 0.143631 -0.105416 -0.308980 0.337367 0.016675 0.209885 -0.149515 0.020736 0.113180 0.536437 0.156892 -0.056111 0.270155 0.028298 0.286609 0.172179 -0.291226 0.240259 -0.001301 0.021791 -0.080813 0.016685 -0.308947 0.073172 -0.244132 -0.331103 -0.752834 0.026535 0.717342 -0.352601 0.151573 -0.239656 0.449692 0.343785 -0.062312 0.317612 -0.369968 0.281481 0.462700 0.082296 0.281174 0.593995 -0.218756 -0.238749 -0.060599 -0.234127 -0.281437 0.210517 0.130957 -0.114940 0.298703 -0.452261 0.021796 -0.025892 0.018184 0.082278 0.057979 -0.164272 -0.081044 -0.178422 0.128376 0.077513 -0.233320 0.085236 -0.191013 -0.433480 0.104724 -0.267770 0.110186 -0.055591 0.074546 -0.237815 0.034166 -0.211003 -0.769748 -0.152198 0.268491 -0.367509 -0.160977 0.035648 0.131752 0.095842 0.003743 -0.361754 -0.404996 -0.174987 0.164826 0.053338 0.004438 0.386564 -0.056763 0.119234 -0.216403 0.485956 
ti 0.336353 0.210422 -0.020594 0.038761 0.176500 0.148205 -0.005308 -0.108410 -0.068943 -0.498824 0.073384 0.180101 -0.159950 -0.051529 0.045054 0.408356 -0.342791 0.848260 0.063457 -0.246396 0.205328 0.396522 -0.268560 0.080266 0.069200 0.187779 -0.008696 -0.516447 -0.158136 0.432027 0.164921 -0.249304 0.060398 -1.286236 0.141215 -0.412184 -0.552888 0.201928 -0.436546 0.205515 0.353042 -0.066767 0.268535 0.011365 0.545324 -0.125926 0.046174 0.538828 0.113586 0.586727 -0.252409 -0.067248 0.386667 0.078441 -0.380477 -0.349214 -0.214139 -0.142598 0.269386 -0.290331 -0.421553 0.269571 -0.104736 0.008582 0.079022 -0.199484 0.315487 0.001315 0.295624 -0.170727 -0.090783 -0.031923 -0.408699 -0.380226 0.214347 0.006710 -0.490085 0.354620 0.022874 -0.158189 -0.124472 -0.086221 -0.385811 0.212423 -0.576096 0.281697 0.161923 -0.357549 -0.297162 -1.416657 0.242339 -0.302454 0.241852 0.349288 0.172685 0.143409 0.320786 -0.299532 -0.184243 -0.294078 -0.173162 0.090082 -0.272619 -0.376899 0.302608 0.118279 0.192134 -0.413370 -0.104363 -0.274114 0.185650 0.118532 -0.448622 0.047321 -0.333029 -0.116873 0.064390 -0.012482 0.314891 0.171086 -0.180354 -0.275738 -0.148665 0.618474 0.016258 -0.312563 -0.115010 0.732991 -0.324390 0.180508 -0.110432 0.020171 -0.139114 0.006363 0.491269 -0.321002 0.345388 -0.397686 -0.296195 0.157824 -0.259077 -0.514626 -0.181825 0.343735 -0.014683 -0.450479 -0.079228 0.073520 0.020288 -0.106050 0.099862 0.014628 -0.019264 0.218992 0.000184 -0.002315 0.190585 -0.037040 -0.201710 0.170865 0.107516 -0.234675 -0.129711 0.041920 0.090220 -0.023633 0.484182 0.281563 0.040612 0.031231 -0.168360 0.113056 0.460446 0.329830 0.256637 0.174158 -0.028591 0.141801 0.028581 0.097714 0.124718 0.098638 0.072091 0.403692 -0.056915 0.052282 0.024584 0.007265 0.501663 -0.297269 0.207607 0.078261 -0.136377 0.190697 -0.199939 -0.141567 -0.061069 0.552659 -0.442304 0.151753 
